tree
version=v4
num_class=3
num_tree_per_iteration=3
label_index=0
max_feature_idx=45
objective=multiclass num_class:3
feature_names=log_return_1 log_return_5 log_return_20 range_hl realized_vol_20 sma_20 sma_50 sma_200 price_to_sma20 price_to_sma50 price_to_sma200 sma_cross rsi_14 macd macd_signal macd_hist atr_14 adx_14 sma200_atr_distance bb_upper bb_lower bb_width bb_position hour day_of_week is_tokyo is_london is_ny is_ldn_ny_overlap tokyo_cumret london_cumret ny_cumret tokyo_vol_ratio london_vol_ratio ny_vol_ratio efficiency_ratio sma_slope sma_accel ret_persistence parkinson_vol jump_score tail_asymmetry zscore bw_percentile is_range_regime mr_signal
feature_infos=[-0.013832902509372866:0.017270071827301673] [-0.01809281892528869:0.022876830900474987] [-0.026200570408776911:0.031776654961675442] [7.7314855083045832e-05:0.021478817578248481] [0.014991500425880849:0.33954927793122525] [0.95707950000000008:1.2248399999999999] [0.96027560000000012:1.2235863999999999] [0.97283799999999998:1.2211014499999999] [-0.015673303944816808:0.015573834680824516] [-0.022685783673622728:0.028686324808947283] [-0.036562493643708893:0.041211805315088945] [0:1] [0:99.001996007984161] [-0.0048628386022737669:0.0077317199617608079] [-0.0041592261075267733:0.007114319430776516] [-0.0023108830693379118:0.0022779758348650627] [0.00034214285714287814:0.0065492857142856863] [7.9018002956180791:90.787551000722047] [0.00021731631593706476:24.918977035489242] [0.96093475738188328:1.2276503748252201] [0.94616091594240603:1.2235642788869483] [0.00079078767840352665:0.039983523434629249] [-0.54290215722487334:1.5345933853116158] [0:23] [0:6] [0:1] [0:1] [0:1] [0:1] [-0.018523239559169988:0.013155164549429593] [-0.018743062251254262:0.015709128340398719] [-0.018698444119683466:0.02248982264491968] [0:0.0040102508194944384] [0:0.0040102508194944384] [0:0.0039115352647922184] [0:0.93898305084742206] [-0.0011106666666667042:0.0016111666666666451] [-0.00029766666666660352:0.00036666666666662628] [0.10000000000000001:0.90000000000000002] [0.0004131576226078419:0.002911743485667989] [0:45.565117649119998] [0.05776335963188637:36.774502014149071] [-4.1716086288996292:4.138373541246553] [0:0.99999999719291111] [0:1] [-3.5492591200979184:3.7939612799342495]
tree_sizes=3407 3356 3390 3486 3460 3489 3503 3458 3474 3459 3444 3457 3499 3461 3476 3479 3477 3463 3466 3459 3476 3487 3475 3473 3503 3454 3505 3489 3492 3516 3503 3489 3529 3498 3478 3461 3499 3462 3474 3481 3499 3502 3484 3487 3463 3496 3482 3493 3493 3459 3471 3498 3478 3471 3475 3456 3486 3486 3463 3479 3487 3472 3473 3509 3488 3458 3511 3475 3494 3496 3489 3521 3493 3473 3457 3503 3477 3515 3502 3498 3475 3516 3530 3505 3492 3481 3498 3487 3484 3442 3476 3482 3445 3464 3488 3478 3492 3492 3493 3444 3478 3452 3512 3499 3492 3475 3492 3466 3478 3490 3464 3528 3466 3486 3509 3486 3464 3510 3479 3467 3511 3508 3494 3495 3498 3480 3496 3487 3459 3507 3474 3486 3518 3504 3455 3475 3478 3464 3459 3457 3458 3477 3487 3452 3487 3483 3476 3476 3470 3487 3501 3476 3438 3473 3504 3470 3459 3505 3453 3498 3508 3463 3468 3447 3490 3488 3466 3497 3484 3437 3491 3512 3502 3498 3492 3466 3459 3512 3461 3478 3483 3475 3486 3478 3469 3510 3492 3452 3460 3507 3482 3494 3421 3499 3478 3484 3482 3488 3474 3498 3472 3500 3489 3464 3484 3478 3474 3466 3494 3436 3454 3463 3501 3443 3478 3459 3457 3462 3487 3477 3504 3469 3446 3507 3478 3505 3495 3460 3509 3490 3475 3501 3483 3481 3453 3505 3493 3516 3458 3449 3488 3477 3510 3509 3469 3496 3473 3485 3467 3453 3493 3493 3476 3475 3527 3440 3489 3468 3470 3514 3473 3482 3520 3479 3466 3496 3459 3478 3486 3460 3507 3465 3519 3476 3475 3461 3463 3485 3461 3497 3473 3470 3480 3493 3450 3473 3466 3461 3462 3480 3465 3534 3477 3475 3490 3480 3452 3476 3473 3459 3451 3452 3473 3513 3469 3494 3498 3453 3482 3520 3480 3466 3469 3491 3490 3487 3497 3488 3501 3515 3445 3476 3486 3462 3479 3472 3478 3496 3477 3419 3505 3497 3453 3506 3486 3504 3453 3493 3501 3474 3489 3467 3473 3455 3481 3504 3472 3482 3496 3487 3527 3488 3509 3471 3486 3489 3480 3450 3449 3525 3500 3481 3456 3465 3465 3504 3468 3474 3464 3508 3472 3515 3452 3479 3469 3465 3474 3498 3484 3460 3481 3477 3469 3490 3476 3499 3491 3474 3462 3488 3474 3472 3464 3457 3483 3469 3455 3488 3480 3453 3482 3486 3430 3496 3493 3478 3504 3462 3500 3479 3472 3457 3483 3517 3494 3487 3466 3454 3456 3519 3474 3485 3477 3481 3478 3484 3461 3483 3491 3511 3475 3488 3484 3436 3497 3457 3463 3467 3484 3469 3492 3484 3480 3484 3474 3497 3483 3468 3506 3475 3473 3478 3496 3440 3493 3468 3517 3470 3484 3529 3484 3460 3462 3491 3478 3472 3459 3492 3445 3491 3465 3497 3498 3500 3489 3509 3450 3471 3491 3465 3509 3469 3474 3508 3501 3465 3476 3509 3510 3489 3496 3469 3473 3466 3492 3457 3498 3484 3440 3492 3478 3509 3492 3461 3490 3488 3436 3503 3476 3478 3515 3434 3460 3497 3487 3468 3469 3498 3467 3501 3468 3469 3488 3488 3485 3477 3463 3459 3467 3455 3501 3489 3466 3459 3472 3483 3461 3504 3470 3442 3463 3474 3490 3463 3469 3461 3446 3472 3464 3460 3462 3462 3468 3457 3453 3467 3433 3483 3465 3496 3479 3477 3451 3475 3514 3460 3486 3488 3470 3475 3471 3505 3492 3477 3462 3477 3480 3452 3469 3488 3467 3470 3488 3453 3509 3513 3463 3507 3472 3489 3450 3500 3446 3469 3494 3480 3467 3515 3472 3445

Tree=0
num_leaves=31
num_cat=0
split_feature=16 5 6 10 5 4 7 21 7 14 4 7 7 10 14 24 4 41 41 7 4 19 6 19 41 6 10 6 7 38
split_gain=90.6245 71.5434 43.2525 39.2996 67.1753 45.0954 33.3627 33.2914 32.854 30.9644 30.3476 61.7368 32.4579 54.1217 27.3887 26.7913 26.6309 26.5875 26.1995 25.2049 32.4978 28.1231 37.1961 39.1523 25.0068 45.4735 24.6327 27.074 23.2438 22.9019
threshold=0.0029703571428571778 1.0847952500000002 1.2206126000000002 0.005680466260746809 1.0770192500000002 0.12628255082076198 1.2185308750000001 0.0024700459919570115 1.0436760250000001 -0.0018296415283330766 0.084244358853651613 1.1675640250000001 1.1964014500000002 0.0062648263447808725 -0.0021620606758077096 1.0000000180025095e-35 0.045592391117203493 1.434927790903733 0.57956920821457814 1.1842572000000002 0.064670203186943873 1.1494972285564946 1.1641877 1.1734327261071662 2.260647459737839 1.0934669000000004 -0.0045889978191216976 1.1705705000000004 1.0672938500000002 0.37500000000000006
decision_type=2 2 2 2 2 2 2 2 2 2 2 2 2 2 2 2 2 2 2 2 2 2 2 2 2 2 2 2 2 2
left_child=1 3 6 9 5 8 7 18 -5 28 12 15 19 14 -14 -12 -10 -17 -3 21 -21 24 -23 -24 -9 -26 -25 -28 -1 -27
right_child=-2 2 -4 4 -6 -7 -8 10 16 -11 11 -13 13 -15 -16 17 -18 -19 -20 20 -22 22 23 26 25 29 27 -29 -30 -31
leaf_value=-0.97469883117385392 -1.0058864768724924 -0.97697229073207659 -0.90929077643142842 -0.93633394341999954 -1.0003102089395317 -0.98875206329778398 -1.0150289073692977 -0.96513306060907211 -0.90133175898007023 -0.98189320210321951 -0.98509668507167381 -0.91740810379928328 -0.89834848101020737 -0.91566787737071542 -0.99574574421493756 -0.95317829617369643 -0.97023798620383417 -0.9788894335940489 -0.95369194524263534 -0.94407951537770496 -1.0039439599729527 -0.98853495894108756 -0.95507830471600563 -1.0093386762894949 -1.0193376742974449 -0.93480727809453124 -1.0168028052372369 -0.97152793742859533 -0.94155890718422086 -0.97819383372305835
leaf_weight=146.34916320443153 204.88882848620415 153.04948633909225 30.680426985025406 197.1305595934391 117.78462773561478 97.683658331632614 38.791344463825226 1532.6107549071312 15.163889199495314 2580.6823526024818 139.64884006977081 73.703554481267929 7.4056203067302695 24.33275243639946 284.94005751609802 361.46480068564415 186.19845342636108 139.29619148373604 574.46454665064812 158.69186371564865 26.448643952608109 467.25937649607658 265.54438528418541 57.834368109703064 61.713502556085587 37.028101533651352 35.617507189512253 452.80078446865082 82.872417718172073 170.32926705479622
leaf_count=415 581 434 87 559 334 277 110 4346 43 7318 396 209 21 69 808 1025 528 395 1629 450 75 1325 753 164 175 105 101 1284 235 483
internal_value=-0.973026 -0.972236 -0.968479 -0.977825 -0.966365 -0.958307 -0.968837 -0.968481 -0.950844 -0.980329 -0.970155 -0.960744 -0.972032 -0.987315 -0.993279 -0.965731 -0.965049 -0.96033 -0.95859 -0.97055 -0.952632 -0.971626 -0.977296 -0.970827 -0.967601 -0.98166 -0.978483 -0.97483 -0.962717 -0.970446
internal_weight=8722.41 8517.52 5093.66 3423.87 613.961 496.177 5062.98 5024.18 398.493 2809.9 4296.67 714.113 3582.56 316.678 292.346 640.41 201.362 500.761 727.514 3265.88 185.141 3080.74 1279.06 811.797 1801.68 269.071 546.253 488.418 229.222 207.357
internal_count=24734 24153 14444 9709 1741 1407 14357 14247 1130 7968 12184 2025 10159 898 829 1816 571 1420 2063 9261 525 8736 3627 2302 5109 763 1549 1385 650 588
is_linear=0
shrinkage=1


Tree=1
num_leaves=31
num_cat=0
split_feature=16 19 43 43 41 6 41 39 7 19 39 29 16 39 33 7 36 17 41 20 10 19 16 39 31 26 17 13 41 17
split_gain=140.473 50.9708 37.5907 35.5389 33.7412 32.2221 23.9735 26.4757 24.3735 65.1938 25.9278 23.52 23.3276 21.5342 20.2841 20.5605 21.5273 23.2857 26.4035 19.4504 20.8495 18.914 21.3914 26.9198 19.1901 18.42 17.8482 18.5017 17.5447 21.1983
threshold=0.0024924999999999934 1.1351133566059031 0.17051485155906179 0.31262553416615696 0.8106127576418779 1.2057359000000003 0.60207262325179967 0.001360836957468921 1.0863444000000002 1.0525374916604899 0.0018395517671198629 -0.0017983447900289948 0.0035735714285713986 0.001368849196384262 0.00054483207435931989 1.2185308750000001 1.8333333333305413e-06 63.465821909686277 0.32047216121763278 1.1342037201971114 0.0011532168963691582 1.1583811073544359 0.0020085714285714156 0.00073475715005621469 -0.0033324858028985307 1.0000000180025095e-35 27.477650412194375 5.5993452841018872e-05 0.15139691024837895 23.841026524350166
decision_type=2 2 2 2 2 2 2 2 2 2 2 2 2 2 2 2 2 2 2 2 2 2 2 2 2 2 2 2 2 2
left_child=3 2 -2 28 14 21 7 -4 9 10 26 -9 -12 -10 15 16 -5 -18 -19 25 -21 -6 23 24 -23 -3 27 -8 29 -1
right_child=1 19 6 4 5 -7 8 11 13 -11 12 -13 -14 -15 -16 -17 17 18 -20 20 -22 22 -24 -25 -26 -27 -28 -29 -30 -31
leaf_value=-1.3223356061374463 -1.4280360628152593 -1.2860274608879145 -1.3295127976402608 -1.3698266192669566 -1.4035246002934521 -1.4314513457036724 -1.3982087734529136 -1.343418606176964 -1.3282462344338819 -1.311082048586917 -1.3680386416841039 -1.4159016758509666 -1.2790835836599592 -1.4128449218828623 -1.4021580580205319 -1.3047913602416776 -1.3939568189818048 -1.3276313979259309 -1.4050975956542755 -1.3076394521078738 -1.4368716205365271 -1.3270283851969789 -1.3341716763350702 -1.4100900005423687 -1.3864672850496917 -1.3753364049274608 -1.4068940710759448 -1.2985611592843735 -1.4056550552875999 -1.4005844988632528
leaf_weight=13.933026790618895 33.717924833297729 28.423374652862549 13.933026790618895 138.21562576293945 1298.2794363498688 89.171371459960938 9.7531187534332293 13.375705718994139 9.4744582176208478 57.404070377349854 24.24346661567688 68.550491809844971 10.58910036087036 36.504530191421509 304.57596564292908 7.5238344669342032 637.01798486709595 28.702035188674927 17.834274291992188 5.8518712520599347 6.6878528594970703 14.490347862243651 15.88365054130554 147.41142344474792 215.9619152545929 7.2451739311218253 57.404070377349854 8.917137145996092 3548.4632630348206 22.85016393661499
leaf_count=50 121 102 50 496 4659 320 35 48 34 206 87 246 38 131 1093 27 2286 103 64 21 24 52 57 529 775 26 206 32 12734 82
internal_value=-1.40021 -1.37115 -1.3779 -1.40197 -1.39787 -1.40216 -1.37245 -1.39323 -1.36315 -1.35434 -1.37672 -1.40407 -1.341 -1.39541 -1.39112 -1.38707 -1.38782 -1.39146 -1.35732 -1.323 -1.37656 -1.40061 -1.39101 -1.3934 -1.38273 -1.30417 -1.39308 -1.35062 -1.4053 -1.37094
internal_weight=6892.39 392.075 343.867 6500.31 2915.07 1781.2 310.149 95.8592 214.29 168.311 110.907 81.9262 34.8326 45.979 1133.87 829.294 821.77 683.554 46.5363 48.2083 12.5397 1692.03 393.747 377.864 230.452 35.6685 76.0743 18.6703 3585.25 36.7832
internal_count=24734 1407 1234 23327 10461 6392 1113 344 769 604 398 294 125 165 4069 2976 2949 2453 167 173 45 6072 1413 1356 827 128 273 67 12866 132
is_linear=0
shrinkage=1


Tree=2
num_leaves=31
num_cat=0
split_feature=6 10 17 10 4 7 10 6 7 19 5 18 7 10 5 7 5 43 6 7 10 6 18 7 21 7 10 6 4 7
split_gain=97.5023 58.7128 48.9465 48.432 53.2051 50.4842 77.5788 50.2243 39.0319 38.4905 37.8343 53.0812 38.5378 32.7494 32.563 26.4382 35.1752 45.3141 32.6379 76.7551 24.5019 24.3302 23.6157 26.2076 22.6675 28.8382 22.2806 28.3944 31.3577 23.4138
threshold=1.0840562000000002 0.005680466260746809 18.459094884609211 -0.014289629921132805 0.083664183424724106 1.1964014500000002 0.005680466260746809 1.2206126000000002 1.0718654250000001 1.1384066415502054 1.1751627500000001 1.8740051812014225 1.1764352750000002 -0.0065253114139647841 1.1906785000000004 1.1733616000000002 1.1714137500000004 0.24331646365369672 1.1651256000000003 1.1621407750000003 -0.0053815159450490415 1.1633332000000003 6.3654929015646742 1.0735481000000002 0.0092966294467215025 1.0464852000000002 0.01880979519604065 0.98938120000000007 0.15121528988954364 0.97748120000000005
decision_type=2 2 2 2 2 2 2 2 2 2 2 2 2 2 2 2 2 2 2 2 2 2 2 2 2 2 2 2 2 2
left_child=1 2 -1 14 5 10 7 -7 26 -6 12 -12 15 -13 -2 16 18 -18 19 -5 -14 -21 -10 -24 -4 -26 27 28 29 -3
right_child=3 8 24 4 9 6 -8 -9 22 -11 11 13 20 -15 -16 -17 17 -19 -20 21 -22 -23 23 -25 25 -27 -28 -29 -30 -31
leaf_value=-0.95035625409023838 -0.93446725083206916 -1.0181717218339481 -0.96954559035940813 -0.98385427272045389 -0.98883238561846021 -0.95274692794427018 -1.0247538880864768 -1.0222155526965389 -0.92658662536642677 -1.0126565354684853 -1.0195408291363954 -1.0272802313407143 -0.92353288299849035 -0.98226994771778953 -1.0328765613342783 -1.0053381534571169 -0.92346661410252928 -0.98522041482261113 -1.0008556728840414 -0.94241951834739923 -0.98075607466088599 -0.97601784859966856 -0.93063063053958539 -1.0012883875928285 -0.96882786603003046 -0.99260782548763893 -0.96518761760260008 -0.99827433945972244 -0.90020623162018898 -0.92741281997169578
leaf_weight=292.65524482727051 73.163811206817627 20.401447355747226 1976.1264007687569 2520.282246619463 539.23135855793953 345.06585958600044 49.24487292766571 28.139927387237549 39.044149249792099 247.27961191534996 164.97032430768013 44.672134727239609 45.727382004261017 423.85765627026558 9.497225493192671 123.46393141150475 58.038600236177444 60.852592974901199 231.09915366768837 154.76960062980652 31.657418310642242 82.6610367000103 20.049698263406754 37.988901972770691 242.00337553024292 269.43980473279953 73.867309391498566 468.17804190516472 15.828709155321119 10.904221862554548
leaf_count=832 208 58 5618 7165 1533 981 140 80 111 703 469 127 130 1205 27 351 165 173 657 440 90 235 57 108 688 766 210 1331 45 31
internal_value=-0.979435 -0.972931 -0.969698 -0.983743 -0.984352 -0.982195 -0.965768 -0.957985 -0.986029 -0.996323 -0.983955 -0.99515 -0.981812 -0.986561 -0.945774 -0.982647 -0.981746 -0.955074 -0.982806 -0.981294 -0.946942 -0.954117 -0.956653 -0.976879 -0.971974 -0.981356 -0.990869 -0.99455 -0.95756 -0.986559
internal_weight=8700.16 3466.49 2780.22 5233.67 5151.01 4364.5 422.451 373.206 686.262 786.511 3942.05 633.5 3308.55 468.53 82.661 3231.17 3107.7 118.891 2988.81 2757.71 77.3848 237.431 97.0827 58.0386 2487.57 511.443 589.18 515.312 47.1344 31.3057
internal_count=24734 9855 7904 14879 14644 12408 1201 1061 1951 2236 11207 1801 9406 1332 235 9186 8835 338 8497 7840 220 675 276 165 7072 1454 1675 1465 134 89
is_linear=0
shrinkage=1


Tree=3
num_leaves=31
num_cat=0
split_feature=4 20 13 6 39 6 39 21 7 10 10 19 39 36 6 18 19 19 41 19 41 19 7 4 7 39 39 39 20 13
split_gain=80.4114 49.3495 53.3059 48.3933 44.6373 38.8378 40.1821 40.574 34.7506 87.2219 43.4427 34.1417 44.5243 35.876 28.7369 28.4721 28.4396 56.7567 35.5749 36.256 40.81 30.9516 29.4608 32.0453 27.9002 26.514 36.5691 39.2055 34.8116 29.5661
threshold=0.13037296321947947 1.0842342478849425 0.0010602745820138539 1.1627407000000003 0.0004935048447900866 1.2206126000000002 0.00082136288642128388 0.0029073193794149675 1.0423327250000003 0.0025445887160695517 0.00068151234105950931 1.0598406671406622 0.00099309843495233628 -0.00014149999999997956 1.0760978000000001 8.4198843955093707 1.1278257184121829 1.103585330566947 5.0267744676601973 1.114551512590831 0.27998528945812434 1.1770853370472778 1.1753321500000002 0.080273422156882698 1.1179495000000002 0.00051828417010557637 0.00071134092747756922 0.00089881644241075829 1.0797081665253698 0.00010202539768733311
decision_type=2 2 2 2 2 2 2 2 2 2 2 2 2 2 2 2 2 2 2 2 2 2 2 2 2 2 2 2 2 2
left_child=1 2 8 15 -3 6 7 -6 9 -1 11 -10 13 -13 -12 -2 17 -8 19 -19 -21 -18 -23 -24 -22 -15 29 28 -28 -27
right_child=3 4 -4 -5 5 -7 16 -9 10 -11 14 12 -14 25 -16 -17 21 18 -20 20 24 22 23 -25 -26 26 27 -29 -30 -31
leaf_value=-0.007256844082011802 -0.023845550628700134 0.037482365079860767 0.01237107320036944 0.0855766382464411 0.0081985571006724378 0.059333952734708123 0.0040014175859758158 -0.0042369912101340289 -0.016888970539921427 0.036625584772453097 -0.01052620541069006 -0.019723554895062993 0.019888526088551142 0.035637573993913443 -0.030564386494184477 0.01314715638697378 -0.001743946184183251 0.0469276124675303 -0.0326488184765844 -0.042122982129209736 0.048022069855795525 0.05588141573034399 -0.0049518330189403242 0.050419551937571916 0.0023783588860178161 -0.029338469393591506 0.012749490383426744 -0.014502900832150518 0.066754271515665806 0.0037187614107025303
leaf_weight=391.89573988318443 507.45719170570374 100.76633742451668 464.61135944724083 11.054951965808867 986.79201993346214 31.326787114143372 454.99569097161293 1956.3037313222885 382.81782209873199 159.25048816204071 450.89082133769989 275.67269590497017 232.90930458903313 52.781122982501984 296.6297650039196 57.955413520336151 678.68035155534744 214.34634217619896 21.505867958068848 25.793571531772614 71.137158066034317 46.411038249731064 98.9059077501297 35.511276096105576 63.246015816926956 156.40498492121696 220.31444206833839 120.96722385287285 34.51480358839035 119.18138229846954
leaf_count=1115 1448 285 1316 31 2791 87 1287 5547 1089 449 1281 783 661 150 844 165 1921 606 61 73 201 131 281 99 179 445 627 344 98 339
internal_value=1.83565e-05 0.00129567 -0.00335008 -0.0180281 0.00455628 0.00384809 0.00347457 -6.74701e-05 -0.0058738 0.00542273 -0.008531 -0.00387097 0.000238322 -0.00443257 -0.0184777 -0.0200538 0.00956892 0.0160481 0.0298885 0.0334795 0.0154834 0.0031537 0.0215354 0.00967657 0.0265403 0.00155368 -0.00120811 0.0089371 0.0200641 -0.0150424
internal_weight=8721.03 8144.56 3358.84 576.468 4785.72 4684.96 4653.63 2943.1 2894.23 551.146 2343.08 1595.56 1212.75 979.837 747.521 565.413 1710.53 851.025 396.029 374.523 160.177 859.509 180.828 134.417 134.383 704.164 651.383 375.796 254.829 275.586
internal_count=24734 23090 9541 1644 13549 13264 13177 8338 8225 1564 6661 4536 3447 2786 2125 1613 4839 2407 1120 1059 453 2432 511 380 380 2003 1853 1069 725 784
is_linear=0
shrinkage=0.05


Tree=4
num_leaves=31
num_cat=0
split_feature=16 5 43 43 41 6 4 4 32 41 39 7 5 4 7 29 5 31 39 43 33 39 21 7 2 4 39 3 41 29
split_gain=126.564 46.726 33.9706 32.4108 31.3769 30.3891 26.3496 30.9101 22.6644 20.8515 23.3282 23.1789 44.102 22.5427 39.0771 21.0041 20.5452 20.0793 19.7724 19.3284 18.7263 17.7524 38.0921 17.6248 18.3284 24.5114 16.85 16.6333 16.1602 16.0987
threshold=0.0024924999999999934 1.1242475000000003 0.17051485155906179 0.31262553416615696 0.8106127576418779 1.2057359000000003 0.13037296321947947 0.10173815801900359 0.0019680057161975306 0.60207262325179967 0.001360836957468921 1.0863444000000002 1.0455087500000002 0.17135395323131156 1.0129837000000002 -0.0017983447900289948 1.0316987500000001 -0.00096101781069164239 0.00097297071777913819 0.78515960966244436 0.00054483207435931989 0.00064702433712020909 0.005066633626976842 1.2185308750000001 0.00053865554663874379 0.053333481055681253 0.001368849196384262 0.0010428569504603402 0.15139691024837895 -0.00046227376903164855
decision_type=2 2 2 2 2 2 2 2 2 2 2 2 2 2 2 2 2 2 2 2 2 2 2 2 2 2 2 2 2 2
left_child=3 2 -2 28 20 8 7 -3 16 10 -4 12 13 -11 -15 -12 18 21 -6 -14 23 22 -18 24 25 27 -13 -5 -1 -21
right_child=1 6 9 4 5 -7 -8 -9 -10 11 15 26 19 14 -16 -17 17 -19 -20 29 -22 -23 -24 -25 -26 -27 -28 -29 -30 -31
leaf_value=0.027752426611299338 -0.027340533465391993 0.077591707069028737 0.065198690256076108 0.075356407005934378 0.067316100555218736 -0.030738857631832036 0.10533611701333297 -0.044716806854814127 0.069688028275997835 0.0099218108498733901 0.052820475185437227 0.062985638067509842 0.096449877453052557 0.099587566346039658 -0.0080754280252986529 -0.01469169730104917 0.0009853432722642416 -0.0028425558205068245 -0.027375556546948451 0.082610864542328966 -0.0020127460112001915 0.00527927125013923 0.075670001292887965 0.086580804955097623 0.0081613333674251821 0.014681659823337493 -0.012580852255078691 0.0032858578043798883 -0.0053212793306390647 -0.015720931529156882
leaf_weight=37.323470711708069 33.18853098154068 13.857122182846071 14.497937440872191 34.192799597978592 5.8306179344654074 87.587837815284729 27.482966244220734 8.235837519168852 11.412684082984923 79.055338561534882 13.805854737758635 9.2525336742401105 41.588541388511658 21.755096137523651 13.75806951522827 69.60393163561821 39.722081184387207 1178.6154966056347 101.14939180016518 8.2012961506843585 304.38157159090042 325.99139675498009 29.942980498075485 7.9468278884887686 670.32620948553085 112.24360564351082 36.394011348485947 10.453217864036558 3534.9758828580379 8.4520656764507276
leaf_count=132 121 48 50 121 21 320 93 29 41 281 48 32 142 75 49 251 142 4229 364 28 1093 1169 106 27 2394 397 131 37 12734 29
internal_value=-0.000101679 0.0272266 0.0207838 -0.0017818 0.00212589 -0.00202101 0.0726535 0.0319974 -0.000534989 0.0258324 0.00665809 0.0344259 0.0427964 0.024787 0.0578781 -0.00351719 -0.00101168 0.000429177 -0.0222147 0.0782229 0.00860438 0.0101753 0.0330858 0.0124739 0.011762 0.0271459 0.00273644 0.0584821 -0.00497572 0.0327046
internal_weight=6891.23 399.129 349.553 6492.1 2919.8 1780.25 49.5759 22.093 1692.66 316.365 97.9077 218.457 172.81 114.569 35.5132 83.4098 1681.25 1574.27 106.98 58.2419 1139.54 395.656 69.6651 835.163 827.216 156.89 45.6465 44.646 3572.3 16.6534
internal_count=24734 1407 1237 23327 10461 6392 170 77 6072 1116 349 767 604 405 124 299 6031 5646 385 199 4069 1417 248 2976 2949 555 163 158 12866 57
is_linear=0
shrinkage=0.05


Tree=5
num_leaves=31
num_cat=0
split_feature=20 10 17 10 20 7 10 7 19 43 10 7 7 20 20 7 7 24 24 29 20 43 21 41 43 17 29 41 20 8
split_gain=85.5296 48.9352 52.4013 39.977 34.9454 32.5921 70.4182 47.0032 32.3951 31.4175 31.3619 30.8079 41.0677 28.5555 30.9377 35.1482 29.1911 35.0973 28.3286 31.9003 29.7804 27.416 24.0394 22.8786 22.8228 22.7416 29.326 22.3669 32.5037 22.0913
threshold=1.0842342478849425 0.005680466260746809 18.459094884609211 0.0090458275575261444 1.0719653007645069 1.1964014500000002 0.005680466260746809 1.2100205000000002 1.1783942149919346 0.30045215547034937 0.0046730228200320143 1.1755835750000003 1.1733616000000002 1.1698762980346815 1.1630462389904286 1.1621407750000003 1.1656219000000003 3.5000000000000004 2.5000000000000004 0.001874279822164648 1.12223750014693 0.5995351686675191 0.0031939704275038435 0.41766261743154171 0.10441434715651436 48.866592392530983 -0.0002635870330885488 0.47394245341024682 0.99040653932407208 0.0023260997510277108
decision_type=2 2 2 2 2 2 2 2 2 2 2 2 2 2 2 2 2 2 2 2 2 2 2 2 2 2 2 2 2 2
left_child=1 2 -1 5 27 8 7 -7 11 -6 -10 12 13 14 15 18 -17 -18 19 23 -21 -12 -15 -2 -13 29 -27 28 -3 -4
right_child=3 4 25 -5 9 6 -8 -9 10 -11 21 24 -14 22 -16 16 17 -19 -20 20 -22 -23 -24 -25 -26 26 -28 -29 -30 -31
leaf_value=0.028019618625892619 0.018028929215792931 0.044875900849555013 0.0099635654993319514 -0.01984491820481531 0.030355491255266404 0.032841577947181073 -0.044689247949584177 -0.00036495310618427047 -0.021593820150249417 -0.0077747545694669129 -0.006086686960624605 -0.0076589705616968628 -0.032613276625477777 0.042635329786137099 -0.020906613700804544 0.028133108353102055 -0.015415113823722786 0.041230892745325862 -0.010557413545645331 0.043540058546615912 -0.0057316256735225777 0.048542406773792131 -0.004085314288208867 -0.0038040568821071236 0.040907477007377034 0.0087550123848115311 -0.016173391488653897 -0.022662927819448491 -0.0091275488386929893 -0.0062624641230621314
leaf_weight=307.52729883790016 131.96141216158867 32.29163533449173 2066.7245555520058 381.97032245993614 105.88612985610962 211.51527914404869 53.611222863197327 214.77527388930321 453.40901958942413 110.29285764694214 103.92828851938248 37.239746361970901 116.5630090534687 63.529687136411667 230.8795665204525 167.66998770833015 116.44168218970299 35.737264692783356 972.0848503112793 77.983334928750992 50.543973684310913 29.481597810983658 48.590803474187851 1322.5705824494362 69.03055539727211 235.50993347167969 236.40710663795471 278.10113006830215 203.169717669487 233.46288427710533
leaf_count=867 376 91 5857 1090 300 596 155 609 1299 313 296 106 334 179 660 474 332 101 2770 222 144 84 138 3766 195 669 672 796 581 662
internal_value=6.21465e-05 0.00567912 0.00843772 -0.00431398 -0.00596264 -0.00299789 0.00931913 0.0161113 -0.00446548 0.0109017 -0.0153238 -0.00261364 -0.00345825 -0.00240219 -0.00329709 -0.00188293 0.0137427 -0.00211253 -0.00383893 0.00028659 0.0241637 0.00598553 0.0223875 -0.00182327 0.0238886 0.00626538 -0.00373289 -0.0130615 -0.00172141 0.00831667
internal_weight=8698.89 3809.37 3079.63 4889.52 729.741 4507.55 479.902 426.291 4027.65 216.179 586.819 3440.83 3334.56 3217.99 3105.87 2874.99 319.849 152.179 2555.14 1583.06 128.527 133.41 112.12 1454.53 106.27 2772.1 471.917 513.562 235.461 2300.19
internal_count=24734 10808 8727 13926 2081 12836 1360 1205 11476 613 1679 9797 9496 9162 8845 8185 907 433 7278 4508 366 380 317 4142 301 7860 1341 1468 672 6519
is_linear=0
shrinkage=0.05


Tree=6
num_leaves=31
num_cat=0
split_feature=16 5 39 10 20 39 32 7 39 7 14 39 21 7 19 19 19 39 13 5 14 10 12 14 32 7 29 7 7 29
split_gain=78.3778 57.2001 39.6255 32.194 60.2413 43.3969 35.4348 34.5976 33.4107 29.6634 28.3708 26.7272 35.0197 32.5948 29.34 41.7745 36.0477 33.2334 35.897 32.0026 28.1925 28.0178 27.2301 25.7843 25.468 23.6544 23.3847 23.2873 22.851 24.7423
threshold=0.0029703571428571778 1.0847952500000002 0.0004935048447900866 0.005680466260746809 1.0719653007645069 0.00086949816962996319 0.0015964698126347961 1.0423327250000003 0.0017429754976950442 1.0032506000000003 -0.0018296415283330766 0.00082136288642128388 0.0029073193794149675 1.2120896500000002 1.0907268084994424 1.1278257184121829 1.103585330566947 0.0012327347327125355 -2.6922474998025688e-05 1.1294527500000002 -0.00025303895492966385 -0.011040001312122958 79.903699068279181 -0.0024236131580829654 0.0012896482954481378 0.99680922500000013 0.00063515550062302219 1.0753681000000002 1.1105374250000002 -0.00044884286596592475
decision_type=2 2 2 2 2 2 2 2 2 2 2 2 2 2 2 2 2 2 2 2 2 2 2 2 2 2 2 2 2 2
left_child=1 3 -3 10 5 -5 7 8 25 -10 -1 12 20 14 -13 16 21 18 23 -20 -4 -16 24 -17 28 -7 -21 -23 -18 -30
right_child=-2 2 11 4 -6 6 -8 -9 9 -11 -12 13 -14 -15 15 17 22 -19 19 26 -22 27 -24 -25 -26 -27 -28 -29 29 -31
leaf_value=0.010301629565175418 -0.030876139929943841 0.031816349003593411 0.020701093269762987 0.065098821893667849 -0.023134319369528283 0.061760701377186214 -0.033280725793645015 -0.0025860076276560747 -0.045938813929522967 0.037737924903760461 -0.008058959196411598 -0.019665684412713852 -0.0032474894149095339 0.067045498724261632 -0.051151831727926089 0.054704198557978825 0.044166540315798829 -0.023681881088562926 -0.048297468829504059 0.029750681898393735 0.0026065925861342037 0.060679282873975983 -0.026711497344139593 -0.0085516683504374118 -0.017500905920810012 0.023889595320601531 0.0031628377617297166 0.0072221751215184541 0.056637986505992811 0.0081766524093013961
leaf_weight=229.20362693071365 200.57991021871567 125.71191465854645 308.75626763701439 38.853256702423096 137.19898808002472 62.014220416545868 42.751016587018967 168.26072320342064 26.063397020101547 17.841671526432037 2564.0655411779881 95.616721898317337 2056.254586994648 23.123670965433121 19.763722896575928 16.841528654098511 213.0875001847744 118.49487847089767 18.369359195232391 212.78777194023132 710.95637857913971 21.317376583814621 22.229324698448181 370.84054490923882 26.148066878318787 123.03729456663132 135.27484539151192 459.72787576913834 33.781733810901642 119.53674837946892
leaf_count=650 581 353 869 109 394 173 122 475 74 50 7318 271 5833 64 56 47 596 336 52 600 2007 60 63 1049 74 344 383 1299 95 337
internal_value=1.74774e-05 0.000744961 0.00409216 -0.00427063 0.00607565 0.0144453 0.00997215 0.0146273 0.0272774 -0.0119352 -0.00655237 0.00339272 0.000509466 0.00804352 0.00731927 0.00876218 0.0162228 0.000934044 0.00480198 0.0160227 0.00808538 0.00719398 0.0271242 -0.00580373 0.0301728 0.0365809 0.0194173 0.00959111 0.033575 0.0188545
internal_weight=8718.49 8517.91 5108.62 3409.29 616.021 478.822 439.968 397.217 228.957 43.9051 2793.27 4982.91 3075.97 1906.94 1883.82 1788.2 915.592 872.609 754.114 366.432 1019.71 500.809 414.783 387.682 392.554 185.052 348.063 481.045 366.406 153.318
internal_count=24734 24153 14444 9709 1741 1347 1238 1116 641 124 7968 14091 8709 5382 5318 5047 2580 2467 2131 1035 2876 1415 1165 1096 1102 517 983 1359 1028 432
is_linear=0
shrinkage=0.05


Tree=7
num_leaves=31
num_cat=0
split_feature=16 5 23 32 9 20 7 7 7 33 37 41 20 6 10 39 6 6 23 18 6 14 7 31 21 39 39 21 32 7
split_gain=114.275 40.7396 28.2371 21.6654 19.9275 19.7066 36.5318 20.5394 25.6974 20.5149 19.0555 18.0944 24.9175 17.3451 28.0155 16.7789 15.1313 19.0073 20.2527 16.6032 14.3984 21.3694 18.8216 21.3545 14.1346 14.1815 14.0899 21.0058 13.5882 19.3699
threshold=0.0024924999999999934 1.1242475000000003 16.500000000000004 0.0013811357293589388 0.010688773191458891 0.96650492374144525 0.99680922500000013 1.0863444000000002 1.0842597250000001 0.0015816601399994896 5.4944444444463933e-05 0.29597617441965779 1.0620277094240178 1.1336935000000004 0.0011532168963691582 0.001360836957468921 1.0670425000000001 1.1067752000000002 6.5000000000000009 5.2879484888930559 1.1609124000000002 0.0018851767194738767 1.2035186500000001 0.0030527831475048776 0.0027880827954565846 0.0005453343059521246 0.0015649303414498165 0.0098273526223642948 0.0008235684667333604 1.1621407750000003
decision_type=2 2 2 2 2 2 2 2 2 2 2 2 2 2 2 2 2 2 2 2 2 2 2 2 2 2 2 2 2 2
left_child=2 5 3 11 20 -2 -7 8 9 10 -8 12 -1 -3 -15 -9 -14 -18 19 -19 26 22 24 -24 25 -22 -4 -28 -13 -30
right_child=1 13 4 -5 -6 6 7 15 -10 -11 -12 28 16 14 -16 -17 17 18 -20 -21 21 -23 23 -25 -26 -27 27 -29 29 -31
leaf_value=-0.026995462416253113 0.066702709811277114 0.10085488114561512 -6.1427639680084708e-06 0.012658412483890184 0.071458215460331195 -0.022435838645047418 0.039069161634128796 0.057325870314163557 0.10068953415506435 -0.019156915964580051 -0.0076135216760970141 -0.0038609795589019088 0.072265949122427495 0.092014714141074164 -0.0054953444290538177 -0.010953720344708495 -0.0027719314480657981 0.010798341166774703 0.0091224137014629374 0.075411087217274408 0.040720391203795524 0.10442552951467579 -0.01772601981410107 0.07161815892452468 0.01952889684720804 -0.017615472502349239 0.083227761344829676 -0.034996536864347193 -0.0082369654632219388 -0.032122067646773181
leaf_weight=43.462536990642548 20.906260848045349 21.973840802907944 1304.4060294926167 193.06561359763145 10.766732335090635 50.66546419262886 154.66878312826157 10.6699361205101 12.552417874336241 21.542478829622269 25.458040118217468 3390.4322536587715 10.704763382673262 14.40914496779442 15.070203989744185 57.402454674243927 115.69831210374832 15.31997689604759 68.266423374414444 28.325496196746826 12.975662052631376 6.0264971554279319 84.059607058763504 7.266136407852172 292.13125225901604 52.856273025274277 11.756112992763521 5.5220344066619864 734.79685100913048 95.967498779296875
leaf_count=156 71 71 4683 691 38 183 533 36 41 76 89 12223 38 47 52 208 415 54 244 100 47 21 307 25 1038 191 42 20 2647 347
internal_value=-9.71509e-05 0.0256589 -0.00170723 -0.00374312 0.00364057 0.0196143 0.0166577 0.0236741 0.0312768 0.0269563 0.0324713 -0.00444633 0.00782118 0.0672302 0.0421664 -0.000251307 0.0141708 0.0114386 0.0261299 0.0527314 0.00322967 0.0108978 0.00964331 -0.0106175 0.0148124 -0.00611731 0.000588015 0.0454437 -0.00526523 -0.0109961
internal_weight=6889.13 405.319 6483.81 4696.04 1787.77 353.866 332.96 282.294 214.222 201.669 180.127 4502.97 281.778 51.4532 29.4793 68.0724 238.315 227.61 111.912 43.6455 1777 455.315 449.289 91.3257 357.963 65.8319 1321.68 17.2781 4221.2 830.764
internal_count=24734 1407 23327 16915 6412 1237 1166 983 739 698 622 16224 1007 170 99 244 851 813 398 154 6374 1629 1608 332 1276 238 4745 62 15217 2994
is_linear=0
shrinkage=0.05


Tree=8
num_leaves=31
num_cat=0
split_feature=6 10 10 16 17 19 7 10 6 19 18 7 7 41 19 6 6 14 6 41 10 41 36 41 22 17 36 7 6 10
split_gain=80.0118 47.3364 43.3824 41.6311 40.8937 31.8981 30.396 62.0432 37.8267 33.9726 50.925 28.3616 37.6962 25.4309 24.5788 24.0795 23.7355 24.399 23.3832 33.3419 23.2311 23.7601 24.9483 23.087 24.2941 23.5912 22.7153 22.3628 58.7963 38.8778
threshold=1.0840562000000002 0.0058760727009801181 -0.014289629921132805 0.0018692857142857324 22.559619958707668 1.0796214619056912 1.1964014500000002 0.005680466260746809 1.2206126000000002 1.1783942149919346 2.0728473856209084 1.1755835750000003 1.1733616000000002 0.41766261743154171 1.0840398655662575 1.1966603000000002 1.2035090000000002 -0.00066789235147053693 1.1015764000000001 1.7024243474896539 0.0081043160645686303 0.86098445052811967 0.00012750000000002112 0.8884525374259985 0.37885640704104456 47.184404508543444 0.00067866666666671638 1.1621407750000003 1.1633332000000003 -0.0012261985866351963
decision_type=2 2 2 2 2 2 2 2 2 2 2 2 2 2 2 2 2 2 2 2 2 2 2 2 2 2 2 2 2 2
left_child=1 4 15 6 -1 26 9 8 16 11 -11 12 27 -5 -6 -2 17 -8 19 20 21 22 -15 -18 25 -25 -3 -4 -29 -30
right_child=2 5 3 13 14 -7 7 -9 -10 10 -12 -13 -14 18 -16 -17 23 -19 -20 -21 -22 -23 -24 24 -26 -27 -28 28 29 -31
leaf_value=0.0200143459737291 0.040551980742723981 -0.01426306788114385 -0.0040767340170860342 -0.041791692334043944 0.0039837361868670469 0.013518839517420157 -0.036497914450394207 -0.043189501361933336 -0.040280968171144849 -0.037552779093981949 -0.0056807448921620089 0.023031944002926519 -0.031468103592442724 -0.027383144109237919 0.023613224271376403 -0.051395317662600519 -0.005342697380520991 0.052760767927130428 -0.020169746879614588 -0.050960225695970744 -0.029400405719424094 0.050894211198772799 0.049547011777756014 -0.013235630206960112 0.043378590761661354 0.042443323651527851 0.043962669012493766 0.031677499674943398 -0.02521138205681378 0.0071133545534172995
leaf_weight=626.95108351111412 75.625358641147614 486.13494521379471 2736.8175714313984 89.803522348403931 2019.6203900277615 157.60009941458702 8.5064065158367139 49.162179678678513 27.292164832353592 178.98356491327286 418.07753565907478 106.79153814911842 113.499831199646 29.103763937950134 173.14297196269035 7.8606063723564139 101.22130623459816 76.596553981304169 318.82138973474503 22.793138563632965 23.409180104732513 47.892705470323563 16.521162748336792 55.855246394872665 86.701251804828644 28.850840628147125 17.348313599824905 167.99371239542961 136.82392513751984 290.54402267932892
leaf_count=1762 212 1397 7808 259 5712 445 24 144 80 518 1198 301 328 83 490 23 285 214 916 65 67 136 47 157 243 81 49 471 393 826
internal_value=5.94396e-05 0.00593013 -0.00385859 -0.00444021 0.00875341 -0.00611198 -0.00288263 0.00970462 0.0164585 -0.00419969 -0.0152352 -0.00234497 -0.00313148 -0.0174603 0.0055337 0.0318947 0.0207873 0.043839 -0.0126951 0.00436087 0.0151449 0.0262954 0.000473901 0.0135915 0.0247727 0.00572859 -0.0122568 -0.00216628 0.00661588 -0.00323557
internal_weight=8696.35 3480.8 5215.55 5132.06 2819.71 661.083 4583.72 434.186 385.024 4149.53 597.061 3552.47 3445.68 548.345 2192.76 83.486 357.732 85.103 458.541 139.72 116.927 93.5176 45.6249 272.629 171.407 84.7061 503.483 3332.18 595.362 427.368
internal_count=24734 9855 14879 14644 7964 1891 13071 1228 1084 11843 1716 10127 9826 1573 6202 235 1004 238 1314 398 333 266 130 766 481 238 1446 9498 1690 1219
is_linear=0
shrinkage=0.05


Tree=9
num_leaves=31
num_cat=0
split_feature=16 5 6 7 10 20 4 21 14 4 7 7 10 7 7 4 19 6 19 29 7 6 7 4 7 4 7 22 29 18
split_gain=72.1752 51.1118 33.8339 29.8641 28.8636 55.2218 39.8974 27.4926 26.4406 24.6522 49.8649 26.4223 45.4558 23.805 22.1692 29.6589 24.4239 31.5782 35.1702 22.5446 21.4443 28.9106 21.1245 20.5644 20.3329 25.3447 19.9702 19.5533 18.9759 18.426
threshold=0.0029703571428571778 1.0847952500000002 1.2206126000000002 1.2185308750000001 0.005680466260746809 1.0719653007645069 0.12628255082076198 0.0024700459919570115 -0.0018296415283330766 0.084244358853651613 1.1675640250000001 1.1964014500000002 0.0060578749500027626 1.2064296250000002 1.1842572000000002 0.064670203186943873 1.1494972285564946 1.1641877 1.1734327261071662 -0.00022197661051084896 1.1041651750000003 1.1059891000000002 1.0758298250000002 0.11805072050399325 1.0436760250000001 0.060668659403350041 1.1151292250000002 0.34830225844497081 -0.0010705807069838196 7.4178006545298469
decision_type=2 2 2 2 2 2 2 2 2 2 2 2 2 2 2 2 2 2 2 2 2 2 2 2 2 2 2 2 2 2
left_child=1 4 3 7 8 6 24 -3 22 11 20 14 13 -13 16 -16 -9 -18 -19 -20 21 -11 29 -2 -6 28 -22 -21 -26 -1
right_child=23 2 -4 -5 5 -7 -8 9 -10 10 -12 12 -14 -15 15 -17 17 18 19 27 26 -23 -24 -25 25 -27 -28 -29 -30 -31
leaf_value=-0.012664988938439715 0.054465809397549775 0.012819518633479791 0.055242471743111303 -0.040535150804768397 0.031929290314748587 -0.022364518501654211 -0.014551648838028956 0.0047142538025507609 -0.0076663857829464069 0.012074737765614754 0.04912059704567491 -0.037937692753193121 0.047728281458402848 -0.0080594419500062721 0.026764108222495909 -0.030485013353332754 -0.014722652598877806 0.01645479597614518 -0.020249321781894768 -0.016076810905294763 -0.028141611274948759 0.079142175429001871 0.035518075015715946 -0.032904012284341068 -0.01234022015138677 -0.0018714665886961871 0.0033220652617959897 0.0089952848400524314 0.061881650420968909 0.020881397837767317
leaf_weight=100.36805191636086 6.9810448586940756 734.87946960330009 31.849884897470474 38.131611794233322 202.09538650512695 136.12677782773972 99.121667802333832 1810.1929994523525 2555.6656787991524 293.13800820708275 75.935779362916946 106.05557641386986 27.882764637470245 179.48980313539505 160.70511275529861 26.329962402582169 464.0879385471344 268.01891234517097 178.32536938786507 111.51107251644135 61.892932415008545 17.000312119722366 60.096005201339722 191.04953342676163 11.785966545343397 135.64874702692032 272.34207391738892 256.9556547999382 31.9720698595047 69.125385344028473
leaf_count=285 20 2063 87 110 559 394 284 5109 7318 824 209 307 77 514 450 75 1325 753 506 316 175 47 169 561 33 382 770 727 89 196
internal_value=1.65077e-05 0.000710358 0.00386936 0.00354745 -0.00403903 0.00574811 0.0137104 0.00388066 -0.00620624 0.00235649 0.0107981 0.000662518 -0.0132065 -0.0191566 0.00198937 0.0187048 0.000977303 -0.00431209 0.0016174 -0.00565539 0.00628204 0.0157511 0.0100474 -0.029824 0.0210535 0.00880224 -0.00250431 0.00140758 0.0418904 0.00101641
internal_weight=8714.76 8516.73 5114.73 5082.88 3402.01 616.751 480.624 5044.74 2785.26 4309.86 720.309 3589.56 313.428 285.545 3276.13 187.035 3089.09 1278.9 814.811 546.792 644.373 310.138 229.589 198.031 381.502 179.407 334.235 368.467 43.758 169.493
internal_count=24734 24153 14444 14357 9709 1741 1347 14247 7968 12184 2025 10159 898 821 9261 525 8736 3627 2302 1549 1816 871 650 581 1063 504 945 1043 122 481
is_linear=0
shrinkage=0.05


Tree=10
num_leaves=31
num_cat=0
split_feature=4 23 26 19 41 41 39 4 41 6 32 10 19 4 21 30 6 41 17 41 19 39 4 19 5 7 24 21 29 4
split_gain=87.8891 33.1007 30.2665 20.0249 20.6824 23.1607 24.4962 21.492 19.4882 21.5489 25.7761 17.9342 16.6949 16.2584 15.5648 17.5476 16.5479 22.2802 18.0302 18.1696 17.8807 14.1817 14.144 18.3804 16.6626 24.9466 24.3364 16.2508 21.6852 18.7349
threshold=0.14198416683320228 16.500000000000004 1.0000000180025095e-35 1.13629764029533 0.49814217875052647 3.5748743809279047 0.0015877877049482998 0.15948765729105097 0.29597617441965779 1.1067752000000002 0.0011809468589847084 0.0086635413358555641 1.1640552371364776 0.20604391420054696 0.002624766705456574 0.00030826242580176013 1.1609124000000002 0.88148773072008524 63.465821909686277 3.678083619385228 1.1934459629900991 0.00064469704746549362 0.078453763307665958 1.0392268395156277 1.0677977500000002 1.1002036250000002 3.5000000000000004 0.0080090109147854492 -0.00066451935896240236 0.097906691742686167
decision_type=2 2 2 2 2 2 2 2 2 2 2 2 2 2 2 2 2 2 2 2 2 2 2 2 2 2 2 2 2 2
left_child=1 8 3 4 7 6 -6 -2 9 -1 21 -8 -5 -4 15 -3 18 -18 22 -20 -19 -11 -16 -24 -25 27 -27 28 -26 -30
right_child=2 14 13 12 5 -7 11 -9 -10 10 -12 -13 -14 -15 16 -17 17 20 19 -21 -22 -23 23 24 25 26 -28 -29 29 -31
leaf_value=-0.0019982825324943022 0.038817080858777289 -0.022191089677038891 -0.0090723933964673674 0.1047814259706102 0.071451301297994152 -0.0074290502127435211 0.016407681978938615 -0.025942377010639579 -0.0044996584107538581 0.066501118155444405 0.11573251323426192 0.069418506735587221 0.0062084628649877911 0.042258127511707239 -0.0022233609449212014 0.010566358809641617 0.02840216317556964 0.013279473721919774 0.046428384940666749 -0.025994401087113941 -0.017999176815216022 0.01246189988191411 -0.011285416251837205 0.027990075514033253 -0.029558304385428443 0.009154163837777082 0.061510067698664551 -0.025508088728771413 0.047135443430320605 -0.029707852056040943
leaf_weight=182.0936741232872 22.601072996854782 110.07895138859749 77.682543247938156 16.580019444227222 56.311470746994019 23.891046673059464 66.332539916038513 29.579523384571075 4347.7378293573856 13.934460222721098 7.4228810667991629 21.007836580276489 5.7973784208297721 19.248951286077499 809.91654229164124 65.036434948444366 168.19520205259323 159.29579728841782 42.125478297472 10.901517421007155 64.067090392112732 94.322698920965195 92.791725903749466 130.76204615831375 23.902909308671951 80.913504868745804 30.585516214370728 68.709734410047531 34.429756104946136 10.306335836648939
leaf_count=653 78 400 277 51 191 83 228 105 15713 49 25 68 20 65 2905 236 592 559 147 39 236 331 335 462 86 287 108 245 123 37
internal_value=-9.20096e-05 -0.00137735 0.024731 0.0341839 0.0295948 0.0381558 0.0457371 0.002107 -0.00365214 0.00872237 0.0255979 0.0291583 0.0792438 0.00112098 0.00417862 -0.0100252 0.00561895 0.0146576 0.00296857 0.0315394 0.00430783 0.0194176 0.00178709 0.00866288 0.013539 0.00594545 0.023516 -0.00831825 0.00888931 0.0294322
internal_weight=6886.56 6547.53 339.032 242.101 219.723 167.543 143.652 52.1806 4645.51 297.774 115.68 87.3404 22.3774 96.9315 1902.02 175.115 1726.9 391.558 1335.35 53.027 223.363 108.257 1282.32 472.402 379.61 248.848 111.499 137.349 68.639 44.7361
internal_count=24734 23568 1166 824 753 570 487 183 16771 1058 405 296 71 342 6797 636 6161 1387 4774 186 795 380 4588 1683 1348 886 395 491 246 160
is_linear=0
shrinkage=0.05


Tree=11
num_leaves=31
num_cat=0
split_feature=6 17 7 4 6 41 4 19 18 4 41 7 7 5 29 39 6 6 7 24 4 39 7 39 20 41 17 17 39 39
split_gain=72.256 36.4231 32.621 46.5567 37.4937 47.0773 36.6682 32.4922 48.409 31.5106 32.8181 28.9543 34.5273 31.708 27.2596 26.9564 26.1695 25.2318 51.2182 31.9884 28.4873 41.4477 31.3294 25.7763 24.8358 24.726 24.1978 22.6628 24.5576 28.8073
threshold=1.0840562000000002 18.459094884609211 1.1964014500000002 0.080273422156882698 1.2035090000000002 0.90507131083517633 0.026181665422371381 1.1783942149919346 2.0728473856209084 0.063720956474124915 2.4271744350335234 1.1755835750000003 1.1740236750000002 1.1714137500000004 0.00079195795431357937 0.00076035076156585803 1.1744601000000003 1.1651256000000003 1.1621407750000003 2.5000000000000004 0.082702124620123066 0.00065402915424828589 1.1647037250000001 0.0005453343059521246 1.0740085653541678 5.0267744676601973 30.318505393466104 48.866592392530983 0.00069667410377077202 0.00055931523761020994
decision_type=2 2 2 2 2 2 2 2 2 2 2 2 2 2 2 2 2 2 2 2 2 2 2 2 2 2 2 2 2 2
left_child=1 -1 7 4 25 6 -6 11 -9 10 14 12 13 17 -7 -13 26 18 -2 -19 21 22 -20 -21 27 -4 -15 28 29 -3
right_child=2 24 3 -5 5 9 -8 8 -10 -11 -12 15 -14 16 -16 -17 -18 19 20 23 -22 -23 -24 -25 -26 -27 -28 -29 -30 -31
leaf_value=0.020949065294075343 -0.0048839065376042245 -0.015155906137786097 0.04768806438500648 -0.044587940403482768 0.081745183570962943 -0.017252039090948117 -0.023379480176317573 -0.037160238899590463 -0.0064851909908962392 0.064678226544127512 0.051103800284803116 0.012172828016700526 -0.03425627318718126 0.049207086936460559 0.033917529614554708 0.084338544265027238 -0.022272668103598462 -0.032358518539048899 0.016377371888605392 -0.051567219129377263 -0.019575600159652332 0.043893123025801298 -0.046511787503041357 0.016149555759240288 0.012957837999009134 -0.028640677686955818 0.0038071783536909698 -0.0081816061161433407 0.0023491210609854749 0.03342650301753114
leaf_weight=349.00519043207169 3216.620495736599 39.75155782699585 94.567478448152542 37.730796873569489 8.8468258380889875 82.963929682970047 133.00579062104225 183.65536385774612 429.16845101118088 34.123553365468979 39.887795448303223 92.187742829322815 92.262052804231644 68.394817769527435 37.925972729921341 15.053157240152357 30.321551859378815 166.97291579842567 87.838055431842804 17.138243645429611 44.213867157697678 125.64180025458336 25.567842543125153 78.062902063131332 612.1177099943161 11.9508900642395 51.411972433328629 469.34993457794189 1885.5367330014706 131.29029482603073
leaf_count=976 9199 112 262 111 25 235 381 538 1233 95 111 259 269 192 107 42 86 483 246 50 126 352 72 225 1720 34 146 1336 5341 370
internal_value=5.63435e-05 0.00562609 -0.0036747 0.00873015 0.0132685 0.00509009 -0.0168232 -0.00493764 -0.0156781 0.021039 0.011777 -0.00333683 -0.00402347 -0.00331048 -0.00119896 0.0223026 0.0192229 -0.0042097 -0.00308897 -0.0191708 0.0172937 0.024113 0.00219874 0.00395909 0.00392191 0.0391243 0.0297249 0.0017322 0.00399472 0.0221355
internal_weight=8692.57 3487.05 5205.51 481.003 443.272 336.754 141.853 4724.51 612.824 194.901 160.778 4111.69 4004.45 3912.18 120.89 107.241 150.128 3762.06 3499.88 262.174 283.262 239.048 113.406 95.2011 3138.05 106.518 119.807 2525.93 2056.58 171.042
internal_count=24734 9855 14879 1361 1250 954 406 13518 1771 548 453 11747 11446 11177 342 301 424 10753 9995 758 796 670 318 275 8879 296 338 7159 5823 482
is_linear=0
shrinkage=0.05


Tree=12
num_leaves=31
num_cat=0
split_feature=16 5 39 6 39 39 18 6 39 21 7 32 7 7 39 44 10 39 12 17 39 7 10 6 43 14 22 8 38 39
split_gain=66.6943 45.6838 35.8221 31.7395 28.2083 32.0998 32.0206 29.6442 27.7933 29.3721 27.939 27.7601 33.3773 38.9824 36.7333 35.6143 30.946 33.8976 33.5844 28.8448 26.81 27.5257 24.8565 29.7728 24.5594 24.5081 23.7135 23.7013 23.5044 24.1279
threshold=0.0029703571428571778 1.0847952500000002 0.0004935048447900866 1.2206126000000002 0.00071134092747756922 0.00052257965645115744 2.7449200594225718 1.0744724000000001 0.00082136288642128388 0.0029073193794149675 1.2120896500000002 0.0016704130415367384 1.0436760250000001 1.0802461500000005 0.0010046466214613523 1.0000000180025095e-35 0.0027754417224679089 0.0011410663896719061 61.384131863127486 57.595872970825802 0.0017429754976950442 1.0032506000000003 -0.013614365283692252 1.0137082000000002 0.2252776233327573 -0.00025303895492966385 0.56182267936067276 -0.0045789001984806168 0.37500000000000006 0.0011003854728595666
decision_type=2 2 2 2 2 2 2 2 2 2 2 2 2 2 2 2 2 2 2 2 2 2 2 2 2 2 2 2 2 2
left_child=1 4 -3 8 5 7 28 -1 9 25 -10 12 16 15 24 -14 17 18 19 -8 -18 -22 23 -19 -15 -4 -7 -26 -6 -30
right_child=-2 2 3 -5 6 26 11 -9 10 -11 -12 -13 13 14 -16 -17 20 22 -20 -21 21 -23 -24 -25 27 -27 -28 -29 29 -31
leaf_value=0.075789435599645211 -0.028859783765358776 0.029886207080457944 0.0184472757221248 0.05251853990998754 -0.022099338615531889 -0.031772165589200353 0.064109159706047664 0.00030263920595704677 0.0067211594681479943 -0.00376033045361597 0.061524439199541293 -0.025051706385009254 0.0023153065202670092 0.025473722142909834 0.045938908314780702 -0.018669751031128362 0.034197062073458691 -0.0105231563655762 -0.044617749671057194 -0.02895031638777067 -0.044868437092987573 0.036568624471063307 -0.029539226358503607 0.067357630601744614 0.070754880000721457 0.0015322621165468247 -0.0094327560984508313 -0.013987868970468182 0.0030783664483688363 -0.013688478758357769
leaf_weight=15.105303943157194 195.49163195490837 126.97927033901215 307.25024351477623 32.142997562885284 242.34718227386475 212.56912192702293 45.213020831346512 93.573914915323257 1889.8645811080933 2032.9220770299435 23.545866727828979 86.193523645401001 509.43590193986893 88.538105010986328 72.716305613517761 335.22608670592308 213.91617751121521 41.251001119613647 12.215436726808546 10.206766843795775 23.828567534685135 18.379394561052322 86.158862799406052 17.467972338199615 8.8301061987876874 706.67342588305473 269.27746683359146 125.81225517392159 475.67504012584686 390.87763294577599
leaf_count=43 581 353 858 87 696 614 129 269 5318 5774 64 249 1453 253 206 961 592 118 35 29 68 51 247 50 25 1990 775 360 1364 1122
internal_value=1.51331e-05 0.000678121 0.00366061 0.00299357 -0.00381947 -0.0137516 -0.00172797 0.0107945 0.00267265 -0.000293326 0.00739555 0.00259304 0.00407378 -0.000542065 0.0150756 -0.00601316 0.0153077 0.00120227 0.0304287 0.0469702 0.0270114 -0.00940679 -0.0124419 0.0126452 0.00501981 0.00665803 -0.0192879 -0.00843028 -0.00833432 -0.00448469
internal_weight=8709.69 8514.19 5119.38 4992.4 3394.82 590.526 2804.29 108.679 4960.26 3046.85 1913.41 1695.39 1609.2 1140.56 295.897 844.662 468.637 212.513 67.6352 55.4198 256.124 42.208 144.878 58.719 223.18 1013.92 481.847 134.642 1108.9 866.553
internal_count=24734 24153 14444 14091 9709 1701 8008 312 14004 8622 5382 4826 4577 3258 844 2414 1319 608 193 158 711 119 415 168 638 2848 1389 385 3182 2486
is_linear=0
shrinkage=0.05


Tree=13
num_leaves=31
num_cat=0
split_feature=4 43 26 41 6 5 4 41 19 41 43 41 4 17 31 6 41 19 6 9 36 20 10 39 4 19 4 10 5 32
split_gain=79.0376 31.9259 27.2194 25.7863 20.9386 22.3294 25.7899 17.7389 17.6345 18.7642 22.9122 24.1976 19.8659 17.2701 17.2601 16.7142 40.0367 25.6421 22.632 22.2591 21.2744 28.6672 15.0055 16.8192 14.7531 14.4935 14.3415 21.9317 21.4122 14.8622
threshold=0.14198416683320228 0.2252776233327573 1.0000000180025095e-35 0.8106127576418779 1.2057359000000003 1.1309952500000002 0.11449126062750481 0.15139691024837895 1.13629764029533 0.49814217875052647 0.17656390163895305 4.7175126227490596 0.15948765729105097 23.841026524350166 -0.0010250252257298391 1.1067752000000002 0.26092226172971716 1.0996745882523593 1.0918241000000002 0.0028162892936032251 0.00035174999999998407 1.1105180141399804 0.0086635413358555641 0.0013989713103932675 0.20604391420054696 1.1640552371364776 0.083664183424724106 0.005966838107917539 1.0253100000000004 0.0008235684667333604
decision_type=2 2 2 2 2 2 2 2 2 2 2 2 2 2 2 2 2 2 2 2 2 2 2 2 2 2 2 2 2 2
left_child=1 7 8 15 5 14 -7 13 9 12 -11 22 -2 -1 -5 17 20 18 26 -20 21 -17 23 -12 -4 -10 27 29 -28 -3
right_child=2 3 24 4 -6 6 -8 -9 25 10 11 -13 -14 -15 -16 16 -18 -19 19 -21 -22 -23 -24 -25 -26 -27 28 -29 -30 -31
leaf_value=0.073681075338611138 0.036330764471334036 0.0090612856908754338 -0.0089460970326558 0.0052135343312817535 -0.024649020644641147 0.0052692111777609789 0.066249448580018508 -0.0058616692735771539 0.096752580154582074 -0.031563430687604276 0.072798260056912339 -0.025178686881013931 -0.025635664008415826 0.00080026445392934818 -0.0070682933094955271 0.10253630421510676 0.0083308357395937144 -0.018407466130848437 0.064064724446125654 -0.027046794685954556 0.081019180834930621 0.0062667274951228348 0.080057542306183851 0.028512653673452456 0.039507736608933572 0.0056238993993208714 -0.013178966462463235 -0.021883746182588613 0.01989116086843376 -0.023897760562158029
leaf_weight=13.780766427516935 23.120589822530746 257.61213499307632 77.498638480901718 380.8278234899044 94.827182918787003 665.77151876688004 17.802107810974121 2715.9524671137333 17.256434023380283 11.740174382925032 28.028668433427811 12.775610834360121 29.356632024049759 19.817906200885773 1149.5401431024075 9.7716010212898237 556.73143330216408 127.87554925680161 29.492532998323441 8.6753470897674543 28.701862931251526 37.066086947917938 27.234895557165146 91.203629463911057 19.703745752573013 5.8396918773651114 63.133325159549713 105.17137268185616 217.83763515949249 39.440439492464066
leaf_count=46 78 922 277 1359 361 2372 60 9872 51 42 92 45 105 70 4159 33 1973 460 105 31 96 129 85 306 65 20 229 378 771 142
internal_value=-8.49397e-05 -0.00131329 0.0232838 0.00166216 -0.00164146 -0.000656005 0.0068573 -0.00541498 0.0321179 0.027819 0.0358458 0.0408155 0.00166571 0.0306929 -0.00401199 0.0068105 0.0129654 0.00222806 0.00588611 0.0433556 0.0471227 0.0263511 0.0465719 0.0389231 0.000875905 0.0737113 0.00379281 -0.00226189 0.0124604 0.00468523
internal_weight=6883.59 6539.83 343.759 3790.28 2308.77 2213.94 683.574 2749.55 246.556 223.46 170.983 159.243 52.4772 33.5987 1530.37 1481.51 632.271 849.238 721.363 38.1679 75.5396 46.8377 146.467 119.232 97.2024 23.0961 683.195 402.224 280.971 297.053
internal_count=24734 23568 1166 13580 8311 7950 2432 9988 824 753 570 528 183 116 5518 5269 2231 3038 2578 136 258 162 483 398 342 71 2442 1442 1000 1064
is_linear=0
shrinkage=0.05


Tree=14
num_leaves=31
num_cat=0
split_feature=6 17 4 7 19 39 4 6 5 18 7 39 36 4 7 20 43 20 7 7 39 39 7 8 4 35 19 7 39 19
split_gain=65.1916 33.7558 30.559 39.6007 36.0963 37.6603 38.2497 33.2402 30.1733 45.8408 30.5468 28.7113 27.7034 24.4124 24.0571 30.8212 29.5615 27.0923 43.9357 28.6519 28.9833 27.4202 26.1162 24.0021 44.4585 28.2675 23.9727 30.1866 47.8716 35.7821
threshold=1.0840562000000002 18.459094884609211 0.083664183424724106 1.1964014500000002 1.1384066415502054 0.0014838181840927031 0.14783612466397941 1.2035090000000002 1.1751627500000001 1.8740051812014225 1.1764352750000002 0.00050016148976723084 -0.00025483333333331521 0.028162672133296141 1.1733616000000002 1.1698762980346815 0.24331646365369672 1.1630462389904286 1.1621407750000003 1.1696972750000001 0.00061042326064811466 0.00082136288642128388 1.1636546750000003 0.0023260997510277108 0.17135395323131156 0.33742331288343735 1.0796214619056912 1.0814761500000001 0.0010170617340739816 1.0861343318513981
decision_type=2 2 2 2 2 2 2 2 2 2 2 2 2 2 2 2 2 2 2 2 2 2 2 2 2 2 2 2 2 2
left_child=1 -1 3 8 5 -4 -7 -5 10 -10 11 -2 -9 -14 15 17 -17 18 -13 20 22 -22 -20 26 -25 -26 -3 -28 29 -29
right_child=2 23 4 7 -6 6 -8 12 9 -11 -12 14 13 -15 -16 16 -18 -19 19 -21 21 -23 -24 24 25 -27 27 28 -30 -31
leaf_value=0.020047583137692261 -0.027736047303610206 0.0032517137820712114 -0.011707555808593969 0.036391849907423508 -0.028033977480891533 0.046928833737454073 -0.012304193429758673 0.04670463944290161 -0.036786107614631774 -0.0056138200639955227 0.029219950639873607 -0.0021789231518662515 0.052492263287023923 -0.0041094365497769793 -0.023358264942142156 0.050758340898442916 -0.005018671697379247 -0.018003135909663511 0.020405045362098154 -0.026930594894795976 0.050415321788700077 0.0039824802706357318 -0.041932625584935629 -0.010919668475584406 -0.0022440625416736285 0.069687063221083853 0.029132976857477757 0.0052127225638241821 -0.052125824879245324 0.06167490662625652
leaf_weight=350.68004357814789 107.23750725388527 2083.8853126168251 453.29473236203194 108.1880716085434 253.73561826348305 61.870924890041351 48.713168501853943 34.956415951251984 158.27427110075951 462.77900218963623 78.752483546733856 2414.1756633222103 20.424304246902466 283.08222672343254 120.19819912314415 56.089370936155319 41.207270592451096 228.39544141292572 50.916098564863205 29.704413414001465 113.6170939207077 44.150277853012085 25.076357543468475 475.81062340736389 25.31180077791214 29.665846943855286 223.51033535599709 239.52493837475777 32.798869907855988 31.78357920050621
leaf_count=976 309 5891 1305 298 746 175 139 97 469 1332 220 6904 57 805 351 155 117 661 142 86 316 124 71 1355 72 83 625 671 93 89
internal_value=5.21287e-05 0.00533414 -0.00349946 -0.00184205 -0.0123726 -0.00532529 0.0208362 0.012266 -0.00344522 -0.013558 -0.00154748 -0.00229746 0.00455422 -0.000300456 -0.0014241 -0.00054626 0.0271355 -0.00147307 -6.31015e-05 0.0193246 0.0252024 0.0374214 -0.00016544 0.00369212 -0.00600083 0.0365699 0.00566221 0.0151827 0.0049297 0.0118272
internal_weight=8687.81 3492.97 5194.84 4377.22 817.614 563.879 110.584 446.651 3930.57 621.053 3309.52 3230.77 338.463 303.507 3123.53 3003.33 97.2966 2906.04 2677.64 263.464 233.76 157.767 75.9925 3142.29 530.788 54.9776 2611.5 527.618 304.107 271.309
internal_count=24734 9855 14879 12514 2365 1619 314 1257 11257 1801 9456 9236 959 862 8927 8576 272 8304 7643 739 653 440 213 8879 1510 155 7369 1478 853 760
is_linear=0
shrinkage=0.05


Tree=15
num_leaves=31
num_cat=0
split_feature=4 6 5 10 6 20 5 20 4 21 6 36 43 43 21 2 4 21 41 19 41 33 18 10 41 19 35 9 6 41
split_gain=58.8967 38.1482 35.0576 23.8443 50.8781 30.6128 30.3178 30.6503 31.5517 27.2219 26.2503 29.6873 32.2716 24.2635 22.0794 23.9233 23.8904 25.3862 23.6659 22.4109 21.6915 21.2824 20.4545 36.3717 22.9794 20.7992 20.4442 20.1724 20.8603 19.5855
threshold=0.12878606442305163 1.2206126000000002 1.1606965000000002 0.005680466260746809 1.0488466000000003 1.2102563449342092 1.0847952500000002 1.197066714604065 0.080744901478258788 0.0085164817742449661 1.0589571000000002 0.00035174999999998407 0.37537681018985952 0.14673585328389538 0.0026743459151184197 0.0042027399577981919 0.078453763307665958 0.0095073513816196532 0.64693777137202046 1.0875252399875102 0.33782602443970494 0.0016032615414076818 11.326872787770384 -0.0086053299073201566 1.6539542980179591 1.0840398655662575 0.41867481536993306 0.0021519216977277105 1.0849708000000002 0.97331223762028485
decision_type=2 2 2 2 2 2 2 2 2 2 2 2 2 2 2 2 2 2 2 2 2 2 2 2 2 2 2 2 2 2
left_child=1 3 -2 6 21 13 9 14 -9 22 20 12 -12 -6 18 27 17 -17 -8 -20 -11 -5 23 -1 -24 -25 -15 28 -16 -22
right_child=2 -3 -4 4 5 -7 7 8 -10 10 11 -13 -14 26 15 16 -18 -19 19 -21 29 -23 24 25 -26 -27 -28 -29 -30 -31
leaf_value=-0.02900459407023169 -0.017045001061935926 0.051781994381715019 0.074142980096288974 0.033383984043198443 -0.0098957265879308903 0.050095044306862929 -0.0074001789553859599 -0.017478497872393788 0.043823856672412731 0.083189682337519777 0.082202784731800677 0.085480590797377881 0.0073803515806609241 0.011443895623595515 0.052904615531225899 0.015296698482514404 0.042539706166664505 -0.043942053272744322 0.054030916845215764 0.012934667934408006 -0.029976044160050338 -0.030971964786063594 -0.036906079082818011 -0.0040085638404715011 0.028975440549681559 -0.02032508614209453 -0.0048262771705093743 -0.012599177983920544 0.0012752714222693197 0.0024719393721468431
leaf_weight=188.4966647028923 578.6517733335495 36.797847896814346 10.735704332590101 198.10212567448616 341.57468438148499 33.13023653626442 141.40287590026855 285.57943716645241 22.654893785715103 6.9839610755443564 16.059908956289291 16.550654977560043 140.36896955966949 563.00811403989792 19.720848798751831 116.44568204879761 66.742191970348358 21.410617470741272 35.180841714143753 581.4970600605011 63.509999364614487 13.737309426069258 16.277898401021957 1637.5050128996372 70.824218422174454 221.76373401284218 293.84386107325554 274.45287609100342 2467.4177763462067 173.68567359447479
leaf_count=542 1694 99 29 543 969 91 398 825 62 20 45 47 399 1589 56 330 187 61 98 1619 182 38 47 4713 201 640 831 780 6960 496
internal_value=-0.00012598 0.00098911 -0.015384 0.000756289 0.00657639 0.00268308 -0.000519536 0.00217952 -0.0129728 -0.00478436 0.00689774 0.0217997 0.0150621 0.00137239 0.00343358 0.00148732 0.0179845 0.00609626 0.0110488 0.0152792 -0.00365896 0.0292106 -0.00706708 -0.00807645 0.0166633 -0.00595471 0.0058643 0.00026509 0.00168465 -0.00621613
internal_weight=8654.11 8064.73 589.387 8027.93 1443.4 1231.56 6584.53 4032.51 308.234 2552.03 417.159 172.98 156.429 1198.43 3724.27 2966.19 204.598 137.856 758.081 616.678 244.18 211.839 2134.87 2047.77 87.1021 1859.27 856.852 2761.59 2487.14 237.196
internal_count=24591 22868 1723 22769 4061 3480 18708 11376 887 7332 1189 491 444 3389 10489 8374 578 391 2115 1717 698 581 6143 5895 248 5353 2420 7796 7016 678
is_linear=0
shrinkage=0.05


Tree=16
num_leaves=31
num_cat=0
split_feature=16 19 43 41 5 4 32 2 10 22 38 6 10 6 41 6 20 39 16 10 4 3 14 24 29 4 4 39 2 10
split_gain=77.6474 25.3008 22.0563 24.4814 21.0062 19.6043 17.1875 16.0835 17.3175 15.7655 15.7444 15.7808 17.6358 15.7183 23.2362 19.2863 17.2253 17.5705 15.954 15.4196 15.2034 14.4821 14.318 19.8462 14.1323 13.6677 21.8335 13.329 16.2369 17.148
threshold=0.0020250000000000151 1.0519206387926456 0.2252776233327573 0.94281006509272836 0.97639625000000019 0.20604391420054696 0.0017710875920059789 0.0014409605733324688 -0.0077868167914236222 0.53462982662054925 0.52500000000000013 1.2136980000000002 0.0046730228200320143 1.0644612000000004 0.65767943655558658 1.1027535000000002 1.1342037201971114 0.00096243943095013457 0.0021428571428571213 -0.012116557636809298 0.082702124620123066 0.0036524377885817226 -0.00088795597457468729 2.5000000000000004 -0.00053972572820270822 0.084244358853651613 0.10640516138795507 0.00054202670117310485 -0.0034995566309946797 -0.0075358384091352417
decision_type=2 2 2 2 2 2 2 2 2 2 2 2 2 2 2 2 2 2 2 2 2 2 2 2 2 2 2 2 2 2
left_child=2 4 -1 10 -2 13 20 8 -8 27 11 -4 -13 14 -3 -15 -17 25 -16 -7 -6 -11 23 -12 -20 -18 -27 28 29 -5
right_child=1 5 3 9 6 19 7 -9 -10 21 22 12 -14 15 18 16 17 -19 24 -21 -22 -23 -24 -25 -26 26 -28 -29 -30 -31
leaf_value=-0.0055948973819649958 0.037482422385653191 0.0052674283273104854 0.008181495333798491 -0.027205535462190844 0.048491294459789003 -0.011998160224555757 0.0054544565842093804 -0.0019647228217019893 0.096961775465479003 -0.011806014214840427 -0.0050934167369762074 0.091924330704775375 -0.0027109543073405933 0.0010989233800086338 0.0094118084481460643 0.035827008719653372 0.097490651826470653 -0.0080049282392063107 0.083488462906492519 0.07755210017181971 -0.0080790855470070557 0.067517402964464124 -0.0027057111574499367 0.10602548764176548 0.039409774069629359 -0.025307467082020963 0.096942417985061147 -0.0019707560519136298 0.0047643187480563539 0.068898922647837285
leaf_weight=2547.2160947620869 39.535823285579681 55.385832965373993 944.32338708639145 5.8555193245410946 12.422750830650328 6.0286765694618252 8.8086279928684252 21.717804878950119 12.517420202493666 496.61021620035172 8.9256367683410662 11.891353964805605 8.4009611606597883 192.29228267073631 23.242308020591736 115.58597099781036 7.6806344985961941 61.225101187825203 29.957828164100647 23.722929328680038 270.28404335677624 5.8214185535907736 555.41995024681091 7.3086288571357718 46.269477307796478 10.67225167155266 5.5524840354919425 1203.8003939539194 78.446183681488037 22.389373332262039
leaf_count=9296 134 191 3364 21 45 21 30 74 41 1803 32 39 30 677 83 394 26 216 99 71 964 21 1977 26 157 39 18 4343 281 78
internal_value=4.20772e-05 0.0133646 -0.00208835 0.000578542 0.00306536 0.0198779 -0.00111178 0.028322 0.0591651 -0.00335662 0.00522235 0.00911898 0.0527456 0.0177314 0.0312233 0.0124152 0.0232565 0.00618898 0.0456758 0.0594062 -0.00559326 -0.0108869 -0.00135286 0.0449321 0.056733 0.0425416 0.0165293 -0.000469559 0.0164685 0.0489753
internal_weight=6839.31 942.902 5896.41 3349.19 365.286 577.616 325.751 43.0439 21.326 1812.92 1536.27 964.616 20.2923 547.864 154.855 393.009 200.716 85.1305 99.4696 29.7516 282.707 502.432 571.654 16.2343 76.2273 23.9054 16.2247 1310.49 106.691 28.2449
internal_count=24591 3280 21311 12015 1288 1992 1154 145 71 6547 5468 3433 69 1900 530 1370 693 299 339 92 1009 1824 2035 58 256 83 57 4723 380 99
is_linear=0
shrinkage=0.05


Tree=17
num_leaves=31
num_cat=0
split_feature=6 10 16 8 32 39 39 39 41 17 5 7 7 10 18 7 19 10 39 7 7 7 41 5 6 7 6 41 9 41
split_gain=49.1892 46.339 41.8123 35.6682 24.6199 24.0286 40.7114 36.9965 35.4074 24.7099 40.342 24.3428 23.5565 22.4044 21.7259 47.5103 30.2373 21.179 25.4192 35.5846 33.4166 32.1394 31.9494 28.8683 42.4104 29.3165 23.8248 22.7966 30.9773 22.7057
threshold=1.0840562000000002 -0.014289629921132805 0.0018592857142857063 0.0023260997510277108 0.0021121130086691154 0.00052257965645115744 0.0007087466110647574 0.00045009556264434758 2.3220563892320341 37.410557813640573 1.0827187500000004 1.0860135250000003 1.0407030750000004 0.0064449180195983455 3.2561758315395282 1.0721766000000004 1.0779002439607124 0.010159772496760368 0.0010892717505091318 1.0546563250000003 1.0663522000000001 1.0695392500000003 0.64693777137202046 1.0715750000000004 1.0760978000000001 1.0811875750000002 1.0543345000000002 0.51473305335590236 0.0017026992715012403 1.0619792094527181
decision_type=2 2 2 2 2 2 2 2 2 2 2 2 2 2 2 2 2 2 2 2 2 2 2 2 2 2 2 2 2 2
left_child=3 -2 -3 5 -5 7 8 -1 12 10 11 17 -7 14 15 -14 -17 18 19 26 27 22 -22 -23 -25 -26 29 -21 -29 -8
right_child=1 2 -4 4 -6 6 9 -9 -10 -11 -12 -13 13 -15 -16 16 -18 -19 -20 20 21 23 -24 24 25 -27 -28 28 -30 -31
leaf_value=0.081885003413544086 0.03365202084027915 -0.0020404323861412219 -0.016618879697368617 -0.0090359012480068172 0.055111292375645382 -0.044415887212639643 0.0084285294467637169 -0.02872115977443428 0.070434877939515403 -0.0028291650440370893 0.045502549315354156 -0.026580218891062754 0.048392486879978464 -0.039575736920039725 0.033303638795317808 -0.049952933739981643 0.0064945030048354259 -0.016088831045651984 0.016333440890331202 0.075807791626826881 0.072086198731860174 0.032252582350187332 -0.039511032229486813 -0.032086348960610342 0.054951211609867212 0.00067629844089394395 -0.046190346125159071 0.033563477725057959 -0.015642311518696151 -0.025283480945452647
leaf_weight=8.3265137970447523 84.731752634048462 4503.4776799380779 552.13812857866287 520.74421766400337 15.400276422500609 14.935537010431288 121.79727077484131 82.164568156003952 33.778864562511444 710.28400123119354 69.807530403137207 53.199420958757401 57.648829519748688 15.46213775873184 202.54182153940201 30.050530165433884 112.69622585177422 87.505887567996979 679.65479943156242 21.434276193380356 7.1148912310600272 90.098388701677322 65.059373468160629 73.130046725273132 34.682572394609451 88.030605107545853 43.296194791793823 125.95144313573837 42.872931003570557 84.666779845952988
leaf_count=23 237 12908 1608 1486 43 42 343 230 94 2012 193 149 160 43 563 84 313 254 1913 60 20 252 182 205 96 246 122 352 121 237
internal_value=9.29566e-05 -0.003018 -0.00363259 0.00467195 -0.00719333 0.00682388 0.00762492 -0.0185438 0.0211294 0.00499498 0.00828666 0.0066815 0.017286 0.0194886 0.0217551 0.0100829 -0.00538861 0.00781196 0.00922722 0.0031759 0.0103009 0.00130443 -0.0285099 0.00882982 -0.0019459 0.0160161 -0.0124678 0.0272346 0.0210677 -0.00539609
internal_weight=8632.68 5140.35 5055.62 3492.34 536.144 2956.19 2865.7 90.4911 467.114 2398.59 1688.3 1618.49 433.335 418.4 402.937 200.396 142.747 1565.3 1477.79 798.135 548.375 358.116 72.1743 285.942 195.843 122.713 249.76 190.259 168.824 206.464
internal_count=24591 14753 14516 9838 1529 8309 8056 253 1299 6757 4745 4552 1205 1163 1120 557 397 4403 4149 2236 1534 1001 202 799 547 342 702 533 473 580
is_linear=0
shrinkage=0.05


Tree=18
num_leaves=31
num_cat=0
split_feature=4 39 29 6 10 10 36 39 7 7 39 4 24 4 4 4 41 4 20 6 39 45 43 39 19 7 6 19 6 10
split_gain=53.99 47.4438 36.5989 32.5627 30.0774 40.9135 39.9482 29.1977 55.386 39.2382 36.238 36.1608 35.7243 32.385 29.1347 26.2621 25.4919 27.3775 30.7256 42.8329 32.8625 26.3887 23.3144 23.0203 22.671 40.0421 24.1754 25.2503 22.0165 21.6998
threshold=0.12878606442305163 0.00095524639272901162 -0.00050574016187518217 1.2206126000000002 -0.0089756589492833144 -0.012116557636809298 -0.00013416666666665741 0.0007815250891292034 1.0804990500000002 0.99680922500000013 0.0017429754976950442 0.058104728621056936 2.5000000000000004 0.071340824871394912 0.069410929174142835 0.11229302871460461 5.6224372938993081 0.068675720912127106 1.0676886489828628 1.0599756000000002 0.00091287157873141587 -0.39000732158617746 0.52358946830610542 0.001312597090994398 1.1755283274975707 1.1513677 1.0775367000000002 1.0830804341873435 1.0678124000000002 -0.021244761347500082
decision_type=2 2 2 2 2 2 2 2 2 2 2 2 2 2 2 2 2 2 2 2 2 2 2 2 2 2 2 2 2 2
left_child=2 -2 -1 4 5 6 15 11 9 10 23 -6 14 -14 24 -4 17 18 19 20 -11 -21 -15 -9 25 26 -10 -28 -23 -8
right_child=1 -3 3 -5 7 -7 29 8 12 16 -12 -13 13 22 -16 -17 -18 -19 -20 21 -22 28 -24 -25 -26 -27 27 -29 -30 -31
leaf_value=-0.0045669903962541085 0.075801451500817227 -0.017020356958827056 0.036510670465181333 0.052087975316760071 0.0027836071666768763 -0.024826180831045069 0.052118553277652468 -0.026187261657556589 -0.045297312302371946 -0.028661592847601738 -0.049009210021694213 -0.012070720823976547 0.011653195838556186 0.019519677954981149 -0.0033437231401025483 -0.037953467737076474 -0.042413302416823395 -0.0079805016235386227 -0.014297846776846824 -0.035697479404971387 0.016286616435086294 0.070858332236952246 0.045972277065298488 0.057904036269826223 0.057641746196559596 -0.026654683249377621 0.064299607457687619 0.016973149140114347 0.013279771985041764 -0.030369209884390631
leaf_weight=2193.384942471981 14.106343895196913 571.21301320195198 92.441192984580994 33.594515532255173 2216.3513142168522 222.32946988940239 9.0519109070301038 9.4140062332153303 14.21234944462776 55.487614333629608 11.584452539682387 502.61693134903908 359.95046180486679 160.1787713766098 386.88310316205025 13.580071479082106 39.897681385278702 661.86583104729652 108.36602917313576 9.0125020742416364 152.22031953930855 58.312241494655609 173.5435363650322 60.072343438863754 29.684112995862961 56.630374163389206 30.985668778419495 311.67663475871086 23.210617303848267 66.886536806821823
leaf_count=6231 39 1684 261 90 6281 636 26 27 41 159 33 1434 1014 448 1087 39 115 1892 312 26 433 166 484 165 83 162 88 875 66 194
internal_value=-0.000120638 -0.0147833 0.000943718 0.00300284 0.0027203 -0.0104367 0.00714532 0.00369951 0.00736912 -0.00071651 0.0328621 3.76991e-05 0.0136808 0.0220556 0.00668215 0.0269727 -0.00317259 -0.00170731 0.008504 0.016789 0.00427904 0.0454896 0.0332757 0.0465114 0.0154343 0.0124043 0.0186024 0.0212527 0.054465 -0.0205366
internal_weight=8648.74 585.319 8063.43 5870.04 5836.45 404.289 181.96 5432.16 2713.19 1189.44 81.0708 2718.97 1523.75 693.673 830.072 106.021 1108.37 1068.48 406.609 298.243 207.708 90.5354 333.722 69.4863 443.189 413.505 356.875 342.662 81.5229 75.9384
internal_count=24591 1723 22868 16637 16547 1156 520 15391 7676 3394 225 7715 4282 1946 2336 300 3169 3054 1162 850 592 258 932 192 1249 1166 1004 963 232 220
is_linear=0
shrinkage=0.05


Tree=19
num_leaves=31
num_cat=0
split_feature=16 19 18 35 4 7 41 7 32 41 39 7 8 19 9 21 10 32 45 10 19 14 31 23 4 5 4 39 10 45
split_gain=70.9415 22.8546 27.8304 20.46 17.477 17.2887 32.3044 16.6521 16.1469 16.1106 21.6769 26.546 19.3001 18.5901 18.232 17.7487 16.8022 16.8347 16.7263 26.9465 15.3489 20.897 18.7456 17.5999 15.11 14.9586 14.7665 22.9966 20.4861 18.3688
threshold=0.0020250000000000151 1.0519206387926456 0.53922499382084721 0.2917485720464908 0.20604391420054696 1.0606868250000001 0.33083340712115189 1.0996781000000004 0.0017385981012209869 1.2229538187197573 0.00054202670117310485 1.0863444000000002 -7.1335007912787227e-05 1.1676648526286206 0.0059645295795112139 0.0051211362388089666 0.0038240620296084997 0.00053142354499971349 -0.010694719610548407 -0.0020741889677495236 1.0592977321570545 -0.0013871114294058706 -0.0023099596312700292 10.500000000000002 0.081220423243367576 1.0169505000000003 0.12878606442305163 0.0010279665515055979 -0.00040181575322223434 -1.0000000180025095e-35
decision_type=2 2 2 2 2 2 2 2 2 2 2 2 2 2 2 2 2 2 2 2 2 2 2 2 2 2 2 2 2 2
left_child=9 2 3 -2 5 6 -3 -7 24 13 11 -11 16 -1 -15 18 -12 -18 19 -13 21 -8 -23 -24 -4 -14 27 28 -9 -28
right_child=1 4 8 -5 -6 7 20 26 -10 10 12 15 25 14 -16 -17 17 -19 -20 -21 -22 22 23 -25 -26 -27 29 -29 -30 -31
leaf_value=-0.0018162084376086092 0.078929064811804284 -0.01738692926117107 0.050263324518012388 -0.014805076165057107 0.055802406079086403 0.0014331576852661659 0.10520078848448547 0.074562962786249562 0.024823829551066996 -0.019676133814615498 -0.0042633011088202824 0.081262161252003945 0.02487867367396087 0.0057703638228813131 0.05841436466008141 0.065387438949830692 0.040325325850280758 -0.014753462467405085 0.004947366001153447 -0.022198801082539202 0.069150830425213472 -0.045256127120886232 -0.012075281325762133 0.055968990820939549 -0.0080068312038715506 -0.01408166438311919 -0.03766681287558634 0.0021357305601928897 0.014420723292502272 0.0563428131407024
leaf_weight=2704.8794299662113 19.533187687397007 25.313768953084946 11.594208300113676 8.2935087978839857 30.367788791656494 198.24302783608437 7.901546746492385 25.003594607114792 51.237698704004288 53.795055359601974 1327.1959651261568 19.631422758102421 25.451654344797134 777.49988639354706 16.802076011896133 19.78972452878952 42.152435690164566 20.679100900888443 100.88551780581474 9.2629807293415052 41.424707859754562 9.5730131268501264 14.573497444391249 27.314387232065201 275.06803333759308 769.61222477257252 5.8904576301574698 121.04428696632385 32.646771460771561 44.079811036586761
leaf_count=9776 65 88 41 29 92 690 26 86 171 197 4816 73 93 2784 57 67 154 76 365 34 137 33 49 91 982 2819 20 424 114 142
internal_value=4.2765e-05 0.0127283 0.00292898 0.0509924 0.0188717 0.0168436 0.0331101 0.0120388 -0.00102913 -0.00200218 -0.00516795 0.0104458 -0.00662111 0.000158699 0.00688396 0.0212796 -0.00306722 0.0221978 0.0145537 0.0480946 0.045793 0.0294932 0.0178688 0.0322952 -0.00565006 -0.0128345 0.0212335 0.0145144 0.0405051 0.045261
internal_weight=6836.74 949.103 365.727 27.8267 583.377 553.009 126.101 426.908 337.9 5887.64 2388.46 203.365 2185.09 3499.18 794.302 149.57 1390.03 62.8315 129.78 28.8944 100.787 59.3624 51.4609 41.8879 286.662 795.064 228.665 178.695 57.6504 49.9703
internal_count=24591 3280 1288 94 1992 1900 424 1476 1194 21311 8694 736 7958 12617 2841 539 5046 230 472 107 336 199 173 140 1023 2912 786 624 200 162
is_linear=0
shrinkage=0.05


Tree=20
num_leaves=31
num_cat=0
split_feature=6 10 16 8 36 20 5 10 20 10 41 24 9 18 33 19 7 10 7 29 36 19 21 17 20 6 41 6 7 41
split_gain=44.7791 42.9226 38.3677 32.8416 23.9405 23.4778 36.6444 44.5586 34.708 31.3322 35.2455 27.6433 32.7664 26.5541 25.0237 23.5914 49.9225 25.7322 26.6476 29.0994 23.6755 23.503 23.1825 23.1 21.4258 20.7233 19.9445 19.8748 19.5528 19.135
threshold=1.0840562000000002 -0.014289629921132805 0.0018592857142857063 0.0023260997510277108 0.00067866666666671638 1.0740085653541678 1.0711537500000003 0.0038964519994900697 1.0648069681111636 -0.00034259327429309033 0.73322335111918924 2.5000000000000004 0.00037567286126516391 2.9102213827255681 0.0016032615414076818 1.0604454589931811 1.0546563250000003 -0.014289629921132805 1.0528145250000003 -0.0020992232086395816 -0.00025483333333331521 1.0560800215092958 0.0057604171098609366 16.783707137199581 1.1869622945744311 1.0775367000000002 1.5936972894328263 1.0744724000000001 0.99052382500000014 0.41766261743154171
decision_type=2 2 2 2 2 2 2 2 2 2 2 2 2 2 2 2 2 2 2 2 2 2 2 2 2 2 2 2 2 2
left_child=3 24 -3 5 -5 6 7 8 15 10 -7 25 -13 27 -9 16 17 20 23 -20 -1 -18 -10 -19 -2 -12 -11 -8 -6 -4
right_child=1 2 29 4 28 9 13 14 22 26 11 12 -14 -15 -16 -17 21 18 19 -21 -22 -23 -24 -25 -26 -27 -28 -29 -30 -31
leaf_value=0.0068910867738196093 0.039813279119339788 -0.001957824966519472 -0.036785575233412797 -0.0098221220063493264 -0.03508264611909135 -0.040856532478563329 -0.040439960637175851 -0.012909345800757347 0.040539643250857571 0.022695417242428718 0.042180478287195365 0.047494074507618021 -0.018865257891114373 -0.0013309855573567298 0.035949735307871905 -0.0032983905098447224 0.055851102064014918 0.048141026987007368 0.073533225132872235 -0.028167113580199611 -0.040302811967915762 0.020188160731104011 -0.0055912897561121279 0.010549979102844087 -0.051193453551480195 -0.0081640173529597699 0.077572362627570543 0.011988638064343096 0.051853980094311428 -0.011776136928318153
leaf_weight=53.618200391530991 78.235288918018341 4499.8295806050301 91.8777976334095 498.15562438964844 8.3801971673965436 38.992791295051575 92.374877393245697 328.88026729226112 140.39122480154037 317.4214773774147 23.450970560312271 74.976362109184265 24.740583568811417 261.07313957810402 28.474933624267578 350.87901946902275 78.23030287027359 43.717081815004349 7.8208085298538199 69.879728525876999 52.688338875770569 112.83046674728394 33.788953006267548 627.10459670424461 7.0502328574657431 159.23588994145393 17.468220800161362 22.47387969493866 28.338361710309982 456.42668169736862
leaf_count=152 216 12908 275 1426 24 109 261 951 389 877 65 208 69 737 81 987 218 120 22 196 148 315 95 1754 21 444 48 63 79 1333
internal_value=8.70338e-05 -0.00288516 -0.00347942 0.00445207 -0.00695021 0.00651212 0.00413583 0.00691985 0.0105449 0.0148553 0.00370338 0.00985597 0.0310298 -0.0101449 -0.00901614 0.00792046 0.0116842 0.00651979 0.00978903 -0.0179306 -0.0164995 0.0347904 0.0315908 0.0129998 0.0322901 -0.00170144 0.0255579 -0.0301806 0.0320126 -0.0159669
internal_weight=8628.81 5133.42 5048.13 3495.39 534.874 2960.51 2304.23 1928.3 1570.95 656.286 321.397 282.404 99.7169 375.922 357.355 1396.77 1045.89 854.829 748.522 77.7005 106.307 191.061 174.18 670.822 85.2855 182.687 334.89 114.849 36.7186 548.304
internal_count=24591 14753 14516 9838 1529 8309 6489 5428 4396 1820 895 786 277 1061 1032 3912 2925 2392 2092 218 300 533 484 1874 237 509 925 324 103 1608
is_linear=0
shrinkage=0.05


Tree=21
num_leaves=31
num_cat=0
split_feature=4 39 29 6 10 13 39 7 7 4 39 24 4 4 10 41 4 6 45 43 39 41 39 36 6 5 10 22 4 7
split_gain=49.3542 43.8019 33.8371 30.3321 27.7611 45.3398 26.8519 50.5299 36.2685 33.8584 33.792 33.0448 29.6828 27.2483 26.838 23.793 25.7071 28.4976 26.5992 21.3624 20.9977 20.4612 30.5803 19.9773 19.7099 24.0787 18.6202 30.9945 24.633 26.292
threshold=0.12878606442305163 0.00095524639272901162 -0.00050574016187518217 1.2206126000000002 -0.0089756589492833144 -0.0014467857372774116 0.0007815250891292034 1.0804990500000002 0.99680922500000013 0.058104728621056936 0.0017429754976950442 2.5000000000000004 0.071340824871394912 0.070356427499880095 -0.021244761347500082 5.6224372938993081 0.068675720912127106 1.0737856000000001 -0.39000732158617746 0.52358946830610542 0.001312597090994398 0.27998528945812434 0.00095524639272901162 -0.00013658333333332881 1.0775367000000002 1.0815135000000002 -0.0071557471265283326 0.51076371594202996 0.031708402515831784 1.0926718500000001
decision_type=2 2 2 2 2 2 2 2 2 2 2 2 2 2 2 2 2 2 2 2 2 2 2 2 2 2 2 2 2 2
left_child=2 -2 -1 4 5 -4 9 8 10 26 20 13 -13 24 -7 16 17 18 -10 -14 -8 22 -21 -11 -9 -26 27 28 -6 -30
right_child=1 -3 3 -5 6 14 7 11 15 23 -12 12 19 -15 -16 -17 -18 -19 -20 21 -22 -23 -24 -25 25 -27 -28 -29 29 -31
leaf_value=-0.0044048323147124887 0.072424481531934079 -0.016363944167876704 0.010143515818814159 0.050184538867143746 -0.038833762056529893 0.050948666339478747 -0.025268053879919424 -0.043981206657860816 -0.013573060228338336 -0.032024177276641259 -0.048092233879972905 0.01114241337850181 0.018637685710403886 -0.0036442206413728087 -0.027751788594078959 -0.041266381362963206 -0.0077320113458455037 -0.026964428237325502 0.020173195773034499 -0.051243885211741336 0.055333467210805481 0.050526987633644382 0.064574269681493726 -0.0068028831774474482 0.055746795377013027 0.012931509801098685 0.0016372133714040137 -0.020560222252016706 -0.0092721537364678572 0.065002552212999262
leaf_weight=2190.2899753749371 14.23948687314987 566.88864314556122 164.3075857758522 33.688846349716187 8.9932174980640394 11.37564095854759 9.3238198459148389 13.946849197149275 73.563104331493378 97.477869421243668 11.446689039468763 361.09936258196831 160.9624850153923 375.21777203679085 226.95347589254379 39.274264335632324 660.35769328474998 50.364429414272308 283.1496986746788 12.875378072261812 60.583765506744385 152.11574548482895 10.226000934839247 403.54773786664009 35.721253216266632 406.81901887059212 2108.1528289914131 29.966771155595779 15.178699821233748 55.406499594449997
leaf_count=6231 39 1684 466 90 25 32 27 41 211 279 33 1014 448 1054 658 115 1892 147 804 36 165 420 28 1155 100 1141 5972 85 44 155
internal_value=-0.000115473 -0.0141883 0.000898885 0.00287717 0.0026042 -0.010064 0.00354255 0.00705783 -0.000677465 2.94329e-05 0.0315437 0.0130684 0.0210963 0.00633801 -0.0239954 -0.00304605 -0.0016398 0.00824293 0.0132139 0.031788 0.0445834 0.0438684 2.3901e-05 -0.0117099 0.0145431 0.0163875 0.00268159 0.0227802 0.0391009 0.0490305
internal_weight=8643.51 581.128 8062.39 5872.1 5838.41 402.637 5435.77 2717.05 1188.06 2718.72 81.3543 1528.98 697.279 831.705 238.329 1106.71 1067.43 407.077 356.713 336.18 69.9076 175.217 23.1014 501.026 456.487 442.54 2217.7 109.545 79.5784 70.5852
internal_count=24591 1723 22868 16637 16547 1156 15391 7676 3394 7715 225 4282 1946 2336 690 3169 3054 1162 1015 932 192 484 64 1434 1282 1241 6281 309 224 199
is_linear=0
shrinkage=0.05


Tree=22
num_leaves=31
num_cat=0
split_feature=16 6 18 35 43 41 30 1 7 20 4 6 22 36 40 7 20 4 4 20 21 17 19 39 43 16 39 6 7 10
split_gain=64.3041 20.8949 21.7269 24.2276 20.2138 22.045 16.281 18.704 16.2141 15.9764 16.5165 15.4867 14.8584 13.9988 14.804 14.5425 13.5205 23.8781 18.4309 27.0674 16.8249 15.2894 14.085 13.4078 21.7127 16.0549 13.6161 22.8716 16.2704 24.9917
threshold=0.0020250000000000151 1.0459506000000003 0.53922499382084721 0.2917485720464908 0.2252776233327573 0.94281006509272836 -2.7471018953567142e-05 -0.00065439850054615112 1.2185308750000001 1.0375936548643385 0.20604391420054696 1.2057359000000003 0.68091425353034929 -3.1333333333383166e-05 2.9015978223332954 1.0707738500000004 1.1577899907675009 0.069732442305293227 0.048739367095509738 1.1607801321638174 0.0043008165911769978 27.874622326599486 1.1623736323485623 0.00052637126302236179 0.98393841097650936 0.0015278571428571682 0.00096967488087902805 1.1163284000000002 1.0910124500000002 -0.0036781052953104294
decision_type=2 2 2 2 2 2 2 2 2 2 2 2 2 2 2 2 2 2 2 2 2 2 2 2 2 2 2 2 2 2
left_child=4 2 3 -2 -1 8 -4 -8 13 -3 -11 16 -10 14 15 -6 23 18 19 22 -20 -21 -18 24 -7 -25 27 28 -27 -30
right_child=1 9 6 -5 5 11 7 -9 12 10 -12 -13 -14 -15 -16 -17 17 -19 20 21 -22 -23 -24 25 -26 26 -28 -29 29 -31
leaf_value=-0.005282530557992284 0.074119695960608842 0.083503709141090676 -0.016737242860039105 -0.020466494083773639 -0.0049304028083207189 0.0084390027433455961 0.026482725489187467 -0.0039250162651380885 -0.00045860631207870453 0.014844733577656984 0.052366409990497492 -0.024817955767181498 0.09861265935003842 0.0020054918554918305 -0.01473227768790969 0.023219380198615146 0.0096791030852641305 -0.024988536545742953 -0.0019773403416615785 0.022740530472096149 0.036104198108366847 -0.013425214704739997 0.10713526167914017 -0.0097006150257863688 0.10734210365619395 0.0068477034829007161 -0.0057101662599168381 -0.021389673832996337 0.068496669654221562 0.0073049304141122769
leaf_weight=2533.3828528374434 20.532335638999943 9.1280181407928449 110.6999684125185 10.100558072328566 57.254785269498825 56.039819240570068 77.868448436260223 144.26324732601643 6.6396073997020713 551.82733872532845 30.975011676549911 78.588486030697823 8.8012843430042249 1196.0306245982647 40.284324675798416 230.95239186286926 6.5438258945941916 52.348279982805252 40.935473501682281 38.014611750841141 99.514650881290436 126.37133118510246 8.5535542964935285 828.88570302724838 6.1591351032257071 96.109389513731003 258.47441121935844 41.918421924114227 34.581597059965134 32.243838429450989
leaf_count=9296 66 29 399 35 206 202 264 511 23 1884 92 308 27 4257 143 812 24 190 144 136 350 446 30 3017 20 347 939 152 124 118
internal_value=4.18719e-05 0.0120728 0.00263643 0.0429319 -0.00191339 0.000638092 -0.00107225 0.00673444 0.00503279 0.017867 0.016839 -0.00311072 0.0560119 0.00451645 0.0136588 0.0176272 -0.00212274 0.00631641 0.0114386 0.00082256 0.025005 -0.00506181 0.0648938 -0.00444238 0.0182327 -0.00553381 0.00192054 0.0115486 0.0200227 0.0389711
internal_weight=6834.02 955.395 363.465 30.6329 5878.63 3345.25 332.832 222.132 1539.96 591.93 582.802 1805.28 15.4409 1524.52 328.492 288.207 1726.69 372.282 319.933 179.483 140.45 164.386 15.0974 1354.41 62.199 1292.21 463.328 204.853 162.935 66.8254
internal_count=24591 3280 1275 101 21311 12015 1174 775 5468 2005 1976 6547 50 5418 1161 1018 6239 1320 1130 636 494 582 54 4919 222 4697 1680 741 589 242
is_linear=0
shrinkage=0.05


Tree=23
num_leaves=31
num_cat=0
split_feature=6 10 4 10 7 39 39 39 19 7 20 41 7 10 6 10 39 29 7 41 7 5 39 41 5 2 41 39 13 7
split_gain=40.4488 40.1129 36.8204 30.2687 29.462 27.7536 45.4374 35.1017 32.2475 46.1278 37.5365 32.1866 27.469 60.8334 35.2324 27.3973 34.9014 41.483 27.2412 30.4439 43.4391 35.1333 31.5454 26.1582 27.4984 26.0858 37.878 25.8675 24.9633 24.7529
threshold=1.0840562000000002 -0.014289629921132805 0.084244358853651613 0.0060578749500027626 1.1668280250000003 0.00052637126302236179 0.0007087466110647574 0.00045009556264434758 1.0578365162901766 1.0546563250000003 1.0807291512761468 2.3220563892320341 1.1964014500000002 0.0055969012314361919 1.2206126000000002 -0.014289629921132805 0.0011410663896719061 0.0016231277781419567 1.0032506000000003 1.6243620751592691 1.0129837000000002 1.0472302500000004 0.0015649303414498165 0.37713882088904793 1.1693635000000004 -0.00020442728103334192 1.9371068025985954 0.00051828417010557637 0.00011992250050651966 1.1842572000000002
decision_type=2 2 2 2 2 2 2 2 2 2 2 2 2 2 2 2 2 2 2 2 2 2 2 2 2 2 2 2 2 2
left_child=3 -2 12 5 23 7 11 -1 9 15 -10 -7 29 14 27 -8 17 28 25 20 -20 22 -22 -4 -25 26 -18 -14 -17 -3
right_child=1 2 4 -5 -6 6 8 -9 10 -11 -12 -13 13 -15 -16 16 18 -19 19 -21 21 -23 -24 24 -26 -27 -28 -29 -30 -31
leaf_value=0.076265914419700237 0.031193202749764129 -0.001875117697089539 -0.032520235886089321 -0.005712326390837563 -0.045083818768201764 0.017979630459568959 -0.016652548434694235 -0.03046175105677771 -0.0026618285062120391 0.038003823766820301 0.05298601367987868 0.069527069949351761 -0.038911928322326379 -0.042567892342152081 -0.034795373604843 -0.02087298401307881 0.045203462108037232 0.039128388631063653 0.068429679902494586 0.049020016619408309 -0.029578341866369137 0.036008742222758051 0.027320360489804341 -0.0074829470234785761 0.079835448001370435 -0.014017522207496098 -0.014970847090391662 0.025016230813298575 0.0096397159434347349 -0.019007599368382186
leaf_weight=8.4869327247142774 85.606032401323318 3654.3936268985271 112.00491479039192 628.31120750308037 67.578066676855087 429.5313358604908 110.43931278586388 83.50636413693428 1173.4545068442822 134.79040685296059 31.107120871543884 32.580098509788513 16.629769951105118 47.71569550037384 29.760139167308807 186.47705915570259 65.288398057222366 50.63787317276001 33.232746750116348 106.26785489916801 74.284424602985382 62.397552639245987 36.245450556278229 553.10562437772751 9.1658641397953016 102.78459453582764 43.627395480871201 326.49470645189285 104.64977768063545 223.7346522808075
leaf_count=23 237 10489 335 1810 209 1188 313 235 3300 373 85 89 47 144 93 523 181 142 93 296 209 174 101 1611 27 288 122 903 293 658
internal_value=8.25503e-05 -0.00274611 -0.00332251 0.00422772 -0.0136094 0.00640399 0.00729881 -0.0206155 0.00444214 0.0105856 -0.00122475 0.0216139 -0.00154724 0.0105894 0.0173916 0.00680027 0.00979153 -0.00263971 0.0178975 0.0272807 0.0160748 0.00601342 -0.0109199 -0.0104549 -0.00605953 0.00404977 0.0211 0.0219179 -0.00990475 -0.00286351
internal_weight=8624.29 5126.19 5040.58 3498.1 741.854 2869.79 2777.8 91.9933 2315.68 1111.12 1204.56 462.111 4298.73 420.6 372.885 976.332 865.893 341.765 524.128 312.428 206.16 172.927 110.53 674.276 562.271 211.7 108.916 343.124 291.127 3878.13
internal_count=24591 14753 14516 9838 2182 8028 7770 258 6493 3108 3385 1277 12334 1187 1043 2735 2422 958 1464 873 577 484 310 1973 1638 591 303 950 816 11147
is_linear=0
shrinkage=0.05


Tree=24
num_leaves=31
num_cat=0
split_feature=4 39 29 10 13 10 7 39 7 39 5 19 4 21 41 16 14 24 4 20 32 7 7 18 14 5 20 10 41 5
split_gain=45.2924 40.2169 31.4377 26.7275 42.6464 23.9768 23.4727 31.5531 28.493 53.2486 40.1431 56.1679 40.2825 36.877 36.2021 28.8807 28.6348 28.0704 34.5994 28.7521 27.5279 26.5186 43.7268 36.3098 27.5197 25.1798 24.198 20.6457 25.882 34.4982
threshold=0.12878606442305163 0.00095524639272901162 -0.00050574016187518217 -0.008786349889387866 -0.0014467857372774116 -0.021244761347500082 0.99680922500000013 0.0017429754976950442 1.0802461500000005 0.00082518418112275565 1.0747255000000002 1.0888250709403844 0.068675720912127106 0.0027880827954565846 5.2677639481569472 0.0012185714285714419 0.0011282530531962355 2.5000000000000004 0.067714256950519011 1.1565612442849209 0.00099164130152499023 1.0716544000000003 1.0768837000000002 2.3331451199477522 -0.00095402130147802537 1.0923257500000003 1.0827042382028782 -0.0073935262430828699 1.4470187908404177 1.1397445000000002
decision_type=2 2 2 2 2 2 2 2 2 2 2 2 2 2 2 2 2 2 2 2 2 2 2 2 2 2 2 2 2 2
left_child=2 -2 -1 4 -4 -6 7 -5 10 13 12 -12 14 15 16 -10 21 18 25 -19 -21 23 -23 24 -8 26 -11 -15 -29 -30
right_child=1 -3 3 6 5 -7 8 -9 9 17 11 -13 -14 27 -16 -17 -18 19 -20 20 -22 22 -24 -25 -26 -27 -28 28 29 -31
leaf_value=-0.0042593001840586925 0.069063258426085558 -0.015749298768460755 0.010096418565970858 0.042812000536927276 0.048175710819567487 -0.025629619978637719 0.056956947561141835 -0.047203528741109217 0.0070566721508509116 0.021250899659185356 -0.027802262381860472 0.035558818070281044 -0.0073828425638047136 0.024800133471351155 -0.050556139385049131 0.038930024850678528 0.048098082645430959 0.027257908104148982 -0.0028675886165728218 -0.011693017427577437 0.070731409655939992 0.057132382952529641 -0.011749920280061811 0.01768240293145908 -0.01841466457704705 0.0291609437574222 -0.02952588778692641 9.3198927667912605e-05 -0.027786834530152182 -0.00068600574457607002
leaf_weight=2187.3078005611897 14.333450496196745 562.76839265227318 169.46734383702278 70.219119668006897 11.526728749275206 242.72162955999374 13.078336060047148 11.302207589149473 785.32444429397583 51.634650617837906 254.65601298213005 40.546058028936386 614.49210703372955 65.795234233140945 22.887647837400436 78.142745733261108 54.281481951475143 475.10371646285057 382.54286029934883 88.448339074850082 11.439996868371962 65.052696883678436 35.673934668302536 217.18974298238754 163.68252763152122 213.5066097676754 43.005470097064972 1220.2016032934189 226.10074210166931 244.31569004058838
leaf_count=6231 39 1684 480 192 32 709 37 33 2193 146 750 114 1764 186 68 217 151 1316 1074 248 31 185 103 617 473 594 120 3468 642 694
internal_value=-0.000111517 -0.0136428 0.000857376 0.00276322 -0.00933301 -0.0222835 0.00370389 0.0303321 0.00329943 0.00554899 -0.00260039 -0.0190996 0.00150518 0.00148064 0.011056 0.00994117 0.0136248 0.0139702 0.00717629 0.0221312 -0.00225312 0.00984203 0.0327366 0.00398827 -0.012838 0.0196451 -0.00182261 -0.00267863 -0.00374804 -0.0137117
internal_weight=8636.75 577.102 8059.65 5872.34 423.716 254.248 5448.62 81.5213 5367.1 3885.56 1481.54 295.202 1186.34 2619.88 571.846 863.467 548.959 1265.68 690.69 574.992 99.8883 494.677 100.727 393.951 176.761 308.147 94.6401 1756.41 1690.62 470.416
internal_count=24591 1723 22868 16637 1221 741 15416 225 15191 10929 4262 864 3398 7400 1634 2410 1566 3529 1934 1595 279 1415 288 1127 510 860 266 4990 4804 1336
is_linear=0
shrinkage=0.05


Tree=25
num_leaves=31
num_cat=0
split_feature=16 18 19 35 43 5 10 4 20 7 20 7 29 13 4 8 15 22 31 43 24 19 29 29 45 19 13 6 4 7
split_gain=59.318 20.6684 27.4162 18.4247 18.3706 17.7756 17.4826 17.2598 15.0084 20.3554 14.1557 14.0028 17.1545 12.3112 12.0274 13.0961 12.8796 11.9674 11.8491 11.3662 13.539 15.9082 11.2159 13.5429 15.022 11.186 24.816 25.5087 22.7667 21.9906
threshold=0.0019332142857142944 0.87600833024226266 1.0409487245851035 0.30744029961719566 0.22943078634069283 0.97639625000000019 -0.01663389713712193 0.20604391420054696 1.0628770143842179 1.0996781000000004 1.0579887744108729 1.0610725000000001 -0.00027537255038794146 0.00056006968124744383 0.12878606442305163 0.00030780859544354838 0.00029643291253794534 0.65598882590674612 0.0075901551000538241 0.28570200527847606 2.5000000000000004 1.0654293706590514 -0.0003296499981571431 -5.9270548905130916e-05 -0.66040027479927532 1.1583811073544359 0.002003258148697951 1.1569804000000001 0.069732442305293227 1.1615156500000003
decision_type=2 2 2 2 2 2 2 2 2 2 2 2 2 2 2 2 2 2 2 2 2 2 2 2 2 2 2 2 2 2
left_child=4 3 5 11 -1 -3 -4 8 10 18 19 12 -2 -13 -11 -16 -17 -5 22 -8 -21 -22 -10 -24 -25 -6 27 -27 -29 -30
right_child=1 2 6 17 25 -7 7 -9 9 14 -12 13 -14 -15 15 16 -18 -19 -20 20 21 -23 23 24 -26 26 -28 28 29 -31
leaf_value=-0.0051957493397911834 0.081233836400171289 0.026334331184125433 -0.015144569799068024 0.021390019789787919 -0.00146767969428332 -0.010913869358960375 -0.0065713294906999502 0.049381540732843628 -0.030007354556808211 0.012067877372064727 0.060810226378140986 0.029030649124244468 0.027596264676126078 -0.038764561047877039 0.072354868531132474 -0.03942392222476547 0.043489503848919378 -0.034135236720481271 0.051433171694416427 0.010436971737039578 0.049231204581346617 -0.012942498130001399 0.066393491258694787 0.064820325222094882 -0.0096254469081129054 0.050679691214318014 0.066923579070371997 0.0058436338302374144 0.076171472826191217 -0.020010766897584516
leaf_weight=2535.6604750454426 29.836559623479843 37.180700987577438 50.972924500703812 23.193247109651566 2195.5725603103638 231.19498388469219 34.375503152608871 35.070954203605652 44.177240461111069 186.1521163880825 23.223171889781952 48.285121709108353 29.789996594190598 7.7746227979660025 19.001462623476982 7.1504114270210293 13.577127635478972 16.685356885194778 8.6838902533054334 78.542968094348907 67.234161823987961 12.147164762020109 7.115617722272872 7.2497599720954886 103.73905736207962 28.329440116882324 15.897221773862837 789.76135750114918 6.2125310599803916 136.8483098000288
leaf_count=9335 96 125 182 81 7926 832 123 103 156 642 77 166 100 27 57 24 43 57 29 264 224 41 24 25 361 100 53 2796 22 500
internal_value=4.31193e-05 0.0105511 0.00782938 0.027466 -0.00202295 -0.00575351 0.0130488 0.0152685 0.0133148 0.00754624 0.0239365 0.0375688 0.054436 0.0196285 0.017398 0.0423724 0.0148867 -0.00184195 -0.00546996 0.0194834 0.0251548 0.0397172 -0.00851491 -0.000475615 -0.00476267 0.000512851 0.0049634 0.00393859 0.00251908 -0.015834
internal_weight=6830.64 1122.35 966.789 155.565 5708.28 268.376 698.414 647.441 612.37 396.847 215.523 115.686 59.6266 56.0597 225.881 39.729 20.7275 39.8786 170.966 192.3 157.924 79.3813 162.282 118.104 110.989 3172.62 977.049 961.152 932.822 143.061
internal_count=24591 3859 3332 527 20732 957 2375 2193 2090 1361 729 389 196 193 766 124 67 138 595 652 529 265 566 410 386 11397 3471 3418 3318 522
is_linear=0
shrinkage=0.05


Tree=26
num_leaves=31
num_cat=0
split_feature=10 39 19 10 39 8 18 39 36 41 29 16 20 43 38 31 17 39 20 43 29 15 19 20 8 39 39 39 39 10
split_gain=35.0066 32.8146 36.3609 34.0854 36.747 28.7572 24.7092 24.4547 24.1901 34.2941 25.0275 22.5101 21.2074 20.1276 19.8449 19.0409 18.8523 18.4002 17.2233 16.9639 18.8616 19.5966 23.9042 19.213 18.2003 24.3397 16.3206 15.7768 19.4882 17.2675
threshold=0.0097164345380607049 0.00050649834064352107 1.0894964243922141 -0.014289629921132805 0.00091017895411748889 0.0023260997510277108 9.1363858673474159 0.0017429754976950442 0.00036258333333335141 0.74448878781726513 -0.0012838381829204488 0.0022035714285714401 1.1144364924143597 0.47981776275275861 0.67500000000000016 0.00016339034061466662 15.100105975224965 0.0014591435875792225 1.1857515341619032 0.2044951180338129 -0.0024437345864423182 0.00016336074442516746 1.172474437055504 1.1698762980346815 0.0051868809131724323 0.0021510981142535048 0.00057641341803581529 0.0012591991132832718 0.00110677082290569 -0.00073489524901171322
decision_type=2 2 2 2 2 2 2 2 2 2 2 2 2 2 2 2 2 2 2 2 2 2 2 2 2 2 2 2 2 2
left_child=1 6 5 18 -5 14 15 8 10 12 11 27 -10 -12 16 -1 -3 -7 -4 20 -2 22 -22 -24 26 -26 -21 28 29 -6
right_child=19 2 3 4 7 17 -8 -9 9 -11 13 -13 -14 -15 -16 -17 -18 -19 -20 24 21 -23 23 -25 25 -27 -28 -29 -30 -31
leaf_value=-0.029549053193326354 0.066120960473875778 0.028454784892645014 0.037720642506975516 0.00056144786652913324 0.037389806694304133 -0.014493680144309753 0.027948242267162957 0.042428702096064613 0.024713706290595803 0.079622405416709063 -0.011672813648163284 -0.029757700024517865 -0.038465491785022808 -0.02884585062730621 -0.015168406026959525 0.011457288016818688 0.0071171320857394875 0.0099700319067312481 -0.035251980454306185 0.054495478338125569 -0.014250206791931614 0.034397748791040413 0.086734445912672167 -0.017880282816041138 -0.010035678321177348 0.055872796844293485 -0.025204843978658211 0.053594760729202919 -0.035707704763228716 -0.0058323623662105964
leaf_weight=177.77946951985359 10.098154127597807 107.58159822225571 75.881011724472046 3278.3105121850967 47.224205702543259 269.03485256433487 26.79308944940567 21.608719229698181 30.931948453187943 16.651569068431854 524.20201355218887 39.055141806602478 23.278459101915359 252.9596135020256 96.184179604053497 33.670763194561005 2739.9003103375435 107.60616707801819 9.0505029857158643 6.5652432739734641 191.35837116837502 29.665043741464615 11.123369365930559 7.2489889860153189 82.140042632818222 16.88790625333786 296.99531373381615 20.621633768081665 22.433778166770935 45.248475790023804
leaf_count=515 29 297 207 9415 136 769 76 61 89 48 1518 117 72 746 272 96 7671 305 27 19 553 85 32 21 240 47 872 59 66 131
internal_value=7.75824e-05 0.00098932 0.00155278 -0.00142405 -0.0020404 0.00550431 -0.0172875 -0.0102089 -0.0113212 0.0168618 -0.0134195 0.00368741 -0.00241604 -0.0172625 0.00716878 -0.0230193 0.0079233 -0.00750441 0.0299445 -0.0110604 -0.000816135 -0.00363966 -0.00901981 0.0454577 -0.0174091 0.00120414 -0.0234811 0.0133253 0.00609835 0.0162405
internal_weight=8618.09 7966.01 7727.76 4407.46 4322.53 3320.31 238.243 1044.22 1022.61 70.862 951.745 174.583 54.2104 777.162 2943.67 211.45 2847.48 376.641 84.9315 652.082 249.494 239.396 209.731 18.3724 402.589 99.0279 303.561 135.528 114.906 92.4727
internal_count=24591 22693 22006 12692 12458 9314 687 3043 2982 209 2773 509 161 2264 8240 611 7968 1074 234 1898 720 691 606 53 1178 287 891 392 333 267
is_linear=0
shrinkage=0.05


Tree=27
num_leaves=31
num_cat=0
split_feature=32 6 16 39 4 19 10 14 16 39 43 33 9 8 39 5 10 6 5 10 20 6 16 31 14 4 5 5 5 19
split_gain=42.5234 30.1573 24.3911 19.2647 40.2385 35.827 27.1033 28.1549 25.117 23.2235 22.895 27.5131 23.8078 19.7028 18.3545 16.9874 29.9658 23.8135 34.7027 33.8896 24.3647 22.6336 20.1872 18.5227 16.6246 16.3263 15.9109 15.8914 17.8989 17.6536
threshold=0.0016874051661698879 1.2206126000000002 0.003205357142857143 0.00078365680267493312 0.043266951995167439 1.1948424199113734 0.00075137834817462512 -0.00065619427430990229 0.0014635714285714293 0.00048805954845942756 0.065911574260969816 0.0005351531240537264 0.00016652814234530136 -0.0020371703681782978 0.00091543870660375302 1.0844740000000004 -0.011762152872355934 1.0744724000000001 1.0711537500000003 0.0042022174046560954 1.0714676109263264 1.0695878000000001 0.0014764285714285931 0.0015205220535649659 -0.0016796945252796484 0.071721087977656375 1.2154280000000004 1.1824240000000004 1.05565675 1.053010504978763
decision_type=2 2 2 2 2 2 2 2 2 2 2 2 2 2 2 2 2 2 2 2 2 2 2 2 2 2 2 2 2 2
left_child=1 2 3 4 6 8 7 -1 27 -6 -9 12 13 -12 -7 17 -17 18 19 23 -20 -21 -18 -11 -16 -19 -26 28 29 -5
