tree
version=v4
num_class=3
num_tree_per_iteration=3
label_index=0
max_feature_idx=43
objective=multiclass num_class:3
feature_names=returns log_returns volatility_20 atr_14 sma_5 ema_5 sma_10 ema_10 sma_20 ema_20 sma_50 ema_50 sma_100 ema_100 sma_200 ema_200 price_to_sma20 price_to_sma50 price_to_sma200 sma200_atr_distance rsi_14 macd macd_signal macd_hist bb_upper bb_lower bb_width bb_position adx_14 plus_di minus_di hour is_tokyo is_london is_ny tokyo_cumret london_cumret ny_cumret efficiency_ratio sma_slope parkinson_vol tail_asymmetry zscore bw_percentile
feature_infos=[-0.013737667544514887:0.017420061719087609] [-0.013832902509372866:0.017270071827301673] [0.00019278460576179873:0.0043956002852518694] [0.00034214285714287814:0.0065492857142856863] [0.95495799999999986:1.2253979999999998] [0.95512267362825354:1.2253737789208006] [0.95553399999999988:1.225033] [0.95597619592207128:1.2251178571824515] [0.95707950000000008:1.2248399999999999] [0.95732216997324193:1.2247028537932532] [0.96027560000000012:1.2235863999999999] [0.96087249937590224:1.223516186045347] [0.96450619999999998:1.2219926999999999] [0.96718638428890491:1.2220887622402994] [0.97283799999999998:1.2211014499999999] [0.97528294303788776:1.2204034173701299] [-0.015673303944816808:0.015573834680824516] [-0.022685783673622728:0.028686324808947283] [-0.036562493643708893:0.041211805315088945] [0.00021731631593706476:24.918977035489242] [0:99.001996007984161] [-0.0048628386022739889:0.0077317199617603638] [-0.0041592261075269503:0.0071143194307761361] [-0.0023108830693380428:0.0022779758348650731] [0.96093475738188328:1.2276503748252201] [0.94616091594240603:1.2235642788869483] [0.00079078767840352665:0.039983523434629249] [-0.54290215722487334:1.5345933853116158] [5.8090333954145708:99.146550227911774] [0:61.756993006992275] [0:63.740259740259788] [0:23] [0:1] [0:1] [0:1] [-0.01873224362634518:0.013961074229145054] [-0.020198308026284084:0.028834104843637243] [-0.021717721585548744:0.02842282999167689] [0:0.67269824374666987] [-3.7974358974359745:4.680605564648201] [0.00025278481769407997:0.0031843203879684248] [-0.0046473302006619921:0.020367146411747437] [-4.1716086288996292:4.138373541246553] [-0.54290215722487334:1.5345933853116158]
tree_sizes=3418 3332 3417 3490 3452 3474 3465 3489 3476 3479 3446 3499 3507 3468 3479 3464 3428 3464 3490 3474 3492 3495 3435 3484 3497 3477 3484 3505 3462 3487 3525 3474 3488 3501 3477 3496 3511 3449 3492 3479 3466 3492 3443 3496 3510 3515 3466 3489 3480 3437 3493 3497 3444 3470 3531 3467 3478 3503 3477 3513 3520 3487 3484 3511 3465 3493 3495 3480 3483 3504 3532 3477 3475 3473 3499 3497 3471 3514 3498 3474 3458 3500 3463 3465 3528 3436 3476 3514 3496 3516 3502 3470 3453 3481 3478 3482 3465 3498 3480 3445 3508 3493 3517 3476 3508 3514 3453 3490 3512 3460 3520 3524 3442 3473 3501 3481 3460 3500 3471 3507 3502 3511 3477 3491 3468 3456 3484 3453 3467 3470 3466 3456 3476 3501 3479 3499 3441 3461 3456 3489 3494 3497 3493 3465 3500 3449 3455 3461 3437 3508 3508 3456 3496 3508 3501 3465 3475 3513 3459 3533 3437 3488 3458 3486 3501 3547 3501 3464 3485 3459 3449 3499 3493 3463 3501 3480 3490 3495 3478 3457 3495 3479 3531 3478 3457 3529 3484 3474 3483 3507 3506 3473 3473 3467 3528 3500 3479 3453 3490 3433 3494 3503 3483 3491 3507 3485 3477 3517 3477 3465 3438 3471 3444 3470 3495 3470 3452 3495 3498 3505 3492 3474 3500 3501 3461 3477 3485 3474 3444 3463 3441 3520 3466 3480 3514 3498 3497 3507 3474 3479 3451 3459 3481 3521 3497 3472 3503 3490 3446 3459 3499 3482 3498 3482 3500 3485 3484 3485 3512 3471 3463 3478 3470 3475 3459 3493 3474 3470 3457 3480 3505 3512 3464 3474 3476 3486 3456 3481 3509 3461 3483 3475 3520 3485 3481 3476 3439 3492 3484 3467 3514 3473 3435 3506 3474 3426 3452 3509 3453 3546 3477 3458 3471 3477 3461 3471 3523 3461 3447 3481 3474 3498 3480 3489 3522 3518 3498 3472 3503 3475 3441 3476 3485 3425 3470 3514 3481 3500 3446 3451 3485 3490 3516 3467 3489 3469 3479 3477 3471 3475 3516 3466 3466 3493 3449 3479 3482 3528 3484 3511 3476 3447 3496 3503 3474 3445 3455 3474 3484 3501 3482 3495 3500 3541 3481 3480 3508 3456 3494 3517 3471 3477 3474 3496 3472 3462 3480 3464 3499 3460 3464 3468 3501 3516 3489 3454 3498 3454 3457 3471 3483 3491 3488 3490 3488 3492 3475 3454 3517 3466 3500 3453 3505 3528 3496 3484 3457 3479 3506 3451 3508 3457 3461 3507 3452 3448 3481 3466 3456 3495 3468 3496 3486 3468 3472 3449 3496 3505 3461 3458 3464 3503 3463 3499 3433 3450 3463 3484 3477 3522 3511 3454 3449 3533 3489 3492 3505 3463 3482 3483 3465 3461 3493 3461 3479 3449 3481 3458 3496 3493 3454 3490 3487 3426 3477 3444 3451 3498 3475 3470 3440 3484 3482 3488 3465 3457 3448 3496 3437 3499 3486 3445 3494 3500 3471 3493 3493 3468 3451 3474 3471 3488 3463 3447 3472 3474 3470 3462 3455 3464 3422 3466 3469 3465 3492 3465 3437 3504 3449 3487 3482 3446 3497 3480 3491 3483 3470 3446 3483 3488 3498 3541 3435 3458 3500 3489 3482 3450 3496 3477 3479 3496 3451 3478 3480 3459 3442 3501 3489 3466 3476 3453 3463 3477 3441 3464 3468 3490 3464 3471 3468 3480 3474 3458 3479 3487 3456 3483 3472 3482 3453 3495 3472 3468 3485 3478 3494 3481 3458 3476 3495 3471 3447 3451 3473 3468 3508 3461 3497 3508 3467 3489 3494 3446 3491 3480 3477 3469 3504 3453 3454 3489 3450 3469 3486 3441 3460 3482 3462 3496

Tree=0
num_leaves=31
num_cat=0
split_feature=3 8 10 18 4 37 37 2 14 15 40 26 14 2 12 14 18 18 36 15 14 12 10 36 24 40 14 36 15 35
split_gain=90.6245 71.5434 43.2525 39.2996 74.5903 43.6677 46.4339 39.8386 33.3627 33.313 43.8301 33.2914 30.8898 30.354 66.5624 33.2038 54.4828 30.2162 28.891 27.5402 25.2621 40.5936 28.0275 38.351 35.2275 33.42 25.2565 37.8801 31.2535 30.432
threshold=0.0029703571428571778 1.0847952500000002 1.2206126000000002 0.005680466260746809 1.0783590000000001 0.0040349718854684755 -0.0053841410885264165 0.0016546912657621987 1.2185308750000001 1.0325383018384784 0.0007998958460216501 0.0024700459919570115 1.0808482500000003 0.0010693447584472725 1.1676550500000002 1.1964014500000002 0.0060578749500027626 0.0062648263447808725 0.00031411557671046092 1.2041404685347958 1.1041651750000003 1.1015104500000004 1.0934669000000004 0.0030500453239830643 1.0911110676049944 0.0011280229728374907 1.1842572000000002 0.0026853598638731384 1.1779217303406491 0.00012312472546938127
decision_type=2 2 2 2 2 2 2 2 2 2 2 2 2 2 2 2 2 2 2 2 2 2 2 2 2 2 2 2 2 2
left_child=1 3 8 5 7 6 12 9 11 -5 -11 -3 -1 15 20 26 19 -16 -12 -17 21 22 24 -24 -15 -25 28 -28 -13 -30
right_child=-2 2 -4 4 -6 -7 -8 -9 -10 10 18 13 -14 14 17 16 -18 -19 -20 -21 -22 -23 23 25 -26 -27 27 -29 29 -31
leaf_value=-0.9696648038549287 -1.0058864768724924 -0.95858950701792256 -0.90929077643142842 -0.93152170809692481 -1.0011082757552832 -0.95816514010276554 -0.98422549134969517 -0.98806412835400281 -1.0150289073692977 -0.9315007110275294 -1.0039775183660613 -0.97029458891498488 -0.92341052819113512 -1.000668944397616 -0.90326915983828626 -1.0160485224543485 -0.91983093720467424 -1.0124510126259616 -0.96125587540276436 -0.98314208046692608 -0.97494315763527162 -0.90783725702814955 -0.99445145677621472 -0.90281786928084695 -0.93536115425338595 -1.0114382682625083 -0.94443125973229136 -1.0150077770845163 -1.0089064073538745 -0.97032523444650121
leaf_weight=199.24645110964775 204.88882848620415 727.51403298974037 30.680426985025406 142.47002875804901 123.42700511217117 205.94677424430847 2360.6296349167824 88.162146508693695 38.791344463825226 82.519769132137299 59.597611039876938 2850.8111695051193 44.081073254346848 25.038049608469009 62.418799728155136 94.509821057319641 27.153941124677658 7.0529717206954947 117.78462773561478 194.3093709051609 354.05918037891388 39.143993049860001 99.446901261806488 25.038049608469009 117.78462773561478 9.8741604089736921 163.6289439201355 21.511563748121262 107.20517015457153 97.683658331632614
leaf_count=565 581 2063 87 404 350 584 6694 250 110 234 169 8084 125 71 177 268 77 20 334 551 1004 111 282 71 334 28 464 61 304 277
internal_value=-0.973026 -0.972236 -0.968479 -0.977825 -0.966365 -0.980329 -0.982082 -0.957623 -0.968837 -0.950953 -0.961605 -0.968481 -0.961285 -0.970155 -0.960941 -0.972072 -0.987544 -0.914354 -0.97561 -0.99391 -0.965769 -0.9555 -0.962231 -0.978624 -0.94681 -0.933539 -0.970564 -0.952632 -0.97165 -0.990512
internal_weight=8722.41 8517.52 5093.66 3423.87 613.961 2809.9 2603.96 490.534 5062.98 402.372 259.902 5024.18 243.328 4296.67 739.857 3556.81 315.973 69.4718 177.382 288.819 670.385 316.326 277.182 134.359 142.823 34.9122 3240.84 185.141 3055.7 204.889
internal_count=24734 24153 14444 9709 1741 7968 7384 1391 14357 1141 737 14247 690 12184 2098 10086 896 197 503 819 1901 897 786 381 405 99 9190 525 8665 581
is_linear=0
shrinkage=1


Tree=1
num_leaves=31
num_cat=0
split_feature=3 5 26 2 31 2 2 23 25 21 14 6 6 25 14 12 12 26 2 3 37 25 35 3 18 22 14 24 29 30
split_gain=140.473 55.4236 30.6702 29.2679 28.3193 25.337 24.25 23.5857 22.6988 27.6438 21.6797 18.2546 22.77 24.9052 25.4487 24.1138 21.1619 16.7374 16.527 16.1917 14.9964 14.0477 13.9304 18.7813 16.8612 12.9001 11.9994 11.9236 12.7298 11.8476
threshold=0.0024924999999999934 1.1307065212584051 0.0027880827954565846 0.001674560610249229 16.500000000000004 0.0013081095415653215 0.001825379105930543 0.00090732472625221032 1.1577899907675009 0.0018848799061523815 1.2035186500000001 1.1037275000000004 1.0435635000000001 0.96650492374144525 0.99680922500000013 1.0336616500000002 1.0946770000000001 0.015595920403159677 0.0011460279905141078 0.0027803571428571426 0.0027592484478476957 1.0141507161745691 -0.004033608780271535 0.0019332142857142944 -0.0030515325843190051 0.0029924449062142412 1.205591925 1.2065869489877101 39.606302858328142 7.2239212551894223
decision_type=2 2 2 2 2 2 2 2 2 2 2 2 2 2 2 2 2 2 2 2 2 2 2 2 2 2 2 2 2 2
left_child=2 6 26 5 -4 -3 18 11 22 10 27 12 13 -8 -15 17 19 21 -2 -14 -12 -16 23 -6 -25 -24 -1 28 -10 -20
right_child=1 3 4 -5 8 -7 7 -9 9 -11 20 -13 16 14 15 -17 -18 -19 29 -21 -22 -23 25 24 -26 -27 -28 -29 -30 -31
leaf_value=-1.4080341368621638 -1.3265970635922424 -1.321810445783582 -1.402716237675635 -1.2842115996601309 -1.4236444246579427 -1.4443478616852921 -1.3060374004331385 -1.4148214409458657 -1.3795589581609264 -1.300804031629003 -1.4180715329615992 -1.4090501985566966 -1.3658473296232589 -1.4309575790307876 -1.385217590781423 -1.4169772161237115 -1.4098421333063764 -1.294823038709991 -1.4443478616852921 -1.3018595009676521 -1.3490257870385376 -1.3191642889617843 -1.3991496174753792 -1.3872565656401772 -1.2772925422232315 -1.3247280033050512 -1.4288332559931181 -1.315158414634632 -1.4443478616852921 -1.3924373571051876
leaf_weight=1075.3510076999664 8.917137145996092 11.425081968307497 3781.9807920455933 25.915429830551147 7.2451739311218288 6.6878528594970694 13.375705718994139 22.014182329177856 267.79277491569519 9.7531187534332258 66.599868059158325 16.998292684555054 13.375705718994139 18.670255899429321 24.522127151489258 16.440971612930298 7.2451739311218253 11.703742504119871 11.982403039932249 37.897832870483398 8.917137145996092 11.982403039932249 1173.7181768417358 6.1305317878723153 8.0811555385589564 5.8518712520599356 74.123702526092529 6.9665133953094474 7.8024950027465811 132.92107558250427
leaf_count=3859 32 41 13572 93 26 24 48 79 961 35 239 61 48 67 88 59 26 42 43 136 32 43 4212 22 29 21 266 25 28 477
internal_value=-1.40021 -1.37115 -1.40197 -1.31829 -1.40037 -1.36706 -1.37783 -1.36609 -1.39473 -1.38386 -1.38612 -1.35986 -1.35447 -1.36937 -1.37954 -1.36469 -1.32985 -1.34685 -1.39266 -1.31855 -1.40992 -1.36354 -1.39805 -1.35813 -1.32473 -1.39878 -1.40938 -1.37976 -1.38139 -1.39673
internal_weight=6892.39 392.075 6500.31 44.0284 5350.84 18.1129 348.047 194.226 1568.86 367.832 358.079 172.212 155.214 96.6952 83.3195 64.6492 58.5187 48.2083 153.821 51.2735 75.517 36.5045 1201.03 21.4569 14.2117 1179.57 1149.47 282.562 275.595 144.903
internal_count=24734 1407 23327 158 19202 65 1249 697 5630 1320 1285 618 557 347 299 232 210 173 552 184 271 131 4310 77 51 4233 4125 1014 989 520
is_linear=0
shrinkage=1


Tree=2
num_leaves=31
num_cat=0
split_feature=10 18 18 3 37 37 5 14 18 13 8 19 14 37 5 8 18 13 5 15 36 14 8 10 14 3 5 9 18 8
split_gain=97.5023 58.7128 48.432 45.5421 45.412 52.764 41.2803 36.6164 72.2749 46.3453 39.7622 54.4285 39.0671 33.5452 32.9797 32.563 32.3491 31.8407 30.329 32.9575 30.0955 27.6841 35.9658 34.767 66.2682 26.5009 26.3152 44.7898 44.516 35.9552
threshold=1.0840562000000002 0.005680466260746809 -0.014289629921132805 0.0018692857142857324 -0.0053841410885264165 0.0040349718854684755 1.0765529467046686 1.1964014500000002 0.005680466260746809 1.2205386540640093 1.1751627500000001 1.8740051812014225 1.1764352750000002 0.015032266319800093 1.1722279206175781 1.1906785000000004 -0.0065253114139647841 1.2038974127482625 1.0823047097392735 1.0802500566401021 -0.0028098903962144868 1.1733616000000002 1.1714137500000004 1.1651256000000003 1.1621407750000003 0.0011692857142857223 1.0551921473504382 1.0755329628169197 -0.0004663314690664388 1.0711537500000003
decision_type=2 2 2 2 2 2 2 2 2 2 2 2 2 2 2 2 2 2 2 2 2 2 2 2 2 2 2 2 2 2
left_child=1 4 15 7 -1 26 13 10 9 17 12 -12 21 -3 -14 -2 -13 -9 -8 -20 -19 22 23 24 -4 -24 -6 29 -29 -28
right_child=2 6 3 -5 5 -7 18 8 -10 -11 11 16 14 -15 -16 -17 -18 20 19 -21 -22 -23 25 -25 -26 -27 27 28 -30 -31
leaf_value=-0.99037694296225509 -0.93446725083206916 -0.99502387941565229 -0.98380954346701188 -0.99790465760208824 -0.95876870131688152 -0.99069389964554155 -0.93785452782399303 -0.92888172960106352 -1.0249795178989158 -1.0211703557712704 -1.0197418484335727 -1.0272802313407143 -0.90459775821351252 -0.90494445768140641 -0.97210366185344543 -1.0328765613342783 -0.98254764272383388 -0.92169244484828405 -0.99410925719704435 -0.92314922096924201 -0.97107361270970249 -1.0058766139463351 -0.93441030099960265 -1.0013817056836452 -0.95706494435479861 -0.98170371987312954 -0.97029569856518205 -0.97039278878367774 -0.94157544018577977 -0.99280432690350495
leaf_weight=242.35512462258339 73.163811206817627 501.94595476984978 2710.5785055756569 553.3013222515583 898.01543274521828 227.58166274428368 64.721832990646362 81.254040330648422 50.651869297027588 29.898672848939896 171.30180796980858 44.672134727239609 28.843425571918488 10.552472770214079 48.541374742984772 9.497225493192671 424.20940536260605 35.526658326387405 88.992520362138748 20.049698263406754 234.61664459109306 125.92617505788803 67.535825729370117 238.13413551449776 253.25934648513794 52.762363851070404 606.41543519496918 328.88540133833885 226.1746663749218 250.79710283875465
leaf_count=689 208 1427 7706 1573 2553 647 184 231 144 85 487 127 82 30 138 27 1206 101 253 57 667 358 192 677 720 150 1724 935 643 713
internal_value=-0.979435 -0.972931 -0.983743 -0.984352 -0.969698 -0.967723 -0.986029 -0.982721 -0.968864 -0.96141 -0.984158 -0.995622 -0.982076 -0.993169 -0.946942 -0.945774 -0.986809 -0.956325 -0.964968 -0.981062 -0.964579 -0.982865 -0.981993 -0.983001 -0.981524 -0.955153 -0.965461 -0.969716 -0.95865 -0.976881
internal_weight=8700.16 3466.49 5233.67 5151.01 2780.22 2537.87 686.262 4597.71 431.948 381.296 4165.76 640.183 3525.58 512.498 77.3848 82.661 468.882 351.397 173.764 109.042 270.143 3448.2 3322.27 3201.97 2963.84 120.298 2310.29 1412.27 555.06 857.213
internal_count=24734 9855 14879 14644 7904 7215 1951 13071 1228 1084 11843 1820 10023 1457 220 235 1333 999 494 310 768 9803 9445 9103 8426 342 6568 4015 1578 2437
is_linear=0
shrinkage=1


Tree=3
num_leaves=31
num_cat=0
split_feature=2 5 37 4 37 4 10 10 18 12 17 2 15 18 19 39 14 12 37 21 36 26 2 12 18 22 6 37 11 9
split_gain=81.8223 51.4275 73.9823 49.0886 47.5243 45.1569 49.4782 41.8106 31.53 66.8239 31.1783 31.0642 39.0924 29.3911 28.199 28.1235 27.5109 25.1527 25.1431 24.8941 24.505 23.9611 28.0392 53.9463 27.1351 23.3753 22.8817 28.5135 22.1991 22.1646
threshold=0.001674560610249229 1.0883035666088927 0.0043924668660526031 1.1617880000000003 -0.0053841410885264165 1.1076150000000002 1.1059891000000002 1.2206126000000002 0.005680466260746809 1.0464241500000002 -0.0012460277247125504 0.0005609460575925529 1.0839653318967652 -0.0032075005404088026 8.4958545490744637 1.0485445089600034 1.2185308750000001 1.1076257500000002 0.0028099860881838916 0.0012915679939768945 -0.0034014175977120083 0.0025493109838958419 0.0010829900048906183 1.1676550500000002 0.0062648263447808725 0.00018007149399646224 1.1037275000000004 0.001014724453510474 1.0858264095965491 1.0812109670022527
decision_type=2 2 2 2 2 2 2 2 2 2 2 2 2 2 2 2 2 2 2 2 2 2 2 2 2 2 2 2 2 2
left_child=1 2 4 14 -1 6 10 16 11 19 17 12 28 26 -2 25 21 -3 -11 -10 -13 -7 -23 -24 -25 -4 27 -12 29 -6
right_child=3 5 15 -5 8 7 -8 -9 9 18 13 20 -14 -15 -16 -17 -18 -19 -20 -21 -22 22 23 24 -26 -27 -28 -29 -30 -31
leaf_value=0.016016091115627865 -0.023911086163823595 -0.0057287854898412684 0.045465345277630902 0.086325866313260224 -0.003190205817235555 0.011270122989291193 0.049880446470383907 0.059380837296955938 0.046185024485031367 -0.013533026108778224 0.063455586111333132 0.00043206468411749016 0.020728936685784898 0.011858805308838351 0.013651869324468602 0.040033313254646298 -0.040805557505485611 0.070264105668924978 0.036809462923850456 -0.0046787682992290034 -0.014553641784051519 -0.0019591150000964502 0.0039404474858715727 0.065763213176399923 -0.038578317504805684 -0.0010392309365453911 -0.046659979061300524 0.0037099762926160692 0.054678414605327935 -0.031566537298107884
leaf_weight=239.39035448431969 509.74395924806595 302.03028628230095 33.671932876110077 11.019406020641325 293.39377221465111 560.1096887588501 85.281470626592636 31.320330858230591 104.33208245038986 246.24946659803391 70.356703102588654 325.72005665302277 175.60773441195488 679.49015489220619 55.393227636814117 116.33189871907234 38.274007797241211 11.296020328998564 27.579963147640228 31.264334052801132 1678.9866799414158 2459.2037362158298 295.07610166072845 57.433060884475708 6.9892538785934439 136.80768382549286 7.0657240748405448 27.884852468967438 13.810206502676008 89.902255237102509
leaf_count=676 1454 855 95 31 835 1581 241 87 293 699 199 927 498 1921 158 328 110 32 78 88 4780 6972 836 160 20 386 20 79 39 256
internal_value=1.80019e-05 0.00130611 -0.00325594 -0.0181913 -0.00541936 0.00476624 0.0131937 0.00187413 -0.00713737 0.00575197 0.0103446 -0.00918486 0.001085 0.015668 -0.0202293 0.0210796 0.00134703 -0.00298909 -0.00846256 0.0344574 -0.0121188 0.00182452 -5.24291e-05 0.0129905 0.0544431 0.00814603 0.0402469 0.0464974 -0.00760192 -0.00984589
internal_weight=8721.02 8144.86 3513.05 576.157 3226.24 4631.81 1183.41 3448.41 2986.85 409.426 1098.12 2577.42 572.714 784.797 565.137 286.812 3417.09 313.326 273.829 135.596 2004.71 3378.81 2818.7 359.498 64.4223 170.48 105.307 98.2416 397.106 383.296
internal_count=24734 23091 9978 1643 9169 13113 3347 9766 8493 1158 3106 7335 1628 2219 1612 809 9679 887 777 381 5707 9569 7988 1016 180 481 298 278 1130 1091
is_linear=0
shrinkage=0.05


Tree=4
num_leaves=31
num_cat=0
split_feature=3 9 26 31 2 2 2 23 25 21 17 14 36 36 25 14 2 11 10 9 33 18 37 36 36 36 35 3 16 26
split_gain=126.19 48.1368 28.3009 26.2119 23.9031 30.7655 23.2005 21.349 20.6855 23.9042 20.9101 19.6938 16.7172 19.8267 15.6299 32.1098 15.4193 14.3142 24.7627 20.4466 14.0187 15.6468 13.6773 13.4089 15.7456 13.1807 13.1707 16.6944 14.3827 11.4855
threshold=0.0024924999999999934 1.1242445317976439 0.0027880827954565846 16.500000000000004 0.001674560610249229 0.0013081095415653215 0.001825379105930543 0.0010096085273488663 1.1577899907675009 0.0018848799061523815 0.010688773191458891 1.2035186500000001 -0.010545044785620848 -0.0050215237795351855 0.96650492374144525 0.99680922500000013 0.0011460279905141078 1.087201571319752 1.0996726000000001 1.0622247613738567 1.0000000180025095e-35 0.010590807099271961 0.0027592484478476957 0.00031411557671046092 -0.0013174467121982445 -0.0031587970476611989 -0.004033608780271535 0.0019332142857142944 0.0004841029931504926 0.015595920403159677
decision_type=2 2 2 2 2 2 2 2 2 2 2 2 2 2 2 2 2 2 2 2 2 2 2 2 2 2 2 2 2 2
left_child=2 6 23 -4 5 -3 16 12 10 11 26 -10 -8 29 -15 -16 -2 19 -19 20 21 25 -13 24 -1 -17 27 -5 -29 -14
right_child=1 4 3 8 -6 -7 7 -9 9 -11 -12 22 13 14 15 17 -18 18 -20 -21 -22 -23 -24 -25 -26 -27 -28 28 -30 -31
leaf_value=-0.0022588752857203727 0.068464581631868429 0.079713734452057206 -0.0025132256085026866 -0.022948422324325226 0.10424475360380765 -0.043964302920431998 -0.037483191228955222 -0.022793810769445977 0.019326550451584521 0.090657559266762375 0.07130938752503814 -0.017426621154168816 0.045553654421435448 0.084514165458507401 -0.031237847120496043 0.088871579818719557 0.0018311263075326948 -0.034973230606558374 0.056811080719207332 0.10023714163455891 -0.016369746329395512 0.089354387448480121 0.047729153662220691 -0.0023681587963365214 -0.018604606530839653 0.019172196421138141 0.00063602571335637551 0.018849810224265108 0.11769720690434012 0.11422323892441799
leaf_weight=216.1597395837307 9.2475515604019147 13.615260154008867 3776.0774223804474 7.143524885177615 27.654483675956726 7.9726757705211631 7.2724933624267569 16.378105819225311 285.90454757213593 10.282496154308317 10.779046326875685 65.845744758844376 11.5764596760273 13.468664199113844 19.568712055683136 8.2366649806499392 141.96059358119965 15.770867973566057 13.760170489549635 15.457419544458388 10.552433609962462 15.571727842092512 9.1769797503948194 463.56055080890656 462.6833887398243 38.432991236448295 1169.5399270951748 7.0862039625644666 7.6559085249900818 12.846534252166746
leaf_count=780 32 47 13572 26 93 29 26 59 1014 35 38 239 40 46 71 29 508 56 48 53 37 53 32 1674 1671 136 4195 25 26 44
internal_value=-0.000101449 0.0271787 -0.00177956 -0.000253974 0.073466 0.034038 0.0206683 0.031891 0.00516806 0.0154852 0.00198238 0.0133437 0.0367982 0.0398808 0.0331131 0.0280727 0.00590628 0.0379267 0.00779424 0.0480097 0.0369195 0.0459542 -0.00945659 -0.00892338 -0.0133997 0.0314733 0.00135516 0.039785 0.0701835 0.081674
internal_weight=6891.24 399.344 6491.9 5349.49 49.2424 21.5879 350.101 198.893 1573.41 371.21 1202.2 360.927 182.515 175.243 150.82 137.351 151.208 117.782 29.531 88.2512 72.7938 62.2414 75.0227 1142.4 678.843 46.6697 1191.43 21.8856 14.7421 24.423
internal_count=24734 1407 23327 19202 169 76 1238 698 5630 1320 4310 1285 639 613 529 483 540 412 104 308 255 218 271 4125 2451 165 4272 77 51 84
is_linear=0
shrinkage=0.05


Tree=5
num_leaves=31
num_cat=0
split_feature=10 28 24 15 12 24 19 2 37 15 10 25 2 36 5 15 37 9 37 2 37 37 12 7 21 23 12 17 12 13
split_gain=87.9734 53.6763 42.7056 37.225 52.9527 37.0783 50.2452 36.7553 39.5481 35.2068 32.104 29.8277 29.7361 29.1526 28.6736 58.0833 26.3798 41.4018 24.5542 38.8379 66.0881 28.8979 25.0654 24.9025 28.8431 24.4705 24.1917 23.4211 22.2996 35.6906
threshold=1.0840562000000002 26.159693194746747 1.0754095106640447 1.1964858789385209 1.2037418500000003 1.1783942149919346 2.0728473856209084 0.0010322047722218189 -0.001520613302720297 1.0830762398013907 1.0710661000000001 1.064152827767709 0.00036208664614984285 -0.0032326524987030809 1.0551921473504382 1.0434012205058896 -0.00081158450724583265 1.0438135983139378 -0.0068162304354024697 0.0022024793184511845 0.0040349718854684755 0.0081457484365573558 1.0808487500000001 0.98932822884035143 0.0021753318446489094 -0.00013008770508457531 1.08247665 0.0046440075871675432 1.0909524500000003 1.100802263572356
decision_type=2 2 2 2 2 2 2 2 2 2 2 2 2 2 2 2 2 2 2 2 2 2 2 2 2 2 2 2 2 2
left_child=1 2 10 5 -5 28 -7 8 -6 27 11 14 -10 -14 15 -1 -17 -18 -3 20 -20 -21 23 24 -22 -15 -24 -4 -2 -30
right_child=3 18 9 4 7 6 -8 -9 12 -11 -12 -13 13 25 -16 16 17 -19 19 21 22 -23 26 -25 -26 -27 -28 -29 29 -31
leaf_value=0.0021309685434878381 -0.011278580011061169 -0.018060471696778154 0.046310903946202929 0.039810225569690799 0.036790304604939088 -0.038430899135450683 -0.0074027722412383264 -0.047328792151348199 0.054951062854211807 0.0056232840404585888 -0.019696594216543101 0.042056635070264366 0.071915339576788764 -0.038190346657452745 -0.0074566519297102497 0.059518506209332959 0.078288654749796571 -0.0010449111379500782 0.0060200565378595626 0.0073346732342514671 0.061132849775998969 0.070112104106328357 0.076286778510877035 -0.025132969511809902 -0.032355450510821386 -0.0021395359353293853 -0.030441584816508101 -0.046448436522368575 0.008298924731896043 -0.0045134105875799775
leaf_weight=279.58321243524551 781.21647426486015 142.90885508060455 197.9629282951355 109.26070484519005 77.316908210515976 187.23375931382179 430.39492756128311 36.635576993227005 19.782009780406952 90.103480458259583 84.725000530481339 77.910213798284531 10.677252054214476 66.345089197158813 182.22900334000587 82.451373666524887 22.3096943795681 62.564189314842224 1807.3335278332233 36.226867765188217 18.862680554389954 37.10998922586441 13.440956056118013 308.16070291399956 14.664089202880858 162.02560958266258 8.7761449217796308 7.0473302900791159 683.10145354270935 2660.580649971962
leaf_count=794 2226 408 559 307 219 538 1227 105 56 255 241 221 30 189 517 233 63 177 5120 103 54 105 38 880 42 461 25 20 1945 7576
internal_value=6.23193e-05 0.00622827 0.0154391 -0.00403807 0.00919998 -0.00538362 -0.0168089 0.000228267 0.00541136 0.0316732 0.00938832 0.0128735 -0.00396206 -0.00883732 0.00925961 0.0160757 0.039376 0.0198085 0.00203507 0.00331453 0.00210577 0.0391014 -0.0173345 -0.0206807 0.0202425 -0.0126128 0.0341272 0.0431223 -0.00367289 -0.0018959
internal_weight=8698.94 3474.37 1086.89 5224.57 482.043 4742.53 617.629 372.782 336.147 295.114 791.773 707.048 258.83 239.048 629.137 446.908 167.325 84.8739 2387.48 2244.57 2171.24 73.3369 363.905 341.687 33.5268 228.371 22.2171 205.01 4124.9 3343.68
internal_count=24734 9855 3080 14879 1367 13512 1765 1060 955 834 2246 2005 736 680 1784 1267 473 240 6775 6367 6159 208 1039 976 96 650 63 579 11747 9521
is_linear=0
shrinkage=0.05


Tree=6
num_leaves=31
num_cat=0
split_feature=3 5 4 10 10 28 37 18 4 6 37 17 12 15 18 14 24 12 18 27 4 14 15 5 40 18 28 13 14 14
split_gain=77.8308 56.9558 41.5555 43.737 38.6577 38.5658 30.6524 32.6115 30.9043 39.3204 30.6598 26.5946 29.3174 25.8039 30.4263 25.4631 25.0148 44.4425 43.8902 24.1463 24.0087 23.7401 36.0878 25.0593 23.6681 31.4659 24.2927 29.9746 25.1707 22.3973
threshold=0.0029703571428571778 1.0883035666088927 1.1076150000000002 1.1059891000000002 1.2206126000000002 24.222829029606565 -0.0053841410885264165 0.005966838107917539 1.0783590000000001 1.0865105000000004 0.0040349718854684755 -0.0009693514747209363 1.1076257500000002 1.0841621093404992 -0.0044391306891276563 1.2185308750000001 1.0754095106640447 1.0717391500000002 0.0031395432289733631 0.79727715472983307 0.99955000000000005 1.0808482500000003 1.0889975354377883 1.0640636737488907 0.0011677517472835925 -0.0061991472999722843 18.199681238579277 1.0912724091022492 1.0983810000000001 1.1128948500000002
decision_type=2 2 2 2 2 2 2 2 2 2 2 2 2 2 2 2 2 2 2 2 2 2 2 2 2 2 2 2 2 2
left_child=1 5 3 11 15 13 21 10 -9 -10 -8 12 -3 16 -15 -4 17 18 -1 -19 -12 23 -23 -7 25 -13 27 -27 -28 -5
right_child=-2 2 4 29 -6 6 7 8 9 -11 20 24 -14 14 -16 -17 -18 19 -20 -21 -22 22 -24 -25 -26 26 28 -29 -30 -31
leaf_value=-0.023363547852432567 -0.030785412888973265 -0.0045271751373157391 0.0015996056184167551 0.069499263591716598 0.056634164280477156 0.01288907826822004 -0.0071092540851656911 0.016976376884631939 -0.026809327844696768 0.044229031166305617 -0.042186419083282016 0.065668455406088275 0.067642897675384783 -0.015943087327663051 0.029804929880356386 -0.039702130034055566 -0.030039018371008759 0.053348710289241541 0.0068097968775432524 -0.030765717093695029 0.018965690065993333 0.055980145090658934 -0.04429808117307165 -0.044691084936408387 -0.027811392065722897 0.028568799618919019 0.013404296110583205 -0.034910379653650833 0.040263543517603945 0.019007901866792454
leaf_weight=405.93448930978775 200.36982750892639 341.72202044725418 3422.7854791283607 47.713086664676666 31.679948300123215 168.56851914525032 1891.7128967940807 348.88371288776398 96.019743293523788 24.436661630868912 17.612399697303772 31.495869249105453 14.676184892654417 71.861401170492172 73.537665873765945 37.72910612821579 221.6737422645092 38.800240010023117 171.41212138533592 10.93693298101425 180.97819074988365 58.641259580850601 10.59258112311363 21.281259387731552 31.021866768598557 29.534597754478455 521.01702231168747 50.213229149580002 104.76586827635765 40.697612851858139
leaf_count=1163 581 968 9684 133 87 475 5400 983 275 69 50 88 41 204 208 110 637 110 485 31 508 164 30 60 88 83 1468 142 295 114
internal_value=1.67148e-05 0.000741282 0.00442186 0.0123953 0.00165264 -0.00380051 -0.000814128 -0.00247297 0.00943743 -0.012398 -0.00514724 0.00973292 -0.00155527 -0.0122678 0.00719463 0.0011493 -0.0156019 -0.0104983 -0.0144052 0.0348524 0.0135423 0.0155746 0.0406379 0.00643462 0.014971 0.0167717 0.0145889 -0.0114009 0.017901 0.0462569
internal_weight=8718.31 8517.94 4705.05 1212.86 3492.19 3812.88 2818.73 2559.64 469.34 120.456 2090.3 1124.45 356.398 994.157 145.399 3460.51 848.758 627.084 577.347 49.7372 198.591 259.084 69.2338 189.85 768.048 737.027 705.531 79.7478 625.783 88.4107
internal_count=24734 24153 13301 3420 9881 10852 8014 7285 1327 344 5958 3173 1009 2838 412 9794 2426 1789 1648 141 558 729 194 535 2164 2076 1988 225 1763 247
is_linear=0
shrinkage=0.05


Tree=7
num_leaves=31
num_cat=0
split_feature=2 26 37 2 24 21 35 40 29 23 14 36 36 39 36 14 2 35 28 23 14 26 24 40 6 36 36 18 5 24
split_gain=98.3951 27.9141 26.1846 30.193 24.1517 28.5067 63.1441 30.3579 21.2861 20.8524 20.8664 23.0282 23.7918 19.9756 19.1087 27.5446 18.9073 17.1595 17.4153 16.4082 15.53 21.9409 15.6988 15.3701 28.3475 18.3603 19.0775 15.2773 15.2639 20.3695
threshold=0.001825379105930543 0.0027880827954565846 -0.0028103699914610587 0.0026400084887843603 1.1333243982946593 0.0021753318446489094 0.0026220178458413184 0.0011474579632389022 7.564804168968112 2.3626854762822721e-06 1.1921977000000001 0.0011272348973704329 0.0001055117185795318 1.0000000180025095e-35 -0.00085056203207300996 1.2185308750000001 0.00079756327281092158 -0.00040947050908157751 15.012704624039797 0.00032505111296549284 1.1311636500000002 0.0065954948168821552 1.1893162227109089 0.0010654445678137416 1.1293965000000004 0.005692849403513279 0.0052083619469910367 -0.0023839474919163379 1.0283397863769668 1.0090546332066044
decision_type=2 2 2 2 2 2 2 2 2 2 2 2 2 2 2 2 2 2 2 2 2 2 2 2 2 2 2 2 2 2
left_child=1 -1 3 8 28 7 -7 9 -2 10 11 12 20 -9 -11 -16 27 18 -14 -10 21 -6 -22 -4 25 26 -25 -12 29 -3
right_child=2 4 23 -5 5 6 -8 13 19 14 16 -13 17 -15 15 -17 -18 -19 -20 -21 22 -23 -24 24 -26 -27 -28 -29 -30 -31
leaf_value=-0.0085763961671880742 -0.03444170950423938 -0.0018435657244280619 -0.039505378928016768 0.096972606806728867 0.055888358432564338 0.098264343338881385 -0.031596063003052469 0.015691271532394416 0.05593578479368129 -0.014770668482268582 -0.020480682915347312 -0.0042964643090228861 0.097783121414545468 0.0808980442943322 0.00069630241313536 0.098449821899282003 -0.032658855938342217 0.054551645395989015 0.0042576253075351711 -0.010358016204791404 0.0058342564274414819 -0.025442233706608981 0.05010614582535914 0.020954994239070632 0.11439413357060897 -0.0096195616473662409 0.096791735441920906 0.017093739755981854 -0.0011847427874454859 -0.025026959538171058
leaf_weight=1135.3012648820877 10.268429130315779 223.24743872880936 11.258890748023985 24.033087730407715 37.941052466630936 23.695585519075394 15.473912209272383 28.109374821186066 49.310036480426788 244.39379969239235 42.591792285442352 173.73731517791748 5.6245947182178488 20.174629539251328 559.4229621887207 7.3003263771533957 52.859782099723816 62.584090441465378 43.264025747776031 11.51301798224449 379.51624032855034 10.611894488334654 21.139374375343323 162.47353494167328 7.7393679022788993 49.979606449604034 8.7388586699962598 74.145291686058044 3228.1357808709145 164.60778388381004
leaf_count=4125 37 804 41 79 136 82 55 99 169 878 155 622 20 69 1999 25 192 222 155 40 1355 38 75 569 25 177 29 266 11603 593
internal_value=-9.59345e-05 -0.00144754 0.0263218 0.0485241 4.61005e-05 0.00477398 0.046963 0.00383687 0.0321456 0.00273614 0.00795833 0.0116088 0.0165373 0.0429368 -0.00308416 0.00195553 -0.00784937 0.0372132 0.0150177 0.0433872 0.0114065 0.0381125 0.00817013 0.0175288 0.0203338 0.0170427 0.0248258 0.00338463 -0.00231077 -0.0116827
internal_weight=6889.19 6553.88 335.315 95.1246 5418.58 1802.59 39.1695 1763.42 71.0915 1715.13 904.015 734.419 560.681 48.284 811.117 566.723 169.597 111.473 48.8886 60.8231 449.209 48.5529 400.656 240.19 228.931 221.192 171.212 116.737 3615.99 387.855
internal_count=24734 23568 1166 325 19443 6443 137 6306 246 6138 3236 2623 2001 168 2902 2024 613 397 175 209 1604 174 1430 841 800 775 598 421 13000 1397
is_linear=0
shrinkage=0.05


Tree=8
num_leaves=31
num_cat=0
split_feature=10 18 28 18 2 14 18 13 25 24 8 19 14 18 5 8 37 37 24 24 18 14 5 14 30 35 37 37 36 19
split_gain=79.0546 49.5313 43.9563 43.4309 47.9513 42.8195 69.3909 44.5742 36.517 35.513 33.5525 48.215 35.6767 30.7558 29.8402 29.8117 28.9214 28.7701 28.4196 50.1079 43.1127 36.2555 33.9819 29.895 28.3932 27.7978 26.6247 26.4289 25.0859 25.082
threshold=1.0840562000000002 0.005680466260746809 26.159693194746747 -0.014289629921132805 0.0010829900048906183 1.1964014500000002 0.005680466260746809 1.2205386540640093 1.0719653007645069 1.1384066415502054 1.1751627500000001 1.8740051812014225 1.1764352750000002 -0.0065253114139647841 1.1722279206175781 1.1906785000000004 -0.001520613302720297 0.015032266319800093 1.0754095106640447 1.0729632184124647 -0.0012957706777181886 1.0702168000000001 1.0551921473504382 1.0436760250000001 33.007996485993679 -0.0037311786945926624 0.0048671525369429211 -0.0068162304354024697 0.0023567663732004811 5.1933714526698331
decision_type=2 2 2 2 2 2 2 2 2 2 2 2 2 2 2 2 2 2 2 2 2 2 2 2 2 2 2 2 2 2
left_child=1 2 18 15 5 10 7 16 17 -6 12 24 25 -13 -14 -2 -7 -3 19 21 -20 22 23 -1 -12 -5 -15 -4 -18 -10
right_child=3 8 27 4 9 6 -8 -9 29 -11 11 13 14 26 -16 -17 28 -19 20 -21 -22 -23 -24 -25 -26 -27 -28 -29 -30 -31
leaf_value=0.0078170474922124693 0.042542276646677694 -0.014595340827395845 -0.016745932101885175 0.05065415036229285 -0.0086994150526687707 0.051787227714243489 -0.043723462657167214 -0.039513071015732121 0.061171207438277579 -0.031891618043808169 -0.044393880405975736 -0.046318480537820207 0.071253974913557477 -0.0045295573470381526 0.0073786360866863578 -0.052281434315372514 0.0088281455959461751 0.067612633189471902 0.010915226934864498 -0.025343430518728866 0.052582896694751483 0.053134137411108256 -0.006022938708826267 0.03724338674715038 0.032509628194827112 -0.0032129072533091047 0.069100243563196273 0.0061765858068784851 0.045046006994228623 0.0060854800001882738
leaf_weight=180.34847295284271 74.138987898826599 501.55340042710304 135.37561213970184 24.130099952220917 529.84158062934875 77.69811537861824 48.307864338159561 29.10007455945015 24.036862879991531 239.74953660368919 148.31326544284821 43.847882628440857 29.331718057394028 409.71066725254059 48.545320719480515 9.3321804702281934 207.66307100653648 10.873457580804823 120.65947797894478 77.194647580385208 127.86690956354141 63.697824537754059 159.07206496596336 165.53078776597977 13.059037268161772 3207.7380986213684 12.6569986641407 1767.8120885193348 62.110500782728195 147.28778225183487
leaf_count=509 208 1438 389 69 1515 217 140 85 67 692 431 127 82 1169 138 27 585 30 340 220 356 179 450 463 38 9146 36 4998 174 416
internal_value=5.92398e-05 0.00589405 0.00884253 -0.00383562 -0.00441754 -0.00238747 0.0126927 0.0199299 -0.00616961 -0.0159244 -0.00401477 -0.0146144 -0.00200489 -0.0064609 0.0314367 0.0319409 0.0249082 -0.0128509 0.0179852 0.0124562 0.0323533 0.0175876 0.0131035 0.0218999 -0.0381705 -0.00281072 -0.00232311 0.00454608 0.0171667 0.013814
internal_weight=8696.58 3481.31 2797.56 5215.28 5131.8 4362.21 424.88 376.572 683.752 769.591 3937.33 627.588 3309.75 466.216 77.877 83.4712 347.472 512.427 894.37 645.844 248.526 568.649 504.951 345.879 161.372 3231.87 422.368 1903.19 269.774 171.325
internal_count=24734 9855 7904 14879 14644 12437 1201 1061 1951 2207 11236 1801 9435 1332 220 235 976 1468 2517 1821 696 1601 1422 972 469 9215 1205 5387 759 483
is_linear=0
shrinkage=0.05


Tree=9
num_leaves=31
num_cat=0
split_feature=3 5 4 10 28 10 37 18 37 4 7 2 17 12 15 2 24 12 18 22 4 40 18 28 27 2 7 24 37 12
split_gain=71.6275 51.4846 38.3299 40.4474 35.0044 34.7716 27.9659 29.3956 28.7629 27.9501 43.2012 34.8492 24.6965 27.1647 23.7651 29.7862 22.9801 40.4042 39.925 26.7515 22.4478 22.0864 28.7664 22.6375 21.8842 21.5638 37.8985 25.561 22.9629 21.6479
threshold=0.0029703571428571778 1.0883035666088927 1.1076150000000002 1.1059891000000002 24.222829029606565 1.2206126000000002 -0.0053841410885264165 0.005966838107917539 0.0040349718854684755 1.0783590000000001 1.0865321629840383 0.0017586404256634211 -0.0009693514747209363 1.1076257500000002 1.0841621093404992 0.00053837827057704477 1.0754095106640447 1.0717391500000002 0.0031395432289733631 0.00072933653538040301 0.99955000000000005 0.0011677517472835925 -0.0061991472999722843 18.199681238579277 0.79727715472983307 0.00054117947644717992 1.095296744840691 1.103585330566947 0.0078374671567302285 1.0844692000000002
decision_type=2 2 2 2 2 2 2 2 2 2 2 2 2 2 2 2 2 2 2 2 2 2 2 2 2 2 2 2 2 2
left_child=1 4 3 12 14 -4 -6 8 -8 11 -11 -9 13 -3 16 -16 17 18 -1 -20 -10 22 -14 -24 -19 26 -25 28 29 -27
right_child=-2 2 5 -5 6 -7 7 9 20 10 -12 -13 21 -15 15 -17 -18 24 19 -21 -22 -23 23 25 -26 27 -28 -29 -30 -31
leaf_value=-0.022433711211683117 -0.029730214400135298 -0.0044839667711574884 0.0010587054629664868 0.044249183205899295 0.014840521242388044 0.053375631741486768 -0.0068204967243413878 0.022722832091287032 -0.041095905292209661 -0.025934346719257345 0.052379745727350407 -0.021124441913042722 0.062460689089009161 0.064556094554364327 0.037771467731532067 -0.0096466588227938424 -0.028879261720635641 0.050251535535145081 0.024402598854193963 -0.015200576446306388 0.018362342504704334 -0.027154750421571994 -0.011180829437271946 0.015608050956494039 -0.029946855851850307 0.053742997028018574 -0.043639241979388718 0.047409353328823713 -0.027100595831078256 0.015869281370219084
leaf_weight=402.12607941031456 197.79298344254494 341.6081954240799 3461.9512859582901 89.227777868509293 260.1297090947628 32.05402672290802 1887.1646422743797 297.36987626552582 17.394474804401398 98.43436798453331 21.446672588586807 53.462629497051239 31.930077403783798 14.867717891931532 50.933265060186386 94.684293478727341 218.78903356194496 39.409146636724472 93.572088778018951 78.341426610946655 181.61288666725159 30.830556988716125 79.57739794254303 99.586244761943817 10.84769770503044 42.445711493492126 37.026991635560989 82.421729773283005 27.65956923365593 339.56029960513115
leaf_count=1163 581 968 9794 247 729 87 5400 830 50 284 60 153 88 41 143 269 637 110 264 221 508 88 225 279 31 119 104 230 78 953
internal_value=1.5126e-05 0.000705955 0.00420019 0.0118431 -0.00361924 0.00153866 -0.000778372 -0.00236739 -0.00491398 0.00891892 -0.011924 0.016041 0.00927855 -0.00160448 -0.0117135 0.00693898 -0.0149351 -0.0100483 -0.013812 0.00635533 0.0131653 0.0143101 0.0160372 0.0139444 0.0329411 0.0171246 -0.000450049 0.0220036 0.0168922 0.0200775
internal_weight=8714.26 8516.47 4710.75 1216.74 3805.72 3494.01 2817.02 2556.89 2086.17 470.714 119.881 350.833 1127.51 356.476 988.703 145.618 843.085 624.296 574.04 171.914 199.007 771.039 740.208 708.278 50.2568 628.701 136.613 492.087 409.666 382.006
internal_count=24734 24153 13301 3420 10852 9881 8014 7285 5958 1327 344 983 3173 1009 2838 412 2426 1789 1648 485 558 2164 2076 1988 141 1763 383 1380 1150 1072
is_linear=0
shrinkage=0.05


Tree=10
num_leaves=31
num_cat=0
split_feature=3 9 31 2 4 37 25 14 7 22 2 20 21 16 26 5 2 4 12 25 35 19 2 21 26 35 19 30 26 29
split_gain=105.41 37.3941 25.9922 17.7638 17.5791 17.1313 16.394 35.0575 15.2087 14.9872 13.987 12.9364 15.1498 15.006 12.1623 16.975 13.8691 12.811 11.6637 15.6089 22.0085 11.4839 11.4508 19.7565 11.2399 10.6825 15.4093 10.589 10.5557 20.0969
threshold=0.0024924999999999934 1.1242445317976439 16.500000000000004 0.001825379105930543 1.1381330000000003 0.010440785525194842 0.96650492374144525 0.99680922500000013 1.1026081994329588 0.0021249767733252322 0.0011460279905141078 60.30579307492382 0.002410307272418422 0.0060166343495245975 0.002624766705456574 1.0814161041713746 0.00077336905180463089 1.0826330000000002 1.0946770000000001 1.0485283946329365 -0.0028270023659235362 2.9102213827255681 0.0022024793184511845 0.00012969300449183765 0.0027150909949266561 -0.00046437882878735953 6.8326940697198753 7.2239212551894223 0.0074288704203152251 32.530291184574075
decision_type=2 2 2 2 2 2 2 2 2 2 2 2 2 2 2 2 2 2 2 2 2 2 2 2 2 2 2 2 2 2
left_child=2 3 24 10 -3 -6 -5 -8 11 14 -2 18 -13 -14 25 16 -16 21 19 20 -9 -17 23 -22 -1 26 -4 -12 29 -18
right_child=1 4 9 6 5 -7 7 8 -10 -11 27 12 13 -15 15 17 28 -19 -20 -21 22 -23 -24 -25 -26 -27 -28 -29 -30 -31
leaf_value=-0.0088030961423991496 0.064375202497053322 0.089927294003282296 -0.002414675919089831 0.075086857737060614 0.0060342153432568785 0.10267010475572165 -0.031657359520197756 -0.030173221618056707 -0.0080941048238746798 0.041138447465210004 -0.043770217269419071 -0.012511368403174464 0.078465472347385268 -0.011040655003628538 -0.015100214353369792 -0.0055227021303965139 0.0059273058233790983 0.0071496216412737278 -0.019711821085889775 0.079948144713885116 -0.0044164649616641799 0.068625966717064862 0.078880162464976866 0.077446861677875539 -0.002450587076925219 -0.016467726473994103 0.075125426064930972 0.0058787024413499952 -0.0072501278740807334 0.072575645496227956
leaf_weight=850.83383125066757 9.525291979312895 29.020105987787247 32.565461099147797 17.146732211112976 17.239322096109394 6.2485015392303458 24.585317581892014 10.089531719684599 20.345937103033066 26.03177347779274 11.703690111637114 23.018187582492828 13.169268041849138 7.266606777906417 163.10577565431595 7.7668079137802151 201.34501060843468 1029.2136088609695 5.9860291481018058 33.062558859586716 17.123868584632877 15.93596491217613 21.083137899637222 12.9389151930809 3834.4053561985493 133.33995139598846 7.9766245484352103 130.32971814274788 162.2618480026722 11.983941674232481
leaf_count=3107 32 92 119 55 58 19 90 35 71 90 43 80 43 25 586 28 723 3666 21 107 59 57 69 43 13808 488 29 465 583 43
internal_value=-8.9367e-05 0.0245005 -0.00164554 0.0187116 0.0639001 0.0317424 0.0282776 0.0240234 0.0323663 0.00347678 0.00572114 0.0380934 0.0153062 0.0466388 0.00292147 0.00429315 -0.00292591 0.00798659 0.0479673 0.0522636 0.0373159 0.0443293 0.0506295 0.0308172 -0.0036042 -0.00963408 0.0128413 0.00178758 0.00236096 0.00967133
internal_weight=6886.65 409.883 6476.77 357.375 52.5079 23.4878 205.816 188.669 164.084 1791.53 151.559 143.738 43.4541 20.4359 1765.49 1591.61 538.697 1052.92 100.284 94.298 61.2355 23.7028 51.1459 30.0628 4685.24 173.882 40.5421 142.033 375.591 213.329
internal_count=24734 1407 23327 1238 169 77 698 643 553 6412 540 482 148 68 6322 5686 1935 3751 334 313 206 85 171 102 16915 636 148 508 1349 766
is_linear=0
shrinkage=0.05


Tree=11
num_leaves=31
num_cat=0
split_feature=10 18 18 2 28 12 12 24 25 35 8 12 18 10 37 16 24 35 37 24 24 18 37 37 37 8 19 36 4 18
split_gain=70.7888 44.6089 40.0276 44.5655 39.2493 38.4894 52.2837 38.2245 32.8125 32.1356 27.8186 27.7918 65.9743 37.9743 34.1087 26.8732 27.6272 26.6609 26.4209 25.7532 45.2031 38.7353 27.4997 23.7699 23.7468 23.8355 63.2975 38.1664 27.8694 49.2416
threshold=1.0840562000000002 0.005680466260746809 -0.014289629921132805 0.0010829900048906183 26.159693194746747 1.1009550500000003 1.0917102000000003 1.0911110676049944 1.0719653007645069 -0.00065422317245722439 1.1906785000000004 1.1934260000000003 0.0055969012314361919 1.2206126000000002 -0.001520613302720297 -0.00042625926420347676 1.2065869489877101 -0.0037311786945926624 0.015032266319800093 1.0754095106640447 1.0729632184124647 -0.0012957706777181886 0.00057635855367566002 -0.0068162304354024697 0.0058852617294193341 1.1751627500000001 1.8740051812014225 0.0025988069075230662 1.1467340000000001 -0.0089756589492833144
decision_type=2 2 2 2 2 2 2 2 2 2 2 2 2 2 2 2 2 2 2 2 2 2 2 2 2 2 2 2 2 2
left_child=1 4 10 11 19 6 7 9 18 -5 -2 17 13 14 -13 16 -16 -4 -3 20 22 -21 -1 -6 25 28 -27 -28 -19 -30
right_child=2 8 3 5 23 -7 -8 -9 -10 -11 -12 12 -14 -15 15 -17 -18 24 -20 21 -22 -23 -24 -25 -26 26 27 -29 29 -31
leaf_value=0.024303155077963448 0.040682412042595505 -0.013968167917237154 0.048540340677305782 0.059062401565108891 -0.01598030522835658 -0.025014725002690016 0.018472367292562585 -0.036833259187273669 0.012970670483607694 -0.021472439731015813 -0.051419766701755076 0.051001744858841562 -0.035879629385714172 -0.038887792550171094 0.039216597589137231 0.024855790661909665 -0.028874642492032167 -0.0061761184689075382 0.064368421338649381 0.010252583252182423 -0.024398937971507863 0.049581548638322613 0.0010680290774888839 0.0058316817088178291 0.024881918422491378 -0.040711197597655104 -0.009176142058773859 0.036168895114849019 0.061159255625800435 0.0016738498378747403
leaf_weight=380.73983582854271 74.826053589582443 498.68327832221985 24.408587247133255 22.750465929508209 134.37724417448044 438.20663997530937 156.88205128908157 120.12823113799095 172.14778628945351 27.191544413566589 9.2073441147804242 82.246306955814362 66.239025175571442 26.701293885707855 20.275299400091171 170.86224028468132 56.1568483710289 2054.9074185490608 11.001055777072905 121.15616169571877 76.470808655023575 129.55253154039383 191.34053725004196 1771.8212964832783 70.477518945932388 157.91510266065598 410.70192739367485 52.315755367279053 35.89807265996933 1126.8130583167076
leaf_count=1064 208 1438 69 65 389 1270 447 347 483 78 27 228 193 80 57 479 159 5870 30 340 220 356 537 4998 201 464 1176 147 101 3213
internal_value=5.5638e-05 0.0055682 -0.00363763 -0.0041993 0.00835607 -0.0153282 -0.00234561 -0.0215492 -0.00590277 0.0152142 0.030591 -0.0022444 0.00994188 0.0184619 0.0231086 0.0138318 -0.010812 -0.0035533 -0.0122773 0.0169665 0.0117057 0.0305756 0.0165318 0.00429405 -0.00387858 -0.00440664 -0.0133756 -0.00405267 -0.00267581 0.00351043
internal_weight=8692.4 3487.29 5205.11 5121.08 2805.46 765.159 326.952 170.07 681.832 49.942 84.0334 4355.92 422.481 356.242 329.541 247.294 76.4321 3933.44 509.684 899.26 648.551 250.709 572.08 1906.2 3909.03 3838.55 620.933 463.018 3217.62 1162.71
internal_count=24734 9855 14879 14644 7904 2207 937 490 1951 143 235 12437 1196 1003 923 695 216 11241 1468 2517 1821 696 1601 5387 11172 10971 1787 1323 9184 3314
is_linear=0
shrinkage=0.05


Tree=12
num_leaves=31
num_cat=0
split_feature=40 15 18 37 5 9 24 5 2 36 29 14 10 14 2 19 35 18 2 40 36 36 18 10 4 5 10 18 21 18
split_gain=65.2547 44.2313 45.4771 42.7935 44.2332 48.0225 40.2769 36.8931 35.1782 30.8756 32.3913 30.8453 28.5764 25.8379 25.6033 26.8367 23.9912 23.5854 29.4998 22.0796 27.0358 21.943 21.7982 52.7375 30.7595 23.2318 55.641 38.2354 24.4236 33.7845
threshold=0.0015333382475740342 1.0828491558434929 0.0060578749500027626 0.0048671525369429211 1.0761002612984734 1.0711712206990538 1.0643237199653122 1.0865116200925946 0.0016546912657621987 0.00052982180216459851 21.457374479464942 1.0829833000000002 1.2206126000000002 1.2185308750000001 0.00088772770069326485 1.0186220777212829 -0.0018432093645762147 -0.014891914113184744 0.0017015802648542846 0.00057043422425387077 0.0022467465764122734 0.0013066035009468015 -0.0091524193590176699 1.1966603000000002 1.1565580000000002 1.1071985238231379 1.1059891000000002 0.010904906346894007 -0.00051374563483108638 -0.0067744959338233981
decision_type=2 2 2 2 2 2 2 2 2 2 2 2 2 2 2 2 2 2 2 2 2 2 2 2 2 2 2 2 2 2
left_child=1 2 3 4 5 9 8 -8 -4 10 16 14 13 22 15 -7 -1 -18 -19 20 -6 -9 23 24 -3 26 27 28 -24 -30
right_child=-2 12 6 -5 19 11 7 21 -10 -11 -12 -13 -14 -15 -16 -17 17 18 -20 -21 -22 -23 25 -25 -26 -27 -28 -29 29 -31
leaf_value=-0.019993122416377976 -0.02594125259969482 -0.0064712072826331223 0.029874188470187132 0.021911105550401211 -0.022114977576631768 0.050193833257379729 -0.012327023040890225 0.055683667422235308 -0.013769339645733564 -0.01789132984697767 -0.019109555602209685 -0.043633864868667278 0.050349886916256074 -0.038423974861548055 0.044323824227119446 0.00076339544890435948 0.032226201791792149 0.004262093180789921 -0.042282159671941454 -0.037663520243056248 0.027755026397978839 0.0047071531701356681 -0.0027785851751248049 0.065860096318040157 -0.046240130133039577 0.0018306338050196472 0.053722762677599546 0.072235981043618475 0.046340248357931484 0.0083415242930114774
leaf_weight=115.29222440719604 235.62802565097809 251.14693826436996 237.38467103242874 120.41673901677132 141.13753628730774 32.739929378032684 279.54680672287941 34.740907698869705 57.320358216762543 618.91906955838203 262.41694861650467 22.26066055893898 32.333368718624115 37.020301401615143 67.301679223775864 170.22625869512558 69.693204402923584 583.80516591668129 36.15098175406456 174.24070835113525 33.657938748598099 53.80511674284935 507.73137024044991 22.041728794574738 60.29493060708046 3238.3061692714691 66.90265765786171 22.302706122398376 61.904967039823532 1061.9841466844082
leaf_count=330 694 713 657 337 411 93 799 97 164 1785 756 64 87 110 191 484 199 1673 105 506 97 151 1440 61 175 9148 183 62 173 2989
internal_value=1.28677e-05 0.000734631 -0.00400805 -0.00715343 -0.00865691 -0.00576223 0.00761047 -0.00341819 0.0213855 -0.00900645 -0.00385445 0.0129391 0.00348637 0.00320206 0.0175987 0.00873689 0.00111882 0.00464821 0.001548 -0.0250679 -0.0125122 0.0247077 0.00349322 -0.00888079 -0.0141704 0.00432533 0.00901993 0.00721167 0.00632284 0.0104345
internal_weight=8708.65 8473.03 3111.06 2448.26 2327.84 1978.81 662.798 368.093 294.705 1686.28 1067.36 292.529 5361.97 5329.64 270.268 202.966 804.942 689.649 619.956 349.036 174.795 88.546 5292.62 333.484 311.442 4959.13 1720.83 1653.92 1631.62 1123.89
internal_count=24734 24040 8899 7031 6694 5680 1868 1047 821 4848 3063 832 15141 15054 768 577 2307 1977 1778 1014 508 248 14944 949 888 13995 4847 4664 4602 3162
is_linear=0
shrinkage=0.05


Tree=13
num_leaves=31
num_cat=0
split_feature=3 9 31 17 12 5 25 23 2 2 37 12 12 10 25 22 14 2 14 28 14 5 27 4 30 18 10 26 14 23
split_gain=95.0049 32.6908 24.3075 16.8313 16.1389 21.1855 26.0562 24.2259 15.6976 25.6741 14.9071 12.8985 22.752 11.9535 16.6309 14.7516 11.6651 10.5998 15.6754 13.7149 12.8363 20.791 15.3712 11.9199 19.6187 14.7094 12.7709 10.5287 10.5123 12.4752
threshold=0.0024924999999999934 1.1242445317976439 16.500000000000004 0.010688773191458891 1.0953535000000001 1.030066504765532 0.96650492374144525 0.00053035625543610776 0.001674560610249229 0.0013081095415653215 0.0040349718854684755 1.0206265500000005 0.99759825000000013 1.1609124000000002 1.2102563449342092 0.0018851767194734837 1.2145686000000004 0.00077667043813431879 1.0725991500000001 39.051556773199984 1.1311636500000002 1.1284319437138322 0.69853447937136226 1.0931820000000003 41.169312263998464 0.011243549766308593 1.0934669000000004 0.0027150909949266561 1.2035186500000001 -0.00024762478327091769
decision_type=2 2 2 2 2 2 2 2 2 2 2 2 2 2 2 2 2 2 2 2 2 2 2 2 2 2 2 2 2 2
left_child=2 4 27 13 5 6 -2 -7 9 -3 11 12 -8 17 15 16 28 18 -4 -19 21 23 -23 24 26 -25 -20 -1 29 -15
right_child=1 8 3 -5 -6 7 10 -9 -10 -11 -12 -13 -14 14 -16 -17 -18 19 20 -21 -22 22 -24 25 -26 -27 -28 -29 -30 -31
leaf_value=-0.0085148187090227211 0.057708759215766105 0.066856315098100125 -0.022022868540563699 0.064058490791220765 -0.0073135329075990282 0.04373387979469151 -0.011551642924727004 -0.005190222305744281 0.082403132236437138 -0.044156690675766823 -0.027700859837412529 -0.043953112566176976 0.044108216384933452 0.029642175064326884 -0.020072618371888035 0.08664754484484731 0.084836820148128336 0.0095008340069109853 0.0024164355331019963 -0.0047148799635811055 -0.016084202788844287 0.091512991260846138 0.00045693115474314646 -0.018562066298838539 0.086067338330998111 0.042522177295532752 0.066192767582868503 -0.0023522939427153104 -0.012549585545202769 0.0082136057005252772
leaf_weight=846.33487266302109 22.264025211334229 14.831763446331026 104.64675885438919 11.355631798505781 54.801497012376785 132.64816787838936 35.008871972560883 31.267562121152878 31.229467689990997 8.0268527865409833 36.768654838204384 9.6098592579364759 38.607612729072571 90.406021893024445 41.987523823976517 6.6790740787982932 5.3867061734199515 483.66000834107399 221.36872354149818 261.34585374593735 104.62748295068741 11.378015369176866 7.8204075694084159 100.09126460552216 7.6509764194488517 10.931831836700438 8.1381072103977186 3828.1778810918331 43.187235921621323 273.08634892106056
leaf_count=3107 71 47 380 38 193 443 125 109 93 29 134 35 128 314 154 21 19 1728 800 936 375 40 28 363 27 39 29 13808 159 962
internal_value=-8.13117e-05 0.0231076 -0.00156933 0.00337871 0.0176759 0.0221487 0.0080306 0.0344014 0.0593581 0.0278739 -0.00118675 0.010527 0.0176388 0.00299212 0.0099272 0.0129353 0.0117405 0.000574541 -0.00451503 0.004514 -0.000633443 0.00376684 0.0544216 0.000973778 0.0073036 -0.0125474 0.00467789 -0.00346804 0.0107723 0.0135432
internal_weight=6883.33 415.064 6468.26 1793.75 360.976 306.175 142.259 163.916 54.0881 22.8586 119.995 83.2263 73.6165 1782.39 460.733 418.745 412.066 1321.66 576.654 745.006 472.007 367.379 19.1984 348.181 237.158 111.023 229.507 4674.51 406.68 363.492
internal_count=24734 1407 23327 6412 1238 1045 493 552 169 76 422 288 253 6374 1629 1475 1454 4745 2081 2664 1701 1326 68 1258 856 402 829 16915 1435 1276
is_linear=0
shrinkage=0.05


Tree=14
num_leaves=31
num_cat=0
split_feature=15 14 18 18 2 12 12 14 18 13 37 24 37 28 24 19 37 5 9 15 2 2 14 9 9 2 14 12 14 2
split_gain=64.1604 64.4903 49.6819 36.0667 39.5131 38.4475 45.6254 37.5726 61.7063 36.8394 34.4792 31.5361 30.6147 32.0335 29.41 43.5491 29.1085 29.1964 41.5639 62.0483 52.31 33.0397 32.1853 31.1026 34.9133 33.7107 31.7878 31.8904 44.6765 29.0235
threshold=1.0837055753942695 1.0832450250000003 0.0060578749500027626 -0.014289629921132805 0.0010829900048906183 1.1009550500000003 1.0917102000000003 1.1964014500000002 0.005680466260746809 1.2205386540640093 0.0040349718854684755 1.0907268084994424 0.00055838830663451644 51.269150853658267 1.1783942149919346 2.0728473856209084 -0.0053841410885264165 1.0551921473504382 1.0787471377689277 1.0802500566401021 0.00072340707171328323 0.0011675758045991312 1.0546563250000003 1.0711712206990538 1.0669002878640186 0.00076671545727021947 1.0621563500000002 1.0565621500000002 1.0579203000000004 0.002051610569795382
decision_type=2 2 2 2 2 2 2 2 2 2 2 2 2 2 2 2 2 2 2 2 2 2 2 2 2 2 2 2 2 2
left_child=1 2 10 -2 7 6 11 14 9 -9 16 -6 -3 -14 -5 -16 -1 22 21 -20 -21 23 -18 24 26 -25 27 -19 -29 -12
right_child=3 12 -4 4 5 -7 -8 8 -10 -11 29 -13 13 -15 15 -17 17 18 19 20 -22 -23 -24 25 -26 -27 -28 28 -30 -31
leaf_value=-0.0080437538167428806 0.028704665895126498 0.055402477310128123 -0.0077737166200710492 -0.0018825515981245385 0.012249687091460364 -0.024236057991915694 0.017779720018216122 0.023066036349921267 -0.042015750417346592 -0.036711769834188709 -0.01840288075243619 -0.034954259352770439 -0.0098938190711671398 0.084902162850256382 -0.035495554573688234 -0.0053616449246791237 0.013621260394641328 -0.0070659894815300597 0.057118838226528815 -0.018558473246926839 0.044475687772142371 -0.026382915657732549 0.040479838364145128 0.0023435222035444402 0.028718654873939327 -0.032144770743753874 -0.012059215349077605 -0.023010769829494449 0.058526030006458667 0.036989173225240896
leaf_weight=229.44331952929497 85.830854773521423 91.854205250740051 715.20137241482735 3380.1664166748524 51.879984170198441 434.38132682442665 157.55860984325409 350.7152684032917 47.095462411642075 27.817747682332993 195.59733200073242 111.27048155665398 45.537603586912155 11.080202728509901 168.23974442481995 417.25910469889641 795.20455354452133 68.905285596847534 89.953029245138168 91.519047409296036 51.397860318422318 98.459513008594513 129.7380947470665 248.50223410129547 193.0611198246479 99.113778203725815 183.30291295051575 22.39067879319191 67.28553780913353 26.900261878967285
leaf_count=661 239 258 2056 9650 148 1270 447 976 140 85 562 325 129 31 499 1196 2221 194 248 256 143 277 361 699 540 281 514 63 189 76
internal_value=5.15313e-05 0.00534001 0.00389223 -0.00344006 -0.00397617 -0.0145416 -0.00141099 -0.00215943 0.0119579 0.0186731 0.0071127 -0.0199439 0.0375771 0.00865792 -0.00367462 -0.0140205 0.00888069 0.0106963 0.00559692 0.0245867 0.00411079 0.00108921 0.0173886 0.00415404 0.0117205 -0.00748993 0.00212164 0.0185132 0.0381676 -0.0117059
internal_weight=8686.66 3454.45 3305.98 5232.22 5146.38 755.09 320.709 4391.29 425.628 378.533 2590.77 163.15 148.472 56.6178 3965.67 585.499 2368.28 2138.83 1213.89 232.87 142.917 981.021 924.943 882.562 534.946 347.616 341.884 158.582 89.6762 222.498
internal_count=24734 9759 9341 14975 14736 2190 920 12546 1201 1061 7285 473 418 160 11345 1695 6647 5986 3404 647 399 2757 2582 2480 1500 980 960 446 252 638
is_linear=0
shrinkage=0.05


Tree=15
num_leaves=31
num_cat=0
split_feature=2 4 10 35 22 14 10 25 25 29 26 2 25 19 9 15 7 14 15 5 25 36 28 13 19 25 5 10 10 15
split_gain=60.535 37.0851 34.5205 29.9552 27.9826 28.4687 54.8258 36.3511 27.6491 26.5347 22.8439 29.5099 50.9319 36.0768 28.056 22.226 29.8642 26.6808 41.9169 22.8005 23.0148 29.1019 23.0611 21.9219 27.3742 21.1723 51.8253 34.1842 26.6542 25.5161
threshold=0.001674560610249229 1.1647200000000002 1.2206126000000002 -0.00049786606435497916 0.0015871106823935183 1.0802461500000005 1.0737856000000001 1.0707246986021073 1.0842342478849425 19.507312034376046 0.0027880827954565846 0.0010900817322725086 1.1451627907933142 4.8274379982220141 1.0912215543213326 1.0434012205058896 0.99936775514306031 1.0231647500000001 1.0392303080103007 1.0703634821092578 1.0710652451258824 0.0044605541958658854 67.37303069143131 1.0706639843630097 2.1695052419098722 1.1451627907933142 1.132868370024245 1.1641877 1.1682465000000002 1.1156323815720477
decision_type=2 2 2 2 2 2 2 2 2 2 2 2 2 2 2 2 2 2 2 2 2 2 2 2 2 2 2 2 2 2
left_child=2 -2 3 15 5 6 9 -7 -8 -5 -9 25 13 14 -13 16 -1 -18 -19 -17 21 22 -21 -11 -25 26 29 -27 -29 -12
right_child=1 -3 -4 4 -6 7 8 10 -10 23 11 12 -14 -15 -16 19 17 18 -20 20 -22 -23 -24 24 -26 27 -28 28 -30 -31
leaf_value=-0.017473283353461339 -0.017919647131464749 0.07609415680836977 0.049138514486406278 0.0081640679379358354 0.016815378090552856 0.061365809700244967 -0.029341294460235607 0.01053953309202903 0.034356961149622008 -0.0099321919697718704 0.0033932412717120096 0.046357253799500481 0.054498838124737214 -0.019335340191995662 0.0062530512355572776 -0.015529314945368798 0.044526032393154537 -0.01172395724141286 0.054915402316122554 0.041208226354236162 -0.0042228856792886123 -0.04395582747145807 -0.053533531931371961 0.057978405531260872 -0.0025215342988412826 -0.02143802772083496 0.032315173174883659 0.023524172302974721 -0.0041446789468967361 -0.017121053917374545
leaf_weight=72.261431336402893 545.21882525086403 10.695314586162565 36.987938344478607 588.07900148630142 333.92707541584969 27.648302495479584 240.78534010052681 939.75327005982399 18.332988351583481 576.05623310804367 969.16294798254967 60.283527284860611 65.586050629615784 96.80767098069191 157.6726738512516 445.14151048660278 71.168544769287109 88.973086893558502 32.115203082561493 73.162537753582001 1724.0210593938828 14.555942088365553 7.0411308109760276 27.794049471616745 57.124335199594498 263.92048859596252 140.89291980862617 99.62821027636528 688.91895985603333 179.68250635266304
leaf_count=206 1598 29 99 1679 935 78 705 2637 51 1654 2738 168 181 273 443 1280 199 254 91 206 4889 41 20 79 163 748 398 282 1959 508
internal_value=-0.000150232 -0.0161109 0.000945511 0.000724363 0.00278503 0.00188373 -0.0039041 0.00424935 -0.0248346 0.000437955 0.00381815 0.00149811 0.0144159 0.00606393 0.0173453 -0.00378424 0.00993017 0.02023 0.00595023 -0.00538664 -0.00290425 0.0210864 0.0328908 -0.00643608 0.0172803 -0.000599598 0.00369473 -0.00586204 -0.000648885 0.000184751
internal_weight=8653.4 555.914 8097.48 8060.5 5532.06 5198.13 1508.17 3689.96 259.118 1249.05 3662.31 2722.56 380.35 314.764 217.956 2528.44 264.518 192.257 121.088 2263.92 1818.78 94.7596 80.2037 660.975 84.9184 2342.21 1289.74 1052.47 788.547 1148.85
internal_count=24591 1627 22964 22865 15679 14744 4331 10413 756 3575 10335 7698 1065 884 611 7186 750 544 345 6436 5156 267 226 1896 242 6633 3644 2989 2241 3246
is_linear=0
shrinkage=0.05


Tree=16
num_leaves=31
num_cat=0
split_feature=3 24 19 13 13 36 36 12 5 25 39 39 24 35 19 36 5 36 36 20 23 3 5 5 16 3 15 21 14 37
split_gain=76.4925 26.1914 29.2452 19.2795 26.6217 23.0289 18.4177 18.3967 18.1934 22.1404 17.9187 17.245 16.4956 17.721 18.5892 16.0622 15.091 14.0095 18.9369 30.8259 23.2478 16.3075 15.2127 17.1039 13.312 12.4543 11.6747 35.6843 21.375 23.9553
threshold=0.0020250000000000151 1.0519206387926456 0.53922499382084721 1.06379884884258 1.1021159545625905 0.0089560699105805126 0.00062948772810833564 1.2094244000000003 1.1727282167127129 1.1342037201971114 0.49808365502725277 -0.685010515718528 1.1384066415502054 -0.00055101121130246556 6.3172503241309927 0.00091004221653312467 1.0436633649863614 -3.2992739318948854e-05 0.0021636961763472633 65.970344646594341 0.0001492674399319098 0.0025678571428571144 1.0591309941709734 1.066848704958969 -0.0002369218743653034 0.0033521428571428829 1.1551071256445484 0.0018848799061523815 1.205591925 0.0027592484478476957
decision_type=2 2 2 2 2 2 2 2 2 2 2 2 2 2 2 2 2 2 2 2 2 2 2 2 2 2 2 2 2 2
left_child=26 2 10 5 -5 11 16 8 9 12 24 -3 13 -6 -15 -8 -4 21 19 -19 -20 -13 -22 -24 -2 -17 -1 28 -28 -30
right_child=1 3 6 4 7 -7 15 -9 -10 -11 -12 17 -14 14 -16 25 -18 18 20 -21 22 -23 23 -25 -26 -27 27 -29 29 -31
leaf_value=-0.0035063385548124177 0.029847584673498517 0.088926491153951834 -0.014572767466271494 0.0012880671908789088 -0.0036776509103487696 -0.035262472095948176 0.081042333149392243 -0.04341565532937796 0.092264573129310148 0.0026716912288271416 -0.02084524127873362 -0.0071241967156771739 0.060667778468091321 0.055449811703842417 -0.022856678437328418 0.0026203873901500616 0.055783880402259615 0.10491185068489495 -0.02425729403695806 -0.019886197483174779 0.088079760447160288 0.055059379753274788 -0.032241036080855094 0.073995402700806276 0.1098675058743549 0.048742980328375929 0.002866516368741114 0.060055885447566584 -0.018305872548605662 0.025949910202031551
leaf_weight=4134.7763935625553 9.2826922833919578 16.410674333572388 180.70373883843422 201.48281913995743 34.152016431093216 10.721016854047773 7.9469143748283377 9.0871679782867414 10.863920688629149 68.588535577058792 6.4034951329231253 32.206989794969559 49.154951512813568 45.133159160614014 9.1083976626396161 125.54098160564899 7.9572707414627066 23.592726111412052 14.684103697538374 6.2613189816474906 15.040008157491686 15.674528330564497 8.1434807479381544 7.0848611295223227 11.809687077999113 16.567926347255707 1465.791587293148 25.515751093626022 232.75545370578766 35.201985359191895
leaf_count=14977 32 57 640 698 121 38 28 34 37 237 23 115 154 156 32 444 28 81 52 23 53 51 29 24 39 54 5253 87 871 123
internal_value=6.11823e-05 0.0132783 0.00281856 0.0199125 0.0145042 0.0353474 -0.00120718 0.0262819 0.0292006 0.025877 0.0524109 0.0407896 0.0374483 0.0245362 0.0423004 0.0118661 -0.0116053 0.0343509 0.0478683 0.0787378 0.0273671 0.0132323 0.0524116 0.0171846 0.074651 0.00799764 -0.00205481 0.00135669 0.000492812 -0.0124919
internal_weight=6837.64 943.603 366.213 577.391 427.571 149.82 338.717 226.088 217.001 206.137 27.4959 139.099 137.549 88.3936 54.2416 150.056 188.661 122.688 74.8065 29.854 44.9525 47.8815 30.2684 15.2283 21.0924 142.109 5894.04 1759.26 1733.75 267.957
internal_count=24591 3280 1288 1992 1469 523 1194 771 737 700 94 485 463 309 188 526 668 428 262 104 158 166 106 53 71 498 21311 6334 6247 994
is_linear=0
shrinkage=0.05


Tree=17
num_leaves=31
num_cat=0
split_feature=15 14 25 25 28 37 9 11 10 12 12 2 14 15 12 15 2 37 28 37 5 25 2 10 19 23 9 24 10 2
split_gain=49.0078 42.1284 40.1066 44.0162 44.1944 32.5685 30.999 41.3522 40.9698 57.8347 34.904 28.8207 37.4994 34.4493 45.4321 32.3879 36.2787 28.4946 28.5659 28.0019 27.3321 32.4462 26.3036 33.3171 27.1432 25.9953 25.082 24.8477 24.8333 23.0892
threshold=1.0837055753942695 1.0832450250000003 1.0839802740192208 1.0759092328347089 22.890761638863491 -0.00084655100308300691 1.0711712206990538 1.067232050974011 1.0589571000000002 1.0565621500000002 1.0758203000000004 0.0010829900048906183 1.1675640250000001 1.1964858789385209 1.2037418500000003 1.1821715441431788 0.00095009490999433939 0.00055838830663451644 53.445643977464179 -0.001520613302720297 1.0640636737488907 1.0596730442006586 0.0008088458592686251 1.0737856000000001 2.9102213827255681 1.3704634584230234e-05 1.1698883439713359 1.0662265221286684 1.0561815000000003 0.00036208664614984285
decision_type=2 2 2 2 2 2 2 2 2 2 2 2 2 2 2 2 2 2 2 2 2 2 2 2 2 2 2 2 2 2
left_child=1 2 3 6 -5 -6 7 8 9 27 -9 13 26 15 -15 -2 -17 -3 25 -16 21 -10 23 24 -8 -19 -13 28 -1 -21
right_child=11 17 -4 4 5 -7 22 10 20 -11 -12 12 -14 14 19 16 -18 18 -20 29 -22 -23 -24 -25 -26 -27 -28 -29 -30 -31
leaf_value=0.0032033255426156268 -0.001520276684513927 0.049205900865766122 -0.028245550865661675 0.046515364874847927 0.03718078481626657 -0.0016597106462027901 -0.04080619256349495 0.02658431409331885 -0.014543333520288077 0.035079103457021116 -0.053970954423152098 -0.0093992661335025787 -0.046348382416439293 0.040172325632658788 0.029237616669511836 -0.021472826369223957 0.064266379416211925 0.047399547924610291 0.080900477367742293 0.046573653317715569 -0.030981373634269171 0.029832087120682662 -0.023748487011187203 0.017148858606594649 0.0028730718030969779 -0.033194133348865278 0.073674230875851232 0.085103680217558236 -0.033279539641948325 -0.0094898335535318554
leaf_weight=1509.171481192112 3636.6302364170551 86.968934774398804 96.230437815189362 114.11410337686539 75.247135281562805 190.89086100459099 64.774102419614792 270.72281900048256 145.9503615796566 149.76346224546432 14.149882167577742 707.35714250802994 71.324088275432587 107.26335188746452 76.916924178600311 309.54766702651978 12.849821150302885 13.805653959512709 10.168085813522337 19.906268000602722 135.90336173772812 57.390287548303604 188.98072063922882 145.0570912361145 78.880308717489243 36.34723687171936 9.2043080329895002 9.063530355691908 48.131676822900772 237.18350577354431
leaf_count=4270 10399 241 277 311 209 536 185 759 413 419 40 2050 215 295 214 904 37 39 28 55 387 161 541 407 226 103 27 26 136 681
internal_value=0.000102165 0.00472832 0.00355864 0.0045156 0.0204837 0.00932195 0.00236086 0.00473017 0.00225578 0.00539439 0.0225831 -0.00296671 -0.0117736 -0.00138981 0.0118616 -0.0028668 -0.0180555 0.0308905 0.00448384 0.00276983 -0.0136215 -0.00201894 -0.00924654 0.000245947 -0.016822 -0.011009 -0.00833218 0.00255617 0.00207575 -0.00514888
internal_weight=8629.89 3441.71 3294.42 3198.19 380.252 266.138 2817.94 2340.25 2055.37 1716.13 284.873 5188.18 787.886 4400.3 441.27 3959.03 322.397 147.29 60.321 334.007 339.244 203.341 477.692 288.712 143.654 50.1529 716.561 1566.37 1557.3 257.09
internal_count=24591 9714 9303 9026 1056 745 7970 6611 5812 4851 799 14877 2292 12585 1245 11340 941 411 170 950 961 574 1359 818 411 142 2077 4432 4406 736
is_linear=0
shrinkage=0.05


Tree=18
num_leaves=31
num_cat=0
split_feature=2 4 37 5 4 6 35 37 14 24 2 37 15 18 19 22 8 5 18 22 22 37 2 10 13 15 19 37 6 25
split_gain=56.1469 33.9673 32.027 40.4716 36.4729 36.096 35.2958 33.8523 28.65 28.5376 27.6896 29.5965 25.787 71.7718 38.4262 34.8514 29.0811 34.1066 27.3905 35.6806 31.0511 31.652 26.5005 25.9413 37.207 25.2744 52.7952 25.0653 24.5307 33.1878
threshold=0.001674560610249229 1.1647200000000002 0.0043924668660526031 1.0886278550084862 1.1076150000000002 1.1020420000000002 0.0002376295602836698 -0.0057557433720002984 1.0811875750000002 1.1127712936195844 0.00075033179654367783 -0.00067385497530741956 1.0424241222394475 0.0026166238826296211 10.280835170216532 -0.00031355205089807784 1.05565675 1.060021712925858 0.00060251399483535206 0.00020771784061518811 -0.0018296415283332837 -0.0025746420912908792 0.0014716888263318101 1.0714233000000002 1.0741103710679798 1.0896236288974845 3.9733552856991921 -0.00086658267008965495 1.0661925000000003 1.0620277094240178
decision_type=2 2 2 2 2 2 2 2 2 2 2 2 2 2 2 2 2 2 2 2 2 2 2 2 2 2 2 2 2 2
left_child=2 -2 3 7 5 -5 -6 8 -1 -8 11 -7 13 14 -9 -15 -14 -18 19 20 -19 -22 -17 28 -25 -4 -27 -16 29 -23
right_child=1 -3 25 4 6 10 9 12 -10 -11 -12 -13 16 15 27 22 17 18 -20 -21 21 23 -24 24 -26 26 -28 -29 -30 -31
leaf_value=0.0040050521075359283 -0.017317497982238722 0.072284070579710522 0.020627988190136323 0.0069534883445962429 -0.0045015446664398119 0.038604236783014272 -0.042458827902178503 -0.01563436675431323 0.044772585446837328 0.0069418874303718145 0.054973902141896715 -0.012403316027272406 -0.019686094727326651 0.068397097039442079 0.05981155970889647 0.026560157234108685 0.017498917590345418 0.037402442347926591 -0.014627647505070902 0.015995608330803133 -0.024353392833381053 -0.029599046077907129 -0.032862890366263192 0.045988591679742112 -0.0016446853798690382 0.024796421047017982 -0.020481048484715575 -0.031775235727079187 -0.041806426576375212 0.034364686587309477
leaf_weight=168.94420033693314 541.55963557958603 10.787878602743147 352.3678415119648 863.02001509070396 1662.0852850973606 63.448349237442017 29.808161795139313 294.42840737104416 57.853766024112701 1518.3123532533646 73.86532860994339 51.540248095989227 423.67320668697357 43.635857731103897 29.703813701868057 121.2947048842907 151.93280619382858 38.578115612268448 740.80758240818977 216.32661154866219 231.30319181084633 47.156860560178757 22.1954485476017 44.918676048517227 469.47708830237389 117.89893335103989 141.83893802762032 9.9805671870708448 73.358807265758514 35.579830586910248
leaf_count=473 1598 29 976 2417 4703 174 84 852 159 4279 203 143 1238 122 85 336 437 110 2147 618 663 137 62 127 1340 332 401 29 215 102
internal_value=-0.000143592 -0.0155675 0.000908786 9.33068e-06 0.00320598 0.0112863 0.000558339 -0.00422033 0.0144044 0.00599071 0.0310863 0.0157416 -0.00563101 0.00447599 -0.00940911 0.0292678 -0.00776118 -0.00529599 -0.00712117 -0.00231365 -0.00652558 -0.00840479 0.0173684 -0.00290291 0.0025148 0.011905 7.10771e-05 0.0367776 -0.0207564 -0.00209228
internal_weight=8647.68 552.348 8095.33 7483.23 4262.08 1051.87 3210.21 3221.15 226.798 1548.12 188.854 114.989 2994.35 521.239 334.113 187.126 2473.11 2049.44 1897.51 1156.7 940.373 901.794 143.49 670.491 514.396 612.106 259.738 39.6844 156.095 82.7367
internal_count=24591 1627 22964 21255 12003 2937 9066 9252 632 4363 520 317 8620 1486 966 520 7134 5896 5459 3312 2694 2584 398 1921 1467 1709 733 114 454 239
is_linear=0
shrinkage=0.05


Tree=19
num_leaves=31
num_cat=0
split_feature=2 33 31 9 40 22 19 25 15 23 36 26 2 2 29 20 23 26 13 40 36 40 26 36 2 19 18 26 25 6
split_gain=53.3448 23.143 18.074 15.9426 17.7837 13.5382 13.4385 12.2573 18.2169 14.3526 17.0552 18.655 14.1799 12.7861 11.3427 20.4603 10.6317 17.1955 12.755 12.2355 13.7409 13.444 10.7936 10.3078 9.61736 12.65 18.1575 17.4395 12.0398 12.3554
threshold=0.0017923910343830773 1.0000000180025095e-35 16.500000000000004 1.1204874560356861 0.0012706022727469984 -0.00066789235147069555 5.0711014704324207 0.96650492374144525 0.99636608131632465 0.00051277930962104646 -0.010545044785620848 0.017433921530358134 0.0018646269176419074 0.0023947655587041668 33.570537844285369 66.241457064485232 -0.00030299021441023002 0.0080090109147854492 1.0847093172913924 0.0007848299102715114 0.0010354629047235611 0.0005986263578960251 0.0049814170464505241 -0.0014254310410590219 0.00085065080191949641 0.90424424649212143 0.00075137834817462512 0.0061126634362156556 1.075120417532571 1.0773970000000002
decision_type=2 2 2 2 2 2 2 2 2 2 2 2 2 2 2 2 2 2 2 2 2 2 2 2 2 2 2 2 2 2
left_child=2 3 -1 7 -5 6 -3 -2 -9 10 -10 12 -12 23 16 -16 17 18 -4 21 -21 22 -20 -11 28 26 -26 -28 -18 -30
right_child=1 5 14 4 -6 -7 -8 8 9 13 11 -13 -14 -15 15 -17 24 -19 19 20 -22 -23 -24 -25 25 -27 27 -29 29 -31
leaf_value=-0.0027013896016550311 0.064283065101227346 0.057230898747767427 0.0015398137939145946 -0.0072939338147305207 0.089750031258870003 -0.014025963138437406 -0.0075176855697992543 -0.017975046276086579 -0.033679876067231794 0.076522949567709872 -0.014733030061765113 0.068906157932810949 0.033747839955957842 -0.044274445814197531 0.057525559415861398 0.0084688337428053609 -0.016959226037355141 -0.0024166352372372562 0.019254827107796555 0.065466369739495864 -0.0050251195396799984 0.0063436126938571299 0.081530952375752558 0.0025764282778721341 0.0097792258102695172 0.0011416060588886172 0.096997022272629435 0.0016757887379819957 0.065929577154378888 -0.0016657734331723601
leaf_weight=4572.9284514933825 16.201704680919647 16.173696041107178 73.053018480539322 6.3806149959564236 18.149231225252151 70.666464641690254 15.883565753698347 28.711086094379425 9.4088877737522107 5.7590086162090328 17.826702475547791 32.986031055450439 97.976138055324554 12.17299836874008 23.878758728504181 193.41773048043251 143.051593542099 182.12421116232872 15.544147849082949 32.140926092863083 8.8077205121517164 71.643179163336754 12.595452696084974 25.939859300851822 70.648268520832062 373.25024989247322 13.397400438785555 7.4759400486946097 6.830203413963317 660.07828167080879
leaf_count=16603 49 52 262 22 52 247 56 104 34 20 61 106 318 44 83 684 523 651 54 112 31 254 43 89 249 1321 47 26 25 2369
internal_value=6.09203e-05 0.0184143 -0.00100217 0.0260623 0.0645073 -0.00180034 0.0251496 0.022244 0.0192927 0.0245879 0.0316053 0.0357337 0.0262847 -0.000716273 0.00311364 0.0138597 0.00171593 0.00887312 0.0184909 0.0272902 0.0503042 0.0178457 0.04713 0.0160109 -0.000506967 0.00522628 0.0218847 0.062857 -0.00379682 -0.00097349
internal_weight=6835.1 374.236 6460.87 271.512 24.5298 102.724 32.0573 246.982 230.781 202.07 158.198 148.789 115.803 43.8719 1887.94 217.296 1670.64 395.909 213.784 140.731 40.9486 99.7828 28.1396 31.6989 1274.73 464.772 91.5216 20.8733 809.96 666.908
internal_count=24591 1254 23337 899 74 355 108 825 776 672 519 485 379 153 6734 767 5967 1407 756 494 143 351 97 109 4560 1643 322 73 2917 2394
is_linear=0
shrinkage=0.05


Tree=20
num_leaves=31
num_cat=0
split_feature=10 18 3 28 8 14 18 18 5 15 37 6 36 15 8 14 26 26 40 37 15 18 18 36 29 26 3 14 18 14
split_gain=44.5286 39.906 40.4742 37.001 26.2046 30.6682 27.4056 23.6086 22.1845 50.2599 25.9032 21.3652 21.3021 24.2816 20.0213 31.0376 26.3604 19.1226 20.9518 18.2979 28.6747 28.4268 37.6019 30.9809 22.7185 21.6125 18.8731 18.2127 57.4417 34.1282
threshold=1.0840562000000002 -0.014289629921132805 0.0018592857142857063 26.476967879368008 1.0754605000000002 1.0817464000000001 -0.00092230429713646689 0.0073831744449542889 1.0591309941709734 1.0553732082248404 0.015032266319800093 1.1896105000000003 -0.0050215237795351855 1.0802500566401021 1.0715750000000004 1.0817464000000001 0.0072136544172755447 0.0023940510922190474 0.00051977593535733173 -0.0068162304354024697 0.99134210230471209 -0.013614365283692252 -0.0082989637102860985 -0.0065065817087361357 23.928084220017642 0.0096100207272568922 0.0026682142857142881 1.1964014500000002 0.0055969012314361919 1.2112325500000003
decision_type=2 2 2 2 2 2 2 2 2 2 2 2 2 2 2 2 2 2 2 2 2 2 2 2 2 2 2 2 2 2
left_child=3 11 27 4 6 -6 14 19 10 -10 -9 -2 -11 -14 16 -16 -1 -8 -19 -5 24 -22 25 -24 -21 -23 -27 -3 29 -29
right_child=1 2 -4 7 5 -7 17 8 9 12 -12 -13 13 -15 15 -17 -18 18 -20 20 21 22 23 -25 -26 26 -28 28 -30 -31
leaf_value=0.028826367895431304 0.038562835526382441 -0.002908856357576393 -0.016248283563447749 -0.014847302070428385 0.039858705754107417 0.0070271125254071773 -0.03857213975937733 -0.027369940629607278 0.067643769599922812 0.069882730862186757 0.061854791052744863 -0.050712478042646995 -0.019363674369609781 0.056912840938254522 -0.040039433946199438 0.067668513441288297 -0.0039649112711161102 0.066395503679503851 2.5366825832810265e-05 0.063073952548167347 -0.019715130552965698 0.035808243819056507 0.047164970823168076 0.0010593346871096314 0.0051689780239434352 -0.019963833906495171 0.068769731844328746 0.02768947174209065 -0.04289378327118696 -0.0025650537406462417
leaf_weight=263.14727866649628 78.49822986125946 4069.6359342932701 549.76697739958763 133.74246063828468 156.7509913444519 130.21708962321281 31.272734642028809 173.18581208586693 24.829414218664169 8.1003648340702039 8.5352376699447614 7.3272365629672995 134.0806043446064 11.314072906970976 30.64413583278656 8.5560585856437665 79.895961254835129 12.244914650917051 411.31011834740639 36.427668154239655 126.98689287900925 139.3592828810215 37.368836283683777 1458.9261981844902 31.661815762519836 35.32054728269577 7.2169006764888755 214.20641645789146 49.210795998573303 165.02131062746048
leaf_count=726 215 11695 1608 391 425 362 90 508 71 23 23 22 385 31 90 24 223 34 1165 102 356 390 105 4105 89 100 20 593 148 472
internal_value=9.56949e-05 -0.00286697 -0.00344179 0.00445231 0.0119221 0.0249608 0.00745216 0.000905135 -0.0108844 0.00164449 -0.0231792 0.0309411 -0.00903157 -0.0134281 0.0173209 -0.0165305 0.0211892 -0.000841671 0.00194412 0.00302011 0.00429576 0.00309433 0.00482029 0.00221079 0.036148 0.0262862 -0.0049093 -0.00187655 0.00792911 0.0145242
internal_weight=8624.76 5133.67 5047.84 3491.1 1124.04 286.968 837.071 2367.06 360.046 178.324 181.721 85.8255 153.495 145.395 382.243 39.2002 343.043 454.828 423.555 2007.01 1873.27 1805.18 1678.19 1496.3 68.0895 181.897 42.5374 4498.07 428.439 379.228
internal_count=24591 14753 14516 9838 3139 787 2352 6699 1041 510 531 237 439 416 1063 114 949 1289 1199 5658 5267 5076 4720 4210 191 510 120 12908 1213 1065
is_linear=0
shrinkage=0.05


Tree=21
num_leaves=31
num_cat=0
split_feature=40 10 14 8 7 18 7 10 22 12 14 35 17 18 36 19 21 35 18 8 14 25 12 14 15 19 8 25 22 21
split_gain=47.2851 32.0945 26.3442 47.2833 50.1892 44.2842 45.3891 41.8574 31.9973 27.1982 26.6636 23.6527 36.6556 24.0588 23.4464 35.4492 21.4312 21.0318 32.6847 38.6941 31.6687 26.7037 19.8698 23.101 21.5846 25.8978 30.5454 22.4575 19.7198 19.5724
threshold=0.0015333382475740342 1.2206126000000002 1.0802461500000005 1.0747255000000002 1.0858510116888878 0.0027754417224679089 1.0724456802401818 1.0488466000000003 -0.00034409837977812207 1.0705974500000002 1.2185308750000001 -0.0019348813035358623 -0.0022785052357807696 -0.015722285494920159 0.0035300725706500784 8.4198843955093707 -0.00027437909687744172 -0.00046437882878735953 -0.0089756589492833144 1.1906785000000004 1.0829833000000002 1.0719653007645069 1.1349474000000002 1.1330988500000003 1.1581537208527783 2.5439223752152023 1.17779375 1.1565612442849209 -0.0022813750937956952 -0.0025756203339457602
decision_type=2 2 2 2 2 2 2 2 2 2 2 2 2 2 2 2 2 2 2 2 2 2 2 2 2 2 2 2 2 2
left_child=1 2 3 5 -5 6 11 8 -7 14 17 -1 13 -13 15 16 -9 22 19 20 -19 -20 23 -4 -24 26 27 -26 -27 -15
right_child=-2 -3 10 4 -6 7 -8 9 -10 -11 -12 12 -14 29 -16 -17 -18 18 21 -21 -22 -23 24 -25 25 28 -28 -29 -30 -31
leaf_value=-0.02438665060892688 -0.022977760665024775 0.046874404361462015 0.00096483867552948465 -0.026991648410139651 0.018999644786925566 0.056254709465793078 0.028930867576228342 -0.040752713961438591 0.015114009978926334 0.044554319434564831 -0.0402307444380487 0.031986939466382043 -0.011671650062235922 -0.036070055519105935 -0.02778269567251514 0.056712630476898354 0.0017493169643728241 0.064931324996511094 0.04929318030564591 0.059080974640272392 -0.023782945044315464 0.0052743983426193691 -0.024184566108810323 0.037570226924559261 0.065547846486613631 0.056813187998495024 0.037098852696335602 -0.011795887105506074 -0.012520536650057455 0.0038900771532899541
leaf_weight=184.09343925118446 220.82717895507812 37.081783503293991 879.0205309689045 348.84211677312851 71.473607957363129 56.314941018819809 90.1583032310009 34.806288093328476 293.99046015739441 28.760629266500473 36.725410789251328 72.378769129514694 847.19292584061623 33.142611056566238 91.584984421730042 26.260174989700317 200.59173935651779 10.581002116203306 34.785447895526886 16.939433008432388 204.16572168469429 3612.8605463504791 164.57831782102585 45.322589188814163 10.348363459110258 10.526946187019346 72.592806875705719 100.85309389233589 397.62026694417 406.28808811306953
leaf_count=535 668 99 2489 1038 199 156 252 101 818 81 111 206 2470 96 260 73 571 29 97 46 587 10169 465 128 29 29 202 285 1133 1169
internal_value=-0.000138375 0.000460631 0.000255317 -0.00371761 -0.0191709 -0.00097185 -0.00555271 0.00924476 0.0217278 -0.00220243 0.00223285 -0.00756748 -0.00528912 0.00527581 -0.00600931 0.00161176 -0.00453509 0.00251333 0.00453751 -0.0136729 -0.0194118 0.00569418 -0.00215838 0.00275968 -0.00816745 -0.00371418 0.0118707 -0.00459831 -0.0107323 0.000876216
internal_weight=8640.71 8419.88 8382.8 2785.88 420.316 2365.56 1633.25 732.309 350.305 382.004 5596.92 1543.1 1359 511.809 353.243 261.658 235.398 5560.2 3879.33 231.686 214.747 3647.65 1680.86 924.343 756.52 591.941 183.794 111.201 408.147 439.431
internal_count=24591 23923 23824 8025 1237 6788 4728 2060 974 1086 15799 4476 3941 1471 1005 745 672 15688 10928 662 616 10266 4760 2617 2143 1678 516 314 1162 1265
is_linear=0
shrinkage=0.05


Tree=22
num_leaves=31
num_cat=0
split_feature=3 24 2 36 2 13 13 2 36 40 2 36 6 36 26 25 39 14 22 29 15 28 36 36 23 23 3 37 5 8
split_gain=64.8197 23.0605 17.8678 28.8008 25.772 17.728 24.1984 24.6315 20.0538 18.4983 18.2678 15.5585 15.3758 16.4152 15.1797 15.1728 14.5182 13.7474 14.3391 12.8826 24.8714 13.6415 12.597 16.273 26.565 17.8457 14.2171 12.5126 12.2773 15.8477
threshold=0.0020250000000000151 1.0519206387926456 0.0010829900048906183 0.00073525428113557789 0.0017923910343830773 1.06379884884258 1.1021159545625905 0.0016546912657621987 0.0089560699105805126 0.00098562667955818585 0.0026400084887843603 -0.0076891259603021336 1.1380450000000002 0.00033694976621068134 0.010624580577086542 0.96650492374144525 -0.685010515718528 0.99680922500000013 0.0023715302547441578 30.793577371707659 1.0702076186069232 30.097049679084275 -3.2992739318948854e-05 0.0020980248003418249 0.00058314724993034281 0.00015571545915474557 0.0025678571428571144 0.0036163470239322097 1.0591309941709734 1.0621897500000002
decision_type=2 2 2 2 2 2 2 2 2 2 2 2 2 2 2 2 2 2 2 2 2 2 2 2 2 2 2 2 2 2
left_child=-1 2 3 -2 -4 8 10 9 16 14 19 -9 13 -11 -8 -6 -3 -17 -19 -7 -21 -22 26 24 -24 -25 -18 -15 -27 -30
right_child=1 5 4 -5 15 6 7 11 -10 12 -12 -13 -14 27 -16 17 22 18 -20 20 21 -23 23 25 -26 28 -28 -29 29 -31
leaf_value=-0.001899900395705843 -0.018546032201368346 0.080802724718293015 -0.013098479120251373 0.1121485254819892 0.054413001640007487 -0.010193756288240203 0.021854004452576768 -0.010018568923538203 -0.034219785050947617 -0.0067197185845571557 0.075266809106170118 0.060906143505948133 -0.018097597873126793 0.059310769882604877 0.081239838234756806 -0.018561942842151853 -0.0072559886108004932 0.011381462148390873 0.07343250443720388 0.10227749805600445 0.076308065524182234 -0.0061159130655603225 0.098518485478131856 -0.013516825214447621 -0.019459074380393224 0.080301874860853925 0.050094563068418529 -0.020424054595400504 -0.036820408327957764 0.067867013830879508
leaf_weight=5877.9798339307308 7.7631343603134182 17.266711115837097 182.55882281064987 9.223701059818266 20.431742876768112 143.14245519042015 38.740744739770889 9.0168887376785261 10.362367942929266 31.283062517642975 7.8677931129932395 54.279715448617935 49.77230167388916 25.963819444179535 14.898975908756254 35.733691081404686 32.266643941402435 101.91375216841698 10.246386379003523 7.6239849328994742 5.76593193411827 38.797729581594467 22.992566078901294 17.565467745065689 6.0209352076053611 15.804486125707628 16.247647881507874 6.0707270205020896 7.0905767381191236 7.3753471672534943
leaf_count=21311 28 57 663 32 61 494 134 34 38 109 23 164 173 86 50 132 115 340 32 24 20 137 75 62 22 53 51 21 26 24
internal_value=6.22293e-05 0.0121506 0.00233782 0.05242 -8.67291e-05 0.0183084 0.0131413 0.0242478 0.03294 0.0141667 0.000568362 0.0508026 0.00269673 0.0190426 0.038349 0.0140253 0.0378193 0.00844564 0.0170501 -0.00244045 0.0188256 0.00454863 0.0318991 0.0444922 0.0740356 0.0265735 0.011951 0.0442006 0.0498373 0.0165537
internal_weight=6832.07 954.088 367.871 16.9868 350.884 586.217 433.224 230.026 152.993 166.73 203.198 63.2966 113.09 63.3176 53.6397 168.326 142.63 147.894 112.16 195.33 52.1876 44.5637 125.364 76.8494 29.0135 47.8359 48.5143 32.0345 30.2704 14.4659
internal_count=24591 3280 1288 60 1228 1992 1469 771 523 573 698 198 389 216 184 565 485 504 372 675 181 157 428 262 97 165 166 107 103 50
is_linear=0
shrinkage=0.05


Tree=23
num_leaves=31
num_cat=0
split_feature=10 18 3 28 24 14 18 24 5 12 12 18 2 5 12 37 22 21 6 4 37 37 36 22 23 36 12 14 13 14
split_gain=40.2822 37.0599 37.2412 33.8102 27.1717 25.3329 25.3056 31.083 26.7475 25.7239 27.2211 21.7243 25.8178 23.2207 34.252 21.7685 21.5559 20.968 19.8243 19.6683 18.1591 18.1222 18.0094 17.1847 17.0712 17.6435 17.0471 40.4639 31.428 60.7033
threshold=1.0840562000000002 -0.014289629921132805 0.0018592857142857063 26.476967879368008 1.0754095106640447 1.0846600500000003 -0.00092230429713646689 1.0734953861546239 1.0661778934912964 1.0622525000000003 1.0352466500000002 0.0077785372819305651 0.0022024793184511845 1.0591309941709734 1.0574534000000002 0.0081457484365573558 7.1008451100070501e-05 0.0011939866140195934 1.1896105000000003 1.0783590000000001 0.00013616673921595937 0.0007718221812495486 -0.00027988051089061766 -0.00027108351790979294 -0.00010563295176075015 -0.0057286675973607917 1.0909524500000003 1.0921660250000003 1.0965132891792893 1.0983810000000001
decision_type=2 2 2 2 2 2 2 2 2 2 2 2 2 2 2 2 2 2 2 2 2 2 2 2 2 2 2 2 2 2
left_child=3 18 26 4 6 17 7 8 9 10 20 -5 13 -13 -15 -14 -16 -6 24 -7 22 -21 -1 -12 25 -2 -3 -28 -29 -30
right_child=1 2 -4 11 5 19 -8 -9 -10 -11 23 12 15 14 16 -17 -18 -19 -20 21 -22 -23 -24 -25 -26 -27 27 28 29 -31
leaf_value=0.041834855345672016 0.03632186013311936 -0.0090289299411755296 -0.015618253237719813 0.0027810431027552414 0.033711476184328973 0.070806145614218954 -0.0016996540611879498 -0.029821402030347572 0.056731587079068557 -0.020560014296197922 0.051677709882385375 -0.029785801740778731 -0.024138564708872916 0.057006361003826833 0.049711661308939697 0.057029762822667855 -0.018486855472047325 -0.048007564321531054 -0.049775251880571574 -0.025009159521225028 -0.034743653221242704 0.04994455394063934 -0.0091169988969177478 0.018261756880980407 0.055204136181725566 -0.043423251280472724 0.023296706271784137 -0.020762345408352076 0.033833673658753588 -0.0017586640528875952
leaf_weight=31.53021964430809 19.0527877509594 688.60721677541733 546.02549088001251 2031.7247806787491 242.59121498465538 7.9090067446231833 435.42895796895027 33.58138832449913 44.515210211277008 43.060674399137497 74.049858063459396 148.96987915039062 12.669495105743406 21.187742441892624 12.882818788290022 23.735263496637344 115.15739688277245 8.1121593713760358 7.1764327585697165 50.596235066652298 26.555434674024582 9.5932942032814008 38.542579531669617 80.084766954183578 48.989888161420822 10.906683743000029 170.90640461444855 202.03193512558937 124.29649662971497 3307.9966138601303
leaf_count=87 52 1984 1608 5726 659 22 1235 100 121 120 202 443 37 60 36 65 332 23 22 142 74 27 107 220 133 30 490 578 355 9501
internal_value=8.94014e-05 -0.00273216 -0.00328793 0.00423067 0.0113619 0.0237214 0.00648148 0.0160596 0.0206135 0.0151415 0.0212721 0.00083686 -0.0109683 -0.0158211 -0.00188058 0.0287818 -0.011625 0.0310672 0.0297897 -0.0033221 0.000466082 -0.0130627 0.0138095 0.0343156 0.0370221 0.00729082 -0.00178972 -0.000479694 -0.00159779 -0.000469729
internal_weight=8618.47 5125.99 5039.86 3492.48 1126.15 318.802 807.349 371.92 338.339 293.824 250.763 2366.33 334.603 298.198 149.228 36.4048 128.04 250.703 86.1258 68.0985 96.6282 60.1895 70.0728 154.135 78.9494 29.9595 4493.84 3805.23 3634.33 3432.29
internal_count=24591 14753 14516 9838 3139 873 2266 1031 931 810 690 6699 973 871 428 102 368 682 237 191 268 169 194 422 215 82 12908 10924 10434 9856
is_linear=0
shrinkage=0.05


Tree=24
num_leaves=31
num_cat=0
split_feature=2 4 10 37 5 4 37 10 36 37 14 35 15 17 15 25 2 25 8 22 15 26 2 37 35 36 5 25 21 22
split_gain=48.0324 29.8872 29.3769 29.8963 30.5869 36.8255 32.5362 32.4841 31.7506 30.3855 26.0858 25.9965 23.314 26.9937 22.3777 41.8451 27.3279 31.1535 51.0683 26.3968 22.0084 24.296 21.6007 26.4889 21.5291 21.2166 20.7294 26.1518 22.2267 20.602
threshold=0.001674560610249229 1.1647200000000002 1.2206126000000002 0.0043924668660526031 1.0886278550084862 1.1076150000000002 0.0040349718854684755 1.1059891000000002 0.003009262339583985 -0.0057557433720002984 1.0811875750000002 0.00020875054705105092 1.0896236288974845 0.0030852307169071396 1.0424241222394475 1.0409136512972699 0.00056370358779487043 1.0714676109263264 1.05565675 -0.0013871114294057472 1.0813957886605197 0.005517288953715469 0.0010137058868306095 0.0058852617294193341 -0.00011575360485460705 0.0044605541958658854 1.0848027345304019 1.0762526132347381 0.00066128417912292303 -0.00023412591848867036
decision_type=2 2 2 2 2 2 2 2 2 2 2 2 2 2 2 2 2 2 2 2 2 2 2 2 2 2 2 2 2 2
left_child=2 -2 3 4 9 7 11 8 -6 10 -1 29 -5 -14 15 -11 20 18 -18 24 26 -22 25 -24 -20 -15 27 28 -16 -7
right_child=1 -3 -4 12 5 6 -8 -9 -10 14 -12 -13 13 22 16 -17 17 -19 19 -21 21 -23 23 -25 -26 -27 -28 -29 -30 -31
leaf_value=0.0037442071557980891 -0.016175271641953325 0.067732912372380757 0.045221276586123731 0.019585832898351797 0.0048027466457386571 0.002073803629674379 -0.035787736511950066 0.040027001129025214 0.033483042784304556 0.00014917756437315551 0.042524543344865141 0.0052173823678524087 0.024287409302336638 -0.03285511424134744 -0.0078404672754074072 0.054447832236369287 -0.019453102275006923 -0.017981455877449898 0.0037248209632411316 0.0002464719795037869 0.016126809974557267 -0.042561124156401689 0.053102780542630172 -0.011060609990775494 0.065334952775594202 0.035715764661203242 0.04926102155106777 -0.036891043839671366 0.039368353352352781 -0.0093570016200978413
leaf_weight=169.10872188210487 533.72402715682983 10.827765613794325 37.105861157178879 353.92958879470825 860.3395668566227 751.37235006690025 62.754706054925919 86.332945227622986 108.69048956036568 482.75359314680099 58.317008703947067 1531.8589621186256 78.840021103620529 96.194692820310593 193.44187757372856 38.296596527099609 388.36163192987442 765.08932149410248 27.263676047325134 659.12007227540016 263.40804871916771 18.900414675474167 24.19943630695343 47.9725701212883 29.546223789453506 12.77935943007469 15.468717426061628 69.547233790159225 28.62164980173111 829.18050155043602
leaf_count=473 1598 29 99 976 2402 2128 179 234 301 1381 159 4310 221 273 560 105 1149 2227 78 1898 745 54 67 136 83 36 44 214 82 2350
internal_value=-0.000133117 -0.0145069 0.000834548 0.000629994 -0.000245329 0.00254647 -0.000142984 0.010638 0.00801965 -0.00392787 0.0136883 0.000575711 0.0112348 -0.000133821 -0.00527237 0.00414007 -0.00726701 -0.0102268 -0.00485418 0.00306512 0.00212077 0.0121977 -0.0107626 0.0104535 0.0357676 -0.0248138 -0.00714327 -0.0101353 -0.00175575 -0.00392296
internal_weight=8633.35 544.552 8088.8 8051.69 7437.77 4230.53 3175.17 1055.36 969.03 3207.24 227.426 3112.41 613.916 259.986 2979.82 521.05 2458.77 1869.38 1104.29 715.93 589.388 282.308 181.146 72.172 56.8099 108.974 307.079 291.611 222.064 1580.55
internal_count=24591 1627 22964 22865 21156 11904 8967 2937 2703 9252 632 8788 1709 733 8620 1486 7134 5435 3208 2059 1699 799 512 203 161 309 900 856 642 4478
is_linear=0
shrinkage=0.05


Tree=25
num_leaves=31
num_cat=0
split_feature=3 24 19 37 8 17 22 3 2 31 22 37 2 17 30 20 4 5 25 22 24 37 2 3 8 20 25 40 28 39
split_gain=59.2283 21.7943 26.6031 16.9561 16.1707 15.4905 15.4069 15.6737 14.5212 16.925 13.3936 13.2002 11.8717 15.973 11.8922 16.0746 13.7193 11.6353 15.2022 13.5141 12.5585 13.3279 13.7891 12.0855 22.4826 21.0092 20.6257 20.338 17.4532 16.3598
threshold=0.0019332142857142944 1.0420434494050821 0.42450565969813026 -0.0073571731592214631 0.97639625000000019 -0.0096221213281172373 -0.00040564671720056338 0.0041010714285714331 0.0026400084887843603 16.500000000000004 -2.317503509862608e-05 -0.0026158273624453106 0.0017261751698310305 0.006118614952550728 9.6528153478296659 65.970344646594341 1.1021830000000004 1.060021712925858 1.053643210968273 -0.0018296415283332837 1.0636012192673856 0.00066955770660831482 0.0012034969946610704 0.0015214285714285865 1.0964772500000002 72.829885336407628 1.0906627441974892 0.00081264009350950808 31.978847848864209 -0.19325539133696054
decision_type=2 2 2 2 2 2 2 2 2 2 2 2 2 2 2 2 2 2 2 2 2 2 2 2 2 2 2 2 2 2
left_child=17 2 -2 5 -4 -3 7 -5 9 -8 11 -11 14 -14 16 -16 -12 18 20 -19 21 22 -1 29 26 -26 -25 -27 -28 -21
right_child=1 3 4 6 -6 -7 8 -9 -10 10 12 -13 13 -15 15 -17 -18 19 -20 23 -22 -23 -24 24 25 27 28 -29 -30 -31
leaf_value=-0.015644942924166631 0.0549143375524676 -0.0033089879042131434 0.025929915114235275 0.00043209574477956302 -0.0083712185076535214 0.057340488565157825 0.0059349406077817942 0.080072547929437479 0.0568624020022135 -0.013833620654082272 0.058232812707954107 0.064048145779579055 0.074250261413950802 0.012712732504645358 0.013834606713695526 -0.035130574948382738 0.0048277335079338806 -0.017657793982071367 -0.026865492460249996 0.0022566020468539976 0.057888008702859019 0.0028178670728424894 0.0055374003611104857 0.011155238499083623 -0.0063346747440929376 0.051226692704573279 0.010442762427042179 -0.0097963996822297561 0.10748402660634662 -0.0043956351912410397
leaf_weight=355.788499340415 20.464568465948105 14.160819560289381 39.425686031579971 231.0399084687233 267.41292960941792 41.040479332208633 219.09361226856709 6.347669154405593 22.966739565134048 6.4942519664764395 27.863439083099365 33.533910393714905 21.29783296585083 20.886083692312241 107.54884892702103 19.855739235877991 21.156555742025375 119.74445933103561 90.073594838380814 1504.111691609025 7.8270391821861258 278.90298676490784 97.989518195390701 360.1414669752121 420.67050312459469 33.239723682403564 8.2625896930694598 23.172659337520599 10.548984110355375 2397.3432966023684
leaf_count=1309 67 50 130 807 956 135 757 18 67 23 95 113 65 69 368 69 70 446 326 5452 28 1015 357 1295 1506 116 30 83 38 8731
internal_value=6.35727e-05 0.0105732 -0.000282518 0.0150522 -0.00396387 0.041782 0.013053 0.00256166 0.0180272 0.0161602 0.024822 0.0514124 0.0199532 0.0437818 0.0142557 0.00620349 0.0351837 -0.00199973 -0.00747013 -0.00106814 -0.00511092 -0.00578393 -0.0110708 -0.00065058 0.0047294 -0.00249235 0.0138212 0.0261601 0.0648607 -0.00183103
internal_weight=6828.41 1120.59 327.303 793.286 306.839 55.2013 738.085 237.388 500.697 477.73 258.637 40.0282 218.608 42.1839 176.425 127.405 49.02 5707.82 830.582 4877.24 740.508 732.681 453.778 4757.49 856.036 477.083 378.953 56.4124 18.8116 3901.45
internal_count=24591 3859 1153 2706 1086 185 2521 825 1696 1629 872 136 736 134 602 437 165 20732 3035 17697 2709 2681 1666 17251 3068 1705 1363 199 68 14183
is_linear=0
shrinkage=0.05


Tree=26
num_leaves=31
num_cat=0
split_feature=15 18 10 18 2 14 9 15 14 15 18 13 15 2 2 37 37 2 24 14 2 39 37 36 2 21 15 14 11 8
split_gain=37.2884 39.7994 37.2131 33.5283 33.8372 29.3148 29.5392 28.652 41.2568 26.305 58.5588 33.309 29.8656 33.6122 24.8823 32.9973 24.4555 27.581 23.1089 49.8001 35.6176 34.4793 23.0288 23.6122 22.8037 23.4812 22.7591 38.837 30.6098 27.1485
threshold=1.0837055753942695 0.0060578749500027626 1.0799784000000003 -0.014289629921132805 0.0010829900048906183 1.1668280250000003 1.1698883439713359 1.0802500566401021 1.0829833000000002 1.1964858789385209 0.0053920641773079767 1.2205386540640093 1.1821715441431788 0.00095009490999433939 0.0022024793184511845 0.0055038771173773768 0.0040349718854684755 0.002051610569795382 1.0572964293223517 1.0546563250000003 0.00073355976978775367 0.2745554338757466 -0.001520613302720297 0.0023213695212973011 0.00072026946626387609 -0.00027437909687744172 1.0784732093240816 1.0834507500000004 1.0738174831258018 1.0715750000000004
decision_type=2 2 2 2 2 2 2 2 2 2 2 2 2 2 2 2 2 2 2 2 2 2 2 2 2 2 2 2 2 2
left_child=1 2 16 -2 9 6 -6 -4 24 12 11 22 -5 -14 -3 -16 18 -18 19 21 -20 -1 -11 -24 25 -9 28 -28 29 -22
right_child=3 14 7 4 5 -7 -8 8 -10 10 -12 -13 13 -15 15 -17 17 -19 20 -21 26 -23 23 -25 -26 -27 27 -29 -30 -31
leaf_value=0.0027639538669779499 0.028110970380133896 -0.0091441923727878759 0.048916332166531393 -0.0014373421939710893 -0.011125001664972033 -0.04463884697948562 0.082244610040031349 0.043399489744364708 0.039584830007752071 0.046646359146109678 -0.036913893781711178 -0.032696467959990684 -0.020718831132677567 0.061197409042576367 -0.043696954823126584 0.047703768069581272 -0.018227902620907156 0.033577735541145813 0.011861906289464756 0.042033781471732631 -0.0011661555882752331 0.027242134103803078 0.0070229202802384915 0.042935115705047128 0.020766064742974488 -0.030751840751855043 -0.045156082027401317 0.030045754010131411 0.048758013877902677 -0.039806747087359137
leaf_weight=700.49623143672943 87.348761051893234 654.85062319040298 79.425347298383713 3608.9459502100945 653.22104868292809 66.924920529127121 8.5821497738361341 12.566237509250639 96.373922407627106 75.131098061800003 56.603729367256165 30.038179874420166 306.8951553106308 13.055403083562849 12.948586940765379 41.594599008560181 189.39996320009232 29.723883748054504 496.34983351826668 120.71730700135231 522.96365350484848 181.0398263335228 200.59974238276482 59.302410572767258 60.193103134632111 70.98839658498764 75.437486201524734 22.226845115423203 28.285299509763718 49.784003764390945
leaf_count=1956 240 1907 215 10347 1924 209 25 35 267 204 171 96 904 37 38 115 548 83 1383 331 1466 501 558 162 167 199 219 61 78 145
internal_value=8.30404e-05 0.00411199 0.00684838 -0.00260365 -0.00313185 -0.0131032 -0.0099142 0.0228838 0.014273 -0.00146163 0.010406 0.0177428 -0.00273533 -0.0173763 -0.00644166 0.0260052 0.00472786 -0.0112005 0.0063163 0.0119154 0.00162048 0.007791 0.0222651 0.0152171 -0.00269696 -0.0195998 -0.00565495 -0.0280413 -0.0020173 -0.00452485
internal_weight=8612.01 3445.37 2735.97 5166.65 5079.3 728.728 661.803 319.547 240.122 4350.57 421.675 365.071 3928.9 319.951 709.394 54.5432 2416.42 219.124 2197.3 1002.25 1195.05 881.536 335.033 259.902 143.748 83.5546 698.697 97.6643 601.033 572.748
internal_count=24591 9714 7654 14877 14637 2158 1949 883 668 12479 1191 1020 11288 941 2060 153 6771 631 6140 2788 3352 2457 924 720 401 234 1969 280 1689 1611
is_linear=0
shrinkage=0.05


Tree=27
num_leaves=31
num_cat=0
split_feature=26 35 28 15 15 10 37 18 18 18 22 19 19 19 23 19 35 35 15 37 9 22 21 15 10 10 42 11 24 10
split_gain=31.095 27.1096 29.0657 30.451 26.1643 25.8602 25.7636 21.8286 19.5357 21.4639 40.1217 20.9447 19.3875 18.921 20.1915 16.2859 18.0573 22.4502 18.8842 31.7625 27.0529 17.8476 17.1069 23.3305 18.9706 22.9696 16.3162 22.9093 18.9974 18.073
threshold=0.0024700459919570115 -0.00084065847265629701 23.634656420340814 1.0909563679877852 1.0809683228645566 1.0760978000000001 0.00046053342590401952 -0.0025874023233466987 -0.015722285494920159 -0.008786349889387866 -0.0017781946776307619 5.5404997214411802 2.0728473856209084 13.712711208795445 0.0001664551499037947 5.154594354329439 0.003168378576069331 0.00082139808983727758 1.1738055706456152 -0.0017494543323268716 1.1960366774787243 -0.00074693488324449359 0.00077547618674744811 1.1495224108836999 1.1659673000000004 1.1277776000000002 1.08277268392528 1.0663135191271902 1.0888250709403844 1.0937450000000004
decision_type=2 2 2 2 2 2 2 2 2 2 2 2 2 2 2 2 2 2 2 2 2 2 2 2 2 2 2 2 2 2
