tree
version=v4
num_class=3
num_tree_per_iteration=3
label_index=0
max_feature_idx=43
objective=multiclass num_class:3
feature_names=returns log_returns volatility_20 atr_14 sma_5 ema_5 sma_10 ema_10 sma_20 ema_20 sma_50 ema_50 sma_100 ema_100 sma_200 ema_200 price_to_sma20 price_to_sma50 price_to_sma200 sma200_atr_distance rsi_14 macd macd_signal macd_hist bb_upper bb_lower bb_width bb_position adx_14 plus_di minus_di hour is_tokyo is_london is_ny tokyo_cumret london_cumret ny_cumret efficiency_ratio sma_slope parkinson_vol tail_asymmetry zscore bw_percentile
feature_infos=[-0.027023676707574218:0.016707502534639929] [-0.027395530810160822:0.016569467572075898] [0.00016495092969684265:0.0076904853264199678] [0.041071428571427759:1.6252142857142846] [104.5192:161.86759999999998] [104.50225019718134:161.86467534212508] [104.5575:161.80970000000002] [104.53657557163692:161.79685493692008] [104.56554999999999:161.68680000000001] [104.59943724471727:161.70995469813721] [104.60974:161.59896000000001] [104.69909343805759:161.53146150378674] [104.74408:161.40630000000002] [104.80819871741629:161.31035048710606] [104.85267:161.26712000000001] [104.87407118972394:161.05445518746677] [-0.028466193757057723:0.019546225735094236] [-0.0377624573962696:0.023802060962066163] [-0.062530331267353301:0.037277066306455886] [7.5026795307846269e-05:27.392667785234082] [0:99.791449426486409] [-1.5378707418439319:0.87520160837294725] [-1.4208919932538817:0.79727393836359461] [-0.55745116702523712:0.44745858616971945] [104.64317576644214:163.52603036375547] [104.34672086969263:161.50440725327311] [0.00075011757752273809:0.067223556646473615] [-0.55541009109639516:1.5280678574996645] [5.724441641638685:97.656306497086646] [0:66.623752816222307] [0:77.506058603216303] [0:23] [0:1] [0:1] [0:1] [-0.029864764161944723:0.027181294643869314] [-0.035258594312358671:0.020338412449323884] [-0.033912348367366785:0.023577669724245243] [0:0.73695811903012876] [-3.1140865618414422:2.7591240875908043] [0.00021399332388589201:0.0049897272229027087] [-0.0032615572004721207:0.042075673417282709] [-4.2216403643856246:4.1122714299986916] [-0.55541009109639516:1.5280678574996645]
tree_sizes=3370 3356 3447 3505 3452 3500 3470 3524 3512 3479 3440 3505 3492 3489 3510 3469 3495 3453 3490 3477 3499 3466 3471 3476 3506 3463 3502 3475 3498 3515 3483 3460 3475 3524 3478 3485 3483 3473 3469 3474 3517 3515 3484 3475 3470 3504 3492 3511 3519 3464 3516 3501 3445 3476 3496 3453 3513 3492 3440 3501 3487 3478 3495 3451 3462 3494 3505 3458 3495 3486 3479 3488 3488 3473 3504 3490 3500 3462 3480 3456 3485 3487 3497 3498 3498 3428 3480 3476 3470 3473 3457 3501 3462 3467 3476 3504 3459 3468 3463 3451 3483 3501 3492 3461 3457 3489 3450 3460 3479 3454 3496 3469 3461 3516 3478 3447 3543 3510 3467 3492 3469 3509 3510 3490 3482 3470 3454 3494 3465 3497 3479 3480 3477 3521 3488 3479 3455 3502 3470 3494 3485 3491 3495 3506 3529 3471 3468 3475 3424 3479 3484 3469 3505 3478 3463 3487 3491 3497 3499 3494 3471 3509 3448 3461 3486 3482 3513 3492 3454 3484 3499 3467 3435 3476 3480 3497 3503 3461 3468 3452 3444 3436 3481 3486 3469 3454 3455 3468 3452 3479 3456 3472 3492 3485 3452 3524 3460 3474 3491 3468 3487 3475 3472 3432 3511 3473 3499 3486 3491 3494 3487 3479 3402 3515 3508 3491 3498 3454 3501 3481 3509 3476 3485 3481 3476 3499 3480 3465 3480 3470 3473 3482 3449 3501 3465 3500 3475 3484 3465 3453 3473 3473 3485 3488 3464 3449 3458 3491 3510 3456 3482 3503 3488 3476 3429 3452 3521 3495 3493 3440 3469 3453 3489 3487 3452 3500 3478 3464 3489 3472 3432 3481 3461 3437 3460 3479 3462 3433 3426 3442 3493 3473 3456 3443 3485 3490 3503 3452 3470 3499 3482 3455 3507 3473 3485 3506 3500 3484 3455 3491 3480 3446 3495 3483 3452 3479 3483 3457 3472 3447 3452 3479 3454 3462 3484 3472 3466 3471 3460 3472 3464 3485 3500 3476 3473 3481 3444 3480 3447 3454 3464 3443 3481 3471 3472 3498 3472 3481 3470 3481 3461 3512 3454 3448 3485 3467 3488 3465 3456 3485 3501 3479 3490 3453 3452 3458 3486 3434 3455 3493 3453 3473 3488 3479 3458 3451 3454 3471 3493 3458 3483 3474 3448 3480 3451 3464 3472 3439 3493 3503 3456 3459 3469 3488 3474 3487 3459 3483 3447 3426 3397 3468 3424 3482 3501 3493 3460 3475 3471 3487 3466 3462 3509 3442 3454 3446 3479 3508 3464 3505 3489 3467 3484 3453 3505 3501 3490 3456 3446 3481 3462 3482 3471 3478 3448 3517 3453 3462 3495 3440 3458 3476 3473 3451 3496 3489 3500 3464 3445 3476 3483 3482 3493 3485 3466 3446 3465 3450 3486 3458 3466 3479 3454 3464 3453 3464 3455 3478 3515 3478 3466 3484 3473 3448 3482 3469 3454 3425 3466 3456 3490 3484 3513 3454 3455 3463 3468 3462 3476 3474 3465 3456 3526 3452 3487 3450 3449 3472 3544 3466 3459 3474 3463 3483 3479 3511 3447 3465 3482 3480 3483 3510 3458 3503 3502 3450 3523 3493 3447 3474 3493 3460 3474 3489 3468 3462 3476 3422 3467 3481 3470 3459 3525 3472 3437 3493 3480 3446 3503 3471 3461 3492 3464 3446 3492 3481 3455 3490 3452 3442 3503 3460 3473 3471 3422 3483 3461 3479 3491 3462 3425 3462 3485 3459 3514 3532 3461 3481 3464 3486 3479 3486 3466 3507 3480 3472 3457 3476 3454 3477 3464 3456 3479 3465 3463 3489 3480 3466 3502 3504 3451 3456 3483 3461 3480 3467 3451 3474 3480 3463 3453 3459 3464 3446 3485 3459 3463 3457 3449 3464

Tree=0
num_leaves=31
num_cat=0
split_feature=24 11 3 37 15 20 36 21 37 18 35 14 4 37 4 24 18 37 4 19 25 19 12 15 15 19 19 24 9 14
split_gain=85.7376 56.3124 42.9072 42.5009 37.581 31.7011 33.4604 29.5106 44.796 28.8143 28.4133 41.1528 27.5512 24.0948 31.6968 35.286 31.3044 33.3761 24.5263 24.0443 26.0854 23.8007 22.7348 36.6652 27.666 25.928 23.0898 23.0526 22.3933 28.0311
threshold=147.96658636227932 146.98987932761332 0.08800000000000148 0.0027058699927176581 148.21622811740636 71.758666021223448 -0.006339796096059668 0.0052493014891012999 -0.00046918491859443407 0.018909571867566258 -0.00050628509886524442 150.24984750000002 144.04960000000003 0.0010043298250996815 148.66000000000005 148.44602281217405 -0.00057264191856765112 0.0020094904363550663 151.67740000000003 1.0803006001821169 153.23799317773145 7.4037405397800411 148.87099500000002 148.63612452437621 149.0310055252281 1.6119448305448547 9.6318897433836508 151.45775583916148 109.09481275104669 108.89316250000002
decision_type=2 2 2 2 2 2 2 2 2 2 2 2 2 2 2 2 2 2 2 2 2 2 2 2 2 2 2 2 2 2
left_child=2 -2 7 13 5 6 12 8 -1 -8 11 -5 -4 22 15 -15 17 -16 -18 -13 -21 -20 25 27 -25 -3 -26 -24 -9 -30
right_child=1 3 4 10 -6 -7 9 28 -10 -11 -12 19 -14 14 16 -17 18 -19 21 20 -22 -23 23 24 26 -27 -28 -29 29 -31
leaf_value=-1.026114688698899 -0.96541986648074374 -1.0105122524057002 -1.0605025875490592 -0.98160097775653588 -1.0750439071232587 -1.0453550875683735 -1.0336809419010018 -1.06686602858502 -0.97579510572011419 -1.0001338461213847 -1.0217720520050317 -1.0831610963959075 -0.99753924455030596 -1.050138894582177 -1.0384541154788569 -0.97030852320723582 -1.0612181802519265 -0.9820339055615388 -1.0490267123173487 -1.0563369078456772 -0.98845813905153002 -1.0190857184666562 -0.96021689887401807 -1.0653175206790146 -1.0246205291193504 -1.0451761293953135 -1.0006576773534006 -1.0528907447333211 -0.94287367351826556 -1.0286156860213829
leaf_weight=102.54808735847473 39.918047428131104 69.51246190071106 176.53412353992462 134.89547061920166 61.597676634788513 734.01030313968658 4041.0140599012375 36.820957541465759 77.771368265151978 65.038887619972229 324.16207480430603 15.485449433326719 19.270781517028809 22.711992502212524 67.103614211082458 35.444473147392273 168.61933827400208 43.015137314796448 165.52224838733673 22.367871403694153 38.541563034057617 110.80699372291565 35.788594245910645 39.22980523109436 1281.1628497838974 240.88476896286011 109.08638823032379 8.2589063644409162 9.9795118570327741 212.66683888435364
leaf_count=298 116 202 513 392 179 2133 11743 107 226 189 942 45 56 66 195 103 490 125 481 65 112 322 104 114 3723 700 317 24 29 618
internal_value=-1.03126 -1.02441 -1.03493 -1.02521 -1.03623 -1.03575 -1.03411 -1.01995 -1.00441 -1.03315 -1.01247 -0.998207 -1.05431 -1.02805 -1.0366 -1.00148 -1.04028 -1.01641 -1.04619 -1.02753 -1.01339 -1.03702 -1.02511 -1.02252 -1.02391 -1.03741 -1.02274 -0.977593 -1.03075 -1.02477
internal_weight=8509.77 2972.52 5537.25 2932.6 5097.47 5035.87 4301.86 439.787 180.319 4106.05 535.452 211.29 195.805 2397.15 613.224 58.1565 555.067 110.119 444.949 76.3949 60.9094 276.329 1783.92 1473.53 1429.48 310.397 1390.25 44.0475 259.467 222.646
internal_count=24729 8638 16091 8522 14813 14634 12501 1278 524 11932 1556 614 569 6966 1782 169 1613 320 1293 222 177 803 5184 4282 4154 902 4040 128 754 647
is_linear=0
shrinkage=1


Tree=1
num_leaves=31
num_cat=0
split_feature=3 2 11 31 19 29 19 3 5 37 19 21 25 18 18 15 24 18 18 21 18 2 5 24 3 5 31 19 35 3
split_gain=170.706 42.5189 36.1339 33.2517 23.5554 26.7042 28.7676 23.0114 22.3813 21.7587 23.0126 27.999 20.0585 19.55 19.2744 18.8846 23.3897 17.8852 34.0329 25.3795 17.7068 17.5709 16.0776 20.169 24.0538 21.5284 17.2846 15.7895 18.3696 14.7667
threshold=0.35921428571427944 0.00077382118454516469 130.01565834432853 10.500000000000002 9.1404502915768688 13.628259671652872 2.3839051984173651 0.50039285714285719 128.61249833180182 0.0043790393047949969 0.67227486858013441 0.063188162163683628 134.64393372509198 -0.0039550393816181187 0.004894470351100467 109.66544630183662 109.42812716542298 0.0010703050020016704 0.0036532237163977581 -0.11122028942668293 0.002707525700456848 0.0010607370562039132 113.01828566809856 115.76270160978871 0.15078571428571666 114.87136433787985 16.500000000000004 3.2869607646372612 0.002169201128440879 0.11446428571428617
decision_type=2 2 2 2 2 2 2 2 2 2 2 2 2 2 2 2 2 2 2 2 2 2 2 2 2 2 2 2 2 2
left_child=1 17 3 -3 5 6 12 14 15 10 11 -4 -2 -10 -7 16 21 19 20 -1 29 -5 -17 24 -24 26 -26 28 -16 -19
right_child=4 2 9 8 -6 7 -8 -9 13 -11 -12 -13 -14 -15 27 22 -18 18 -20 -21 -22 -23 23 -25 25 -27 -28 -29 -30 -31
leaf_value=-1.3998386494833457 -1.2868589605122833 -1.4098623610646124 -1.390159331289422 -1.3980540284441498 -1.4216656562392966 -1.4066436802942228 -1.3791663115494415 -1.3676059547902486 -1.2927530318085756 -1.4014796943690973 -1.4147423010340872 -1.4289740092764678 -1.3549861361596616 -1.3721652318023567 -1.3848713381421616 -1.4264996157209968 -1.3033285920251001 -1.4216616138445362 -1.4193262234849884 -1.426009276666965 -1.3923838181077968 -1.3233950396154284 -1.4073874559578026 -1.4062758723488855 -1.4214119182297245 -1.2904287328598889 -1.3440965013700077 -1.392141202656368 -1.3039690105652169 -1.4014535207418055
leaf_weight=104.65230220556259 14.673470944166182 305.92802628874779 201.82943996787071 37.652680158615112 40.421259582042694 184.38738960027695 148.67271503806114 85.825962126255035 10.243743866682051 477.57995054125786 2263.0368207097054 60.355031430721283 40.97497546672821 31.838663369417191 15.227186828851702 42.082407236099243 11.628033578395842 169.43706071376801 1130.4109785854816 807.04090192914009 200.99886614084244 9.9668859243392927 29.070083945989609 104.09858632087708 10.797459751367567 11.628033578395842 21.871777445077896 67.276479989290237 13.012323290109633 193.80055963993073
leaf_count=378 53 1105 729 136 146 666 537 310 37 1725 8174 218 148 115 55 152 42 612 4083 2915 726 36 105 376 39 42 79 243 47 700
internal_value=-1.41002 -1.41249 -1.40899 -1.39807 -1.38478 -1.38217 -1.36769 -1.39026 -1.38682 -1.41127 -1.41312 -1.39909 -1.33702 -1.35283 -1.3972 -1.39195 -1.3669 -1.41736 -1.41432 -1.42301 -1.40429 -1.38243 -1.39871 -1.39212 -1.37205 -1.34885 -1.36965 -1.37897 -1.34759 -1.41088
internal_weight=6846.42 6235.95 3629.61 626.806 610.472 570.051 204.321 365.729 320.878 3002.8 2525.22 262.184 55.6484 42.0824 279.903 278.796 59.2476 2606.34 1694.65 911.693 564.236 47.6196 219.548 177.466 73.3674 44.2973 32.6692 95.516 28.2395 363.238
internal_count=24729 22524 13110 2264 2205 2059 738 1321 1159 10846 9121 947 201 152 1011 1007 214 9414 6121 3293 2038 172 793 641 265 160 118 345 102 1312
is_linear=0
shrinkage=1


Tree=2
num_leaves=31
num_cat=0
split_feature=3 9 17 37 24 15 35 37 35 35 18 24 18 22 19 36 37 37 15 36 15 11 8 14 12 12 14 35 36 13
split_gain=103.579 55.367 60.6061 58.1753 49.3529 46.3909 44.9291 49.0034 39.256 49.1335 45.6557 38.6601 38.2055 39.2307 37.254 35.2595 33.6579 30.258 39.3283 29.4578 29.3097 32.8644 28.106 35.0851 42.8529 27.7493 31.6374 28.988 28.5438 26.9619
threshold=0.26014285714285795 147.38704030492499 0.00052125426894633631 0.0059304141594019319 147.82676128045611 144.56019179939955 -0.0010927227234514001 0.004214247557018048 0.0029819224840118013 -0.0019398785162181296 0.015249842690825634 108.96535968369028 0.00047826511817472556 0.013322380376990888 1.6786536826237366 0.006486986756066627 -0.0035820968360899537 0.0053709974149581683 142.1335080683609 -0.0025831513299476856 108.48545132363925 109.01473476881509 156.98002500000004 155.23210000000003 156.09015000000002 146.77822500000005 143.35555500000001 -0.0014393482137969313 0.00038726672343092355 115.62310087075635
decision_type=2 2 2 2 2 2 2 2 2 2 2 2 2 2 2 2 2 2 2 2 2 2 2 2 2 2 2 2 2 2
left_child=1 2 12 5 8 11 16 -8 9 -2 17 -4 19 -14 -6 22 -3 18 -11 -1 -13 -22 23 -16 -25 26 27 -21 -27 -23
right_child=4 6 3 -5 14 -7 7 -9 -10 10 -12 20 13 -15 15 -17 -18 -19 -20 25 21 29 -24 24 -26 28 -28 -29 -30 -31
leaf_value=-0.89947272337494 -0.92797661379829999 -0.88261763800702597 -0.87709038023141406 -0.93360937593477811 -0.95220144973548193 -0.88012548655885137 -0.91462921387764573 -0.9451860606142154 -0.93528388985676081 -0.9115352893961125 -0.95320379672123878 -0.957780087986007 -0.93413018717605012 -0.90702658292333338 -0.92892197718594061 -0.96497577152929082 -0.93700779624097996 -0.93097909298862302 -0.88419514016466483 -0.89612830289016787 -0.85029753969588406 -0.91475131902437623 -0.96228876459290069 -0.86718305298765874 -0.92982622162130846 -0.91323073244346464 -0.94719164940190381 -0.92164998781192153 -0.85406497306880413 -0.9018459505178561
leaf_weight=327.75894075632095 556.57857447862625 30.221461057662964 111.89136177301407 168.73649090528488 252.20528811216354 198.95795196294785 1658.9423444867134 142.47260212898254 383.52473199367523 303.65372776985168 51.448439657688141 28.422564566135406 509.08770710229874 180.96898704767227 438.57096463441849 63.680935800075531 483.54337692260742 90.30460387468338 232.0576474070549 140.67370563745499 25.544330179691315 715.24124503135681 48.570205271244049 56.845129132270813 52.527777552604675 52.167998254299164 94.621955454349518 532.11358219385147 33.459474742412567 932.18816190958023
leaf_count=911 1547 84 311 469 701 553 4611 396 1066 844 143 79 1415 503 1219 177 1344 251 645 391 71 1988 135 158 146 145 263 1479 93 2591
internal_value=-0.917998 -0.914597 -0.911073 -0.905409 -0.926557 -0.903045 -0.920766 -0.917046 -0.921312 -0.916969 -0.907926 -0.905559 -0.917676 -0.927022 -0.935855 -0.92961 -0.933808 -0.904205 -0.899692 -0.912213 -0.907432 -0.906576 -0.925835 -0.922604 -0.897268 -0.917109 -0.920121 -0.916314 -0.890111 -0.907449
internal_weight=8896.98 6367.01 4051.83 2180.98 2529.97 2012.25 2315.18 1801.41 1617.57 1234.04 677.464 1813.29 1870.85 690.057 912.4 660.195 513.765 626.016 535.711 1180.8 1701.4 1672.97 596.514 547.944 109.373 853.037 767.409 672.787 85.6275 1647.43
internal_count=24729 17697 11262 6062 7032 5593 6435 5007 4496 3430 1883 5040 5200 1918 2536 1835 1428 1740 1489 3282 4729 4650 1658 1523 304 2371 2133 1870 238 4579
is_linear=0
shrinkage=1


Tree=3
num_leaves=31
num_cat=0
split_feature=4 23 37 2 18 22 18 2 35 14 37 19 37 22 12 35 22 21 18 9 35 17 26 15 14 36 36 36 19 36
split_gain=73.986 43.6672 42.5292 36.8287 33.1624 29.1723 28.7356 28.2128 27.6216 46.0374 27.4116 26.1561 26.145 31.9344 26.2622 24.2989 26.076 32.2356 24.9928 40.9453 25.0568 24.1889 23.9894 25.7239 21.8808 21.8097 21.1621 20.5494 26.3185 20.6779
threshold=147.51610000000002 0.017505391810282968 0.0026075076560340697 0.00040869877793097673 0.018290751037763679 0.01100194687747052 0.01038073186043076 0.0017045931235688545 -0.00050628509886524442 150.24984750000002 -0.00050041518112942096 1.0803006001821169 0.00078057616728044465 -0.2323570469199103 146.77822500000005 0.0023802203440251861 -0.1062498839917428 0.0052493014891012999 0.0038856242504005105 115.86854176975883 0.00073118688266066167 -0.010027574750338717 0.01137821822397656 151.68007790823867 146.03419000000005 0.0069812946785492444 -0.0021885712119785179 0.0056427357993950608 8.7857709790815424 0.0005726739231579071
decision_type=2 2 2 2 2 2 2 2 2 2 2 2 2 2 2 2 2 2 2 2 2 2 2 2 2 2 2 2 2 2
left_child=1 3 12 5 6 10 15 25 9 -4 -1 -11 -2 -14 -15 16 21 18 26 -20 -21 -5 23 -13 -10 -8 -18 29 -29 -26
right_child=2 -3 8 4 -6 -7 7 -9 24 11 -12 22 13 14 -16 -17 17 -19 19 20 -22 -23 -24 -25 27 -27 -28 28 -30 -31
leaf_value=0.0084847295581699095 0.0070946489311865648 -0.0096579181608269105 0.051043791720574085 0.011282977433264382 0.028768672642714984 0.0048780026878426476 -0.019359467918969336 0.030627980582365346 -0.038311112379966254 -0.051219119229252791 0.07279818309919639 -0.041054484299197835 0.0583404085541286 0.068964001427896091 -0.0071973288022801384 -0.012589043727441091 -0.0061912470882624013 -0.0021677748183668161 0.062461941560585224 0.00021778532382281621 0.052576226565007322 -0.012810727257397512 -0.047539603831705392 0.049824524620072884 -0.00060551891941452909 0.039285541311064653 0.011550409446595102 -0.038384483980011083 0.044983062035431592 0.028188366581861374
leaf_weight=27.272610068321228 1640.8214898705482 1814.8615031540394 133.21785175800323 132.5725839138031 89.587580233812332 94.504727274179459 412.14719960093498 33.368104815483093 21.769322693347931 17.384255766868591 42.211164712905884 9.5870159864425641 19.834353536367416 11.503448218107222 705.37482559680939 353.72440418601036 232.90588548779488 1036.4957373440266 56.314016461372375 104.67859107255936 29.231256514787674 486.25820899009705 11.37384197115898 41.463725537061691 93.278662115335464 16.487825363874435 603.84829756617546 36.035157024860382 12.84015107154846 188.05674734711647
leaf_count=79 4755 5290 381 386 259 275 1201 97 63 51 121 28 57 33 2051 1029 678 3019 163 304 85 1416 33 119 270 48 1753 104 37 544
internal_value=9.90479e-05 -0.00329077 0.00651164 -0.000210628 -0.00126978 0.0229607 -0.00203909 -0.0136562 0.0188424 0.0330529 0.0475549 0.0030223 0.00358132 -0.00424364 -0.0059752 -0.00027127 0.00135312 0.00405286 0.0103312 0.0266904 0.0116471 -0.00764911 0.0181277 0.032758 0.0102418 -0.0171036 0.00661212 0.0134427 -0.0164828 0.0186416
internal_weight=8509.01 5566.47 2942.54 3751.61 3587.62 163.989 3498.03 462.003 565.007 213.027 69.4838 79.8088 2377.53 736.713 716.878 3036.03 2682.3 2063.47 1026.98 190.224 133.91 618.831 62.4246 51.0507 351.98 428.635 836.754 330.211 48.8753 281.335
internal_count=24729 16203 8526 10913 10438 475 10179 1346 1630 612 200 231 6896 2141 2084 8833 7804 6002 2983 552 389 1802 180 147 1018 1249 2431 955 141 814
is_linear=0
shrinkage=0.05


Tree=4
num_leaves=31
num_cat=0
split_feature=3 3 37 2 9 9 19 30 18 10 18 26 10 19 30 18 35 14 2 20 17 36 36 6 35 25 6 19 37 24
split_gain=154.408 39.7269 26.2679 24.2457 26.2466 26.489 21.3836 21.0727 37.5845 20.3229 25.7073 20.0073 22.1379 21.1848 20.7455 19.0383 18.3961 17.85 25.2798 18.3196 19.2428 17.8366 16.5034 17.5374 15.5187 16.9324 15.1818 14.8909 15.1646 14.7588
threshold=0.35921428571427944 0.10792857142857266 0.0053709974149581683 0.00046603105530290559 150.17880224909089 149.4439142691534 9.1404502915768688 33.87171296414531 -0.0072238329152830563 127.37072000000001 0.013432738444882799 0.0033947323164156651 157.70093 4.1136983442032591 27.929453984338114 -0.0013454570369510475 -0.00031866710996758524 109.58826750000001 0.00095125549699569755 46.287252301451169 0.0027670621029967095 0.0018739309285358277 0.0075151631495478663 146.53620000000004 -0.0044138713146140143 156.52356433967694 149.68250000000003 7.9984611103233787 0.0057359737341597392 109.15564534576185
decision_type=2 2 2 2 2 2 2 2 2 2 2 2 2 2 2 2 2 2 2 2 2 2 2 2 2 2 2 2 2 2
left_child=1 -1 3 4 5 -3 7 24 -9 10 -4 14 17 15 -5 -14 -11 18 29 -20 -21 -15 26 -24 -2 -26 27 -18 -29 -13
right_child=6 2 9 11 -6 -7 -8 8 -10 16 -12 12 13 21 -16 -17 22 -19 19 20 -22 -23 23 -25 25 -27 -28 28 -30 -31
leaf_value=-0.012201251207246879 0.037759099246959173 0.021315544805919438 0.069862108732557923 -0.014522237218685858 -0.0015821306320261419 0.089273112603375254 -0.011727078416435742 0.023771001410836046 0.074540783511802031 -0.0050302605884174475 -0.02073165005298358 -0.011524659209500117 -0.020347571993611049 -0.018729155223624821 0.014805972014054201 0.053710246656774874 0.0057280133828418005 -0.0026679059748661764 0.097168068981359462 0.0021626050400425901 0.097353656796282162 0.053963638836071942 0.029749593359365192 0.11491215421351496 0.01293117651563221 0.08435057035854393 -0.020256882495652287 -0.020695880401544998 0.052327798931090123 0.027623588693479223
leaf_weight=926.75124913454056 95.453032732009888 57.384353548288345 28.882336795330048 530.74642658233643 89.564500570297241 19.1161949634552 40.255389451980591 105.45084232091904 55.712853908538818 160.80006057024002 10.743523001670836 69.224307715892792 10.521735012531279 39.614745616912842 68.024689733982086 49.528030812740326 85.982152819633484 3872.3084584474564 13.044222027063368 21.51464927196503 7.0483118295669547 10.722650378942488 26.317746043205261 7.8477858603000632 314.74311423301697 8.5237623751163465 31.240694433450699 8.5619609951972944 41.912300825119019 36.912451595067978
leaf_count=3368 339 208 103 1926 325 69 146 374 195 578 39 251 38 144 247 178 308 14007 46 77 25 39 94 28 1121 30 112 31 150 133
internal_value=-0.000280348 -0.00265081 -0.000980069 -0.00198938 0.0167888 0.038297 0.023512 0.0259582 0.0413217 0.0113018 0.0453 -0.00264877 -0.00141054 0.0206795 -0.0111903 0.0407341 0.00758703 -0.00201711 0.0150399 0.0480732 0.0256523 -0.00324446 0.0176377 0.0493113 0.0200449 0.0148143 0.0111847 0.0183831 0.0399408 0.0020904
internal_weight=6844.45 6224.32 5297.56 4895.28 166.065 76.5005 620.139 579.884 161.164 402.289 39.6259 4729.21 4130.44 110.387 598.771 60.0498 362.663 4020.05 147.744 41.6072 28.563 50.3374 201.863 34.1655 418.72 323.267 167.697 136.456 50.4743 106.137
internal_count=24729 22524 19156 17713 602 277 2205 2059 569 1443 142 17111 14938 399 2173 216 1301 14539 532 148 102 183 723 122 1490 1151 601 489 181 384
is_linear=0
shrinkage=0.05


Tree=5
num_leaves=31
num_cat=0
split_feature=3 9 21 37 36 36 2 35 37 13 4 15 12 12 37 2 4 5 37 10 12 37 35 35 25 7 36 10 36 19
split_gain=94.4202 50.2791 59.4974 49.8812 46.5001 48.7392 41.8871 41.4375 45.0199 39.134 32.1637 34.6888 41.5832 32.7139 41.3527 34.4184 32.6274 31.9963 31.183 30.5916 29.0231 28.3495 32.1293 26.9141 24.8885 32.479 26.7481 26.1751 26.5666 29.6801
threshold=0.26014285714285795 147.38704030492499 0.0052493014891012999 0.005265977869143291 0.0044850654405789734 0.00012834297357405824 0.00045503390872545402 -0.0010927227234514001 0.004214247557018048 144.61291275080856 108.76520000000002 108.48545132363925 108.86117 110.18739500000002 0.00060171608036957436 0.00086719423235584578 110.02409999999999 117.8329887485137 -0.0035820968360899537 149.47030000000004 121.75028000000002 -0.012169043255894905 -0.0018912268723461632 0.0029819224840118013 145.73152115030823 145.4975271963074 0.00038726672343092355 145.47286000000003 -0.0025149285887477442 6.1587696276017194
decision_type=2 2 2 2 2 2 2 2 2 2 2 2 2 2 2 2 2 2 2 2 2 2 2 2 2 2 2 2 2 2
left_child=1 2 6 9 5 21 -1 18 -9 10 -4 -12 -13 14 -14 -15 -16 -17 -3 -7 -19 -2 -23 -24 25 27 -26 28 29 -8
right_child=4 7 3 -5 -6 19 24 8 -10 -11 11 12 13 15 16 17 -18 20 -20 -21 -22 22 23 -25 26 -27 -28 -29 -30 -31
leaf_value=-0.028901530952921861 -0.037939307247054473 0.033998048280655474 0.038669881644028632 -0.0094311627637235357 -0.021939216077166805 0.012290762432389288 0.0040470645440331366 0.0033515275320748338 -0.026040927468544556 0.033141239441957383 -0.043052612359391298 0.068979588916298837 -0.027400874300976409 0.019811319488537898 0.030403364151666269 -0.036003442332798813 -0.010546056246381684 0.056395192849396314 -0.01818413142663667 -0.014542904026697324 0.0044655011475163526 -0.017757539497488092 0.0046090809637924675 -0.015190132305398936 0.0080594629515876055 -0.053466879708264463 0.058157437206580544 0.057043373965091904 -0.0043493095133786642 0.037633916673359719
leaf_weight=120.10384052991867 85.180149108171463 30.440792381763458 105.58782869577408 246.93042179942131 487.28540396690369 506.75268638134003 327.24224057793617 1660.2954088449478 141.37148064374924 244.21388816833496 29.992023766040802 30.572602599859238 120.62211829423904 840.5448372066021 96.963274657726288 46.373090356588364 97.614061236381531 28.511027634143829 481.14506870508194 134.37982967495918 478.01891985535622 524.23104277253151 532.35860511660576 253.31555035710335 90.135546773672104 27.998323947191238 37.824145078659058 20.471218943595886 987.18934619426727 82.322821199893951
leaf_count=335 238 84 291 687 1360 1410 908 4611 396 674 84 84 335 2330 269 129 271 79 1344 375 1324 1462 1480 707 250 78 104 57 2745 228
internal_value=0.000120957 0.00336251 0.00671524 0.0118363 -0.00806478 -0.0047445 -0.000440157 -0.00252078 0.00104519 0.0143146 0.0118622 0.0102623 0.0111817 0.0101476 -0.00439907 0.013438 0.00986017 0.0037491 -0.0150791 0.00666649 0.00738847 -0.00998859 -0.00817102 -0.00177454 0.00173271 -0.000138613 0.0228681 0.000914926 9.22916e-05 0.010798
internal_weight=8895.99 6372.48 4059.23 2365.94 2523.5 2036.22 1693.29 2313.25 1801.67 2119.01 1874.8 1769.21 1739.22 1708.65 315.199 1393.45 194.577 552.903 511.586 641.133 506.53 1395.09 1309.91 785.674 1573.18 1445.22 127.96 1417.23 1396.75 409.565
internal_count=24729 17697 11262 6557 7032 5672 4705 6435 5007 5870 5196 4905 4821 4737 875 3862 540 1532 1428 1785 1403 3887 3649 2187 4370 4016 354 3938 3881 1136
is_linear=0
shrinkage=0.05


Tree=6
num_leaves=31
num_cat=0
split_feature=24 13 37 14 16 3 14 35 14 19 37 39 26 15 15 15 12 15 15 29 40 19 5 24 15 10 25 21 24 37
split_gain=69.5096 42.2406 42.3781 37.9776 34.849 38.6753 34.6348 25.6549 39.5986 24.5722 22.9533 25.4328 22.2595 23.7765 20.7885 30.9088 34.3357 37.4059 35.3748 25.3627 23.7495 20.8735 20.6379 26.3805 20.8941 34.6149 20.589 20.2738 38.3808 43.3512
threshold=147.96658636227932 146.48083612754058 0.0026075076560340697 148.02879000000004 0.00047739741019425802 0.10035714285714446 147.78581000000003 -0.00050628509886524442 150.24984750000002 1.0803006001821169 0.0010043298250996815 -0.69135751703776305 0.01137821822397656 151.68007790823867 147.77263287044363 147.89524835080945 148.78949500000002 148.63612452437621 149.0310055252281 22.926991162085461 0.00086084117030556489 10.476342174899179 148.73784431485294 148.44602281217405 148.95596031274491 149.27699000000004 145.73152115030823 -0.11122028942668293 132.7326732032767 -0.0089206481225894124
decision_type=2 2 2 2 2 2 2 2 2 2 2 2 2 2 2 2 2 2 2 2 2 2 2 2 2 2 2 2 2 2
left_child=3 -2 10 4 5 -1 26 8 -4 -10 14 -12 13 -11 19 20 -17 -18 -19 -3 -16 -20 23 -13 -24 -26 -6 28 29 -7
right_child=1 2 7 -5 6 27 -8 -9 9 12 11 22 -14 -15 15 16 17 18 21 -21 -22 -23 24 -25 25 -27 -28 -29 -30 -31
leaf_value=0.014883233252759538 0.067879224569923763 -0.022231931551778699 0.04640466884739345 -0.030550168858974509 -0.006213518956009554 0.04666644224464922 0.072233317467668007 0.009240789529230917 -0.050402855705666438 -0.040409769950164542 0.047921479720300891 -0.02190997806886746 -0.046656753060460687 0.047172284990648475 -0.0055597712454464494 -0.027470353584567755 0.050259713441971769 -0.034637513313048228 0.0065626034776515955 0.018774321399677822 0.076129803326341769 0.035540103306278423 -0.036192463754408585 0.048180383266218069 0.092167011300941168 -0.0087969805627492962 -0.024813283664444307 0.0020504481282385876 -0.00093373050575748073 -0.030375774487572779
leaf_weight=433.02490425109863 27.535616755485535 130.31732511520386 146.9523760676384 124.34255313873291 2295.593391418457 19.862724483013153 13.723896414041517 336.25928822159767 17.131084382534027 9.4985555708408338 21.314607292413712 21.930577218532562 11.223722666501997 42.076228260993958 13.031423926353453 71.912410378456116 50.360495179891586 50.616446524858475 1336.5722773969173 53.061967879533768 28.046388298273087 65.176602751016617 70.151150047779083 34.61317104101181 8.655477046966551 442.09987965226173 159.09695953130722 1604.2956223785877 642.5611819922924 226.18824443221092
leaf_count=1248 78 379 415 366 6708 58 40 968 51 28 61 64 33 119 38 209 144 148 3863 154 81 187 206 99 25 1288 467 4668 1874 662
internal_value=9.53974e-05 0.00623707 0.00566384 -0.00323051 -0.00260077 0.00109047 -0.00697618 0.018007 0.0309992 0.00267585 0.00276504 -0.00571465 0.0171554 0.0310423 0.0055872 0.0073979 0.00628093 0.00789609 0.00642714 -0.0103665 0.0502148 0.00790996 -0.00769445 0.0209957 -0.0108087 -0.00685825 -0.00741903 -0.00130537 -0.00736395 -0.0241565
internal_weight=8507.23 2988.54 2961 5518.69 5394.35 2925.93 2468.41 563.141 226.882 79.9296 2397.86 598.765 62.7985 51.5748 1799.1 1615.72 1574.64 1502.73 1452.37 183.379 41.0778 1401.75 577.45 56.5437 520.907 450.755 2454.69 2492.91 888.612 246.051
internal_count=24729 8638 8560 16091 15725 8510 7215 1614 646 231 6946 1743 180 147 5203 4670 4551 4342 4198 533 119 4050 1682 163 1519 1313 7175 7262 2594 720
is_linear=0
shrinkage=0.05


Tree=7
num_leaves=31
num_cat=0
split_feature=26 2 2 25 14 19 18 14 19 18 14 32 21 18 18 17 12 40 18 22 36 37 40 37 18 12 26 37 17 10
split_gain=93.749 42.3821 26.5636 22.8242 23.8385 26.984 27.9433 17.837 17.4725 16.9059 18.4072 16.8167 16.9764 16.6978 29.2542 22.0361 25.369 20.1807 18.8415 16.586 15.725 15.5614 15.5482 15.0155 15.3793 17.8982 19.5207 17.8795 14.9651 14.6944
threshold=0.0082185096821979029 0.0020939251401595597 0.00082766551485290846 156.07043910260572 128.77304250000003 6.7008825751483192 0.0015095046433751815 133.84333750000005 6.2692044159544178 -0.0093340387708656918 109.66494500000003 1.0000000180025095e-35 0.095487359988176493 0.0010703050020016704 0.0036532237163977581 -0.0011627210653495366 109.27435000000001 0.00076940333694565052 0.0025757224392878313 0.024690252744146025 -0.0023560833363359675 0.0073641164978986992 0.00070265461434765102 0.0047483000952068264 -0.00075133350215189621 155.96813500000005 0.0062162232557404738 -0.00046918491859443407 0.00055738163879548452 131.95453000000003
decision_type=2 2 2 2 2 2 2 2 2 2 2 2 2 2 2 2 2 2 2 2 2 2 2 2 2 2 2 2 2 2
left_child=2 3 13 4 5 6 9 11 29 -2 -11 -4 -13 15 17 16 -1 18 -15 23 -20 -6 -8 24 -9 27 -27 -26 -25 -3
right_child=1 8 7 -5 21 -7 22 19 -10 10 -12 12 -14 14 -16 -17 -18 -19 20 -21 -22 -23 -24 28 25 26 -28 -29 -30 -31
leaf_value=0.036085847073889538 0.075664722096893053 0.0067362659749435356 0.015711718386182395 0.043285961808462128 0.00069614056413475902 -0.0010311473611334153 -0.0003654129293784805 -0.0049327506391320238 0.005212996592356192 0.058917811527325316 -0.011580799713035557 -0.012148772475634978 0.023376656556393843 -0.00058007227954038807 -0.0089975403717902514 -0.01834253682692287 -0.0073126066900136332 -0.027470268918282595 0.063802741869376664 -0.0084322145957870416 0.01456052820412973 0.018653751750693798 0.070475374573686564 0.061964391576021544 -0.0060434656019004995 0.016709260208010144 0.094909046218522017 0.018301035018258773 -0.016111999560067748 0.036765170291739986
leaf_weight=37.515218406915665 9.1758791208267194 50.560408622026443 304.94724121689796 38.749090731143951 1380.4197517633438 89.274442851543427 9.140880346298216 471.59929868578911 88.485522389411926 11.589221358299254 46.050230950117111 137.86023458838463 44.478191077709198 310.90306141972542 1173.4592254459858 618.49233242869377 328.87523022294044 44.94648689031601 17.579360157251358 657.48608130216599 208.54751735925674 132.19275736808777 50.74269050359726 19.772791951894764 165.52281233668327 24.503701746463776 11.834752351045607 138.55447840690613 8.8998019099235517 209.72817003726959
leaf_count=137 33 178 1093 138 4963 322 33 1708 314 41 166 499 161 1129 4283 2267 1197 162 63 2385 751 469 178 71 598 87 42 500 32 729
internal_value=-0.000268072 0.0084784 -0.00418457 0.00533496 0.00448423 0.0200234 0.0348588 0.000219424 0.0244071 0.0126289 0.00259394 0.00852921 -0.00348298 -0.00737542 -0.00445195 -0.0125862 -0.00286898 0.00471348 0.00740709 -0.00248336 0.0183887 0.00226552 0.0596619 0.00216912 0.000913457 0.00901258 0.0421775 0.00504924 0.0377299 0.0309321
internal_weight=6841.89 2116.11 4725.78 1767.33 1728.59 215.973 126.699 1985.46 348.774 66.8153 57.6395 487.286 182.338 2740.32 1755.44 984.883 366.39 581.976 537.03 1498.17 226.127 1512.61 59.8836 840.688 812.015 340.416 36.3385 304.077 28.6726 260.289
internal_count=24729 7564 17165 6343 6205 773 451 7176 1221 240 207 1753 660 9989 6388 3601 1334 2105 1943 5423 814 5432 211 3038 2935 1227 129 1098 103 907
is_linear=0
shrinkage=0.05


Tree=8
num_leaves=31
num_cat=0
split_feature=3 37 21 5 36 36 13 18 18 5 10 18 35 14 14 35 37 35 18 10 35 14 14 11 40 18 36 37 14 28
split_gain=86.6377 46.6616 46.3531 70.4317 43.403 45.3558 40.9257 38.1815 40.7552 33.7635 27.9189 27.3514 27.1958 26.5191 31.3565 29.6638 26.3126 29.8341 27.3893 40.5173 25.4081 24.5208 23.5066 71.8807 44.6119 42.1238 31.657 30.65 30.6468 29.0545
threshold=0.26014285714285795 0.0059304141594019319 0.0052493014891012999 147.5150531747415 0.0044850654405789734 0.00012834297357405824 144.61291275080856 0.0011385552939937595 0.0079326112038882197 108.76638303935975 149.47030000000004 -0.0085157623490507688 0.0052660261947184437 108.89316250000002 109.01669000000003 7.1221458372960913e-05 -0.012169043255894905 -0.0018912268723461632 -0.016356944094499001 132.74682000000004 0.0029819224840118013 109.58826750000001 154.21263250000001 155.73029244457152 0.00059258616770632288 -0.0054569197606557087 -0.0011399931883884216 0.00035547491640586243 154.89205750000005 59.742461978689171
decision_type=2 2 2 2 2 2 2 2 2 2 2 2 2 2 2 2 2 2 2 2 2 2 2 2 2 2 2 2 2 2
left_child=1 2 7 6 5 16 9 -1 -9 -4 -7 -12 22 15 -15 -11 -2 18 19 -18 -19 -16 25 29 -25 -5 27 -26 -28 -24
right_child=4 -3 3 12 -6 10 -8 8 -10 13 11 -13 -14 14 21 -17 17 20 -20 -21 -22 -23 23 24 26 -27 28 -29 -30 -31
leaf_value=0.0032122130467095167 -0.036695181406849763 -0.018397674929242897 0.037581076995013903 0.050246161614435285 -0.02118799065720689 0.011811226754539111 0.032451535900086974 -0.014759522255104303 0.015085146627985336 0.070631584249130866 0.023754485680759135 -0.02745879309830572 0.042152644756525838 0.056938781890432305 -0.020793280318519597 -0.036564231805251951 0.067302667497524532 0.0044899526364347332 -0.024254905964670299 -0.0092523432244015647 -0.014765612277810432 0.010560876089964748 0.048586114892408522 0.016831539250205932 -0.036495320346903413 -0.0088292807206345799 0.055751362971415835 0.050106407822351512 -0.032753681734982824 -0.031663759299734189
leaf_weight=1653.3198962509632 84.218336552381516 240.30443757772446 111.45852202177048 31.248455047607422 484.44700261950493 508.08905836939812 247.17400678992271 701.0948438346386 136.69309455156326 7.3543183803558341 35.490184098482132 98.229161202907562 35.722222328186035 35.388396173715591 64.756430774927139 52.702652215957642 20.041969239711761 532.67845141887665 376.18235477805138 125.57768768072128 252.53622701764107 1682.9020913243294 108.42355063557625 152.12609875202179 15.824827522039412 878.78953608870506 10.382025092840193 28.830380916595459 168.99763098359108 12.588380098342894
leaf_count=4594 238 674 305 87 1360 1410 678 1956 380 20 99 276 99 97 180 148 56 1480 1054 352 707 4651 301 423 44 2445 29 80 471 35
internal_value=0.000114976 0.00321591 0.00406239 0.00765526 -0.00773879 -0.00453403 0.0132821 -0.00119424 -0.00989008 0.0108579 0.00646135 -0.0138664 -0.000930609 0.00924191 0.0103426 -0.0234375 -0.00960645 -0.00786098 -0.0171277 0.0012841 -0.00170291 0.0093991 -0.00202428 0.00671873 -0.00406451 -0.00680078 -0.0182535 0.0194167 -0.0276312 0.040238
internal_weight=8893.57 6376.08 6135.78 3644.67 2517.49 2033.04 2201.74 2491.11 837.788 1954.56 641.808 133.719 1442.93 1843.1 1783.05 60.057 1391.24 1307.02 521.802 145.62 785.215 1747.66 1407.21 497.173 376.161 910.038 224.035 44.6552 179.38 121.012
internal_count=24729 17697 17023 10093 7032 5672 6079 6930 2336 5401 1785 375 4014 5096 4928 168 3887 3649 1462 408 2187 4831 3915 1383 1047 2532 624 124 500 336
is_linear=0
shrinkage=0.05


Tree=9
num_leaves=31
num_cat=0
split_feature=24 37 15 3 15 36 20 2 4 12 24 21 37 36 37 40 37 38 10 7 37 15 10 17 12 23 36 40 15 17
split_gain=62.584 40.7601 39.8774 31.5182 29.2856 25.9117 31.6223 31.4873 24.6418 24.3956 23.3347 24.2663 30.3456 22.4384 28.9697 21.3303 20.6867 20.6362 19.809 61.3282 39.243 36.014 49.1873 33.6246 32.9529 30.7517 28.3344 23.8536 32.5422 21.4718
threshold=148.14329125871703 0.0048478453767747962 148.21622811740636 0.08800000000000148 145.54228128648268 -0.006339796096059668 67.391807801518198 0.0012971639502391069 144.04960000000003 147.60041000000004 105.46640415817704 0.0052493014891012999 -0.00046918491859443407 0.0043805635949571995 -0.0049515676490432528 0.0018362480981725276 -0.009928959587363782 0.12840712067298191 115.56241000000001 113.99625890888292 0.0019363772902268874 110.88793538620985 110.21898 -0.0034975513031150203 127.35827500000001 0.031491863583170236 0.0013699727713013534 0.0005378907690400909 115.21842788865804 -0.0017365974067849452
decision_type=2 2 2 2 2 2 2 2 2 2 2 2 2 2 2 2 2 2 2 2 2 2 2 2 2 2 2 2 2 2
left_child=2 4 3 10 -2 8 13 9 16 -8 -1 12 -12 18 -15 -6 17 -5 19 21 27 22 23 -7 -20 -23 -24 28 -21 -29
right_child=1 -3 -4 5 15 6 7 -9 -10 -11 11 -13 -14 14 -16 -17 -18 -19 24 20 -22 25 26 -25 -26 -27 -28 29 -30 -31
leaf_value=-0.051104031314466475 0.077651589103854002 0.026837235913799429 -0.037364087671136754 0.087684857423823315 0.0033505671706892202 -0.042635306046933621 -0.016320526700176093 0.0055867079388210727 0.027487340462442639 0.054733073061874894 0.0077647778807697189 0.0024527455752679471 0.049316438526616636 0.072392956739248657 0.0083044487932589072 0.035086226268293448 -0.034523616923083054 -0.012045343902953577 -0.026229067484537957 -0.022827663991191908 -0.022685222448318547 -0.0247839496736788 0.046235324945992889 0.00088336814876676317 -0.0028357347235340711 0.053523485791329574 -0.011787748926086168 0.018512775167922838 0.091750997339024865 0.05457954322063957
leaf_weight=14.941588699817656 13.563331097364424 218.27083712816238 83.123973160982132 6.8312954008579281 2610.5779387652874 49.326241552829742 797.19421926140785 233.81902518868446 23.200507700443268 12.266208529472349 96.824615299701691 250.787218272686 80.447975248098373 18.790004163980484 286.33212119340897 54.043251484632492 152.80006274580956 21.549716085195541 161.16972813010216 32.9527348279953 36.574030131101608 208.58930510282516 89.478183746337891 443.17768681049347 2282.3583863377571 13.339020550251005 27.508932054042816 65.542051702737808 7.6322769224643698 111.41397669911385
leaf_count=44 38 621 247 20 7540 146 2346 683 67 36 278 730 226 54 833 155 451 63 472 96 107 608 259 1289 6664 39 80 191 22 324
internal_value=9.22715e-05 0.00606054 -0.00299027 -0.0024731 0.00436725 -0.00358812 -0.00285727 -0.0105753 -0.0210296 -0.0152438 0.0103177 0.0124617 0.0266213 -0.000757201 0.0122511 0.00399422 -0.0272423 0.0119597 -0.0018819 0.00373839 0.0252352 -0.00283188 0.00344752 -0.0034752 -0.00437871 -0.0200773 0.0325915 0.0332918 -0.0012804 0.0412209
internal_weight=8504.43 2896.46 5607.97 5524.85 2678.18 5081.85 4877.46 1043.28 204.382 809.46 443.001 428.06 177.273 3834.18 305.122 2664.62 181.181 28.381 3529.06 1085.53 254.115 831.419 609.491 492.504 2443.53 221.928 116.987 217.541 40.585 176.956
internal_count=24729 8354 16375 16128 7733 14850 14249 3065 601 2382 1278 1234 504 11184 887 7695 534 83 10297 3161 740 2421 1774 1435 7136 647 339 633 118 515
is_linear=0
shrinkage=0.05


Tree=10
num_leaves=31
num_cat=0
split_feature=3 3 37 2 9 28 8 29 8 37 19 29 15 3 19 35 14 12 2 3 24 14 27 10 19 15 22 19 12 40
split_gain=131.033 34.0194 22.672 23.6814 23.802 23.1972 23.0354 21.3535 20.1792 21.2154 18.9034 17.5482 21.9121 20.3886 19.9422 17.603 17.2787 29.2454 21.6078 19.3182 22.0261 23.2016 17.802 17.0745 20.2555 15.7181 15.5913 15.5247 14.4435 13.1971
threshold=0.34782142857142878 0.10792857142857266 0.0053709974149581683 0.00046603105530290559 150.17880224909089 13.989174011265382 149.34365000000003 14.827382987537158 157.25105000000005 -0.0081770071677640926 6.1587696276017194 13.628259671652872 155.47902093027491 0.50039285714285719 2.7890948228557426 -0.0073754270872873331 109.62623750000002 109.72354500000002 0.00095125549699569755 0.18399999999999853 159.0267073991217 131.45420500000003 0.2613569493839521 127.37072000000001 7.7879378758184137 158.91354000061241 -0.6066378422466433 6.7008825751483192 131.40255000000005 0.0014752330955621039
decision_type=2 2 2 2 2 2 2 2 2 2 2 2 2 2 2 2 2 2 2 2 2 2 2 2 2 2 2 2 2 2
left_child=1 -1 3 4 6 -6 -3 -4 10 -10 11 12 14 -13 29 -15 17 18 -5 -18 21 27 -20 24 -9 -22 -12 28 -21 -2
right_child=8 2 7 16 5 -7 -8 23 9 -11 26 13 -14 15 -16 -17 19 -19 22 20 25 -23 -24 -25 -26 -27 -28 -29 -30 -31
leaf_value=-0.011515576617891654 0.034916739370885762 0.01875323753211142 -0.021097673686518804 -0.0020053202882560519 0.091482665884458247 -0.0081848005790729639 0.077975358682336279 0.068101458051792352 -0.0020422037830890392 0.097237879855371412 0.032913309341706623 0.010429754402507692 -0.025971952420574287 -0.013577093394275165 0.025716845246439086 0.051865384654452062 -0.007711755753699194 0.098161407087713148 0.09655477261120568 0.016731381706680322 0.088805464842415804 -0.0027763224997384892 0.020634452725325325 0.010797132191383644 -0.014344181700908771 0.013037281604154223 -0.0031757403422605027 -0.0086323777661452186 0.091727928814992352 0.079257178026457209
leaf_weight=914.47487211227417 28.021267980337143 54.053742527961731 47.423457592725754 136.92847090959549 6.2817629575729361 82.655399709939957 23.58378392457962 28.052557080984116 8.0075687170028704 16.405328631401062 37.955439746379852 268.53274413943291 13.020026385784147 12.440545767545698 88.294223785400391 59.046974033117294 1594.3147251904011 9.3907571434974653 10.164925664663313 204.29986700415611 11.253173172473909 2554.9489416182041 32.119359254837036 313.2364649772644 10.143712431192396 17.473165154457092 141.49704283475876 66.41099551320076 6.628209948539733 41.834347248077393
leaf_count=3368 96 195 170 498 23 302 82 94 27 55 133 946 45 42 306 201 5819 32 34 727 40 9267 113 1108 37 63 502 241 24 139
internal_value=-0.00025598 -0.00262095 -0.00105955 -0.00200935 0.0165139 -0.00114514 0.036743 0.0103958 0.0199979 0.0646734 0.0184188 0.0233199 0.0363766 0.016747 0.0415096 0.0404768 -0.00267377 0.0121496 0.0076426 -0.00330127 -0.000843509 -0.00128533 0.0388853 0.0146457 0.0462065 0.0427185 0.00445734 0.0124502 0.0190881 0.0614708
internal_weight=6838.89 6123.84 5209.36 4810.51 166.575 88.9372 77.6375 398.856 715.056 24.4129 690.643 511.19 171.17 340.02 158.15 71.4875 4643.93 188.604 179.213 4455.33 2861.01 2832.29 42.2843 351.433 38.1963 28.7263 179.452 277.339 210.928 69.8556
internal_count=24729 22237 18869 17460 602 325 277 1409 2492 82 2410 1775 586 1189 541 243 16858 677 645 16181 10362 10259 147 1239 131 103 635 992 751 235
is_linear=0
shrinkage=0.05


Tree=11
num_leaves=31
num_cat=0
split_feature=26 24 36 37 36 37 25 10 10 8 12 37 17 19 36 11 37 18 20 36 12 39 24 17 35 23 10 19 10 35
split_gain=79.6853 62.2733 50.1994 61.0034 47.6608 41.2582 38.634 31.702 29.3559 31.3912 27.296 28.3398 37.7123 26.4811 44.7156 26.7196 26.698 27.2032 26.3726 26.7285 36.8312 42.6248 35.9508 30.5606 26.1639 25.9933 25.0239 24.7101 23.2455 22.7748
threshold=0.012839016662837186 147.91661323459513 -1.5033992086466162e-05 0.0059304141594019319 -0.0025149285887477442 0.0025917811212952118 145.73152115030823 107.91013000000001 147.36582000000001 147.61577500000001 109.27435000000001 0.0036982467351691643 0.001110518068988209 5.2847004839094458 -0.0027565142875600186 108.84537064115551 0.0036256618469072137 0.0010703050020016704 71.449953263987766 0.0030004528977398697 110.66944500000001 0.50109111721615551 114.18761547215477 0.0030299248977313513 -0.0011476575242276852 0.029614224826976888 109.59217000000001 1.7167376431882764 130.04637000000002 0.0010060707534538806
decision_type=2 2 2 2 2 2 2 2 2 2 2 2 2 2 2 2 2 2 2 2 2 2 2 2 2 2 2 2 2 2
left_child=1 2 4 6 13 24 7 -4 -8 -10 -6 12 -12 14 15 -1 17 -17 19 20 21 -9 23 25 -3 -22 -23 -21 -15 -26
right_child=-2 5 3 -5 10 -7 8 18 9 -11 11 -13 -14 28 -16 16 -18 -19 -20 27 22 26 -24 -25 29 -27 -28 -29 -30 -31
leaf_value=0.05631572137737928 -0.012868884277974597 -0.010653974500380079 0.036629889481168569 -0.019380139519606553 -0.029009201964782474 -0.017421074917223413 0.042338081390997491 -0.015779619042586276 -0.019473585037370102 0.058423247833295139 -0.0066227237023298363 -0.02701427820035035 0.013729880563358728 0.042103172871624878 0.039734122854272129 0.00066018308644403797 0.032174375470694148 -0.025450178897675164 0.01965677929114543 0.020202366333614486 0.055782157841994945 0.054666977030645172 0.010950045556867462 -0.028912918273350831 0.0070735885161578946 -0.02698398086167382 0.0042883633054117921 -0.0083657690720052268 0.010638533516349949 -0.0045397672799003903
leaf_weight=19.145558744668961 1043.9577807188034 569.93601435422897 104.0340476334095 170.14542010426521 117.05585420131683 487.11154690384865 164.48524013161659 243.6460488140583 46.003813892602921 17.991253137588501 910.96294212341309 119.93744620680809 303.41472321748734 95.760035127401352 74.299752742052078 320.60765367746353 46.747315943241119 144.81248247623444 424.15187352895737 91.07638680934906 102.91902267932892 37.911340624094009 839.44980871677399 14.51036551594734 916.78179720044136 10.449427425861357 70.462384760379791 448.10508549213409 151.6717115342617 782.47834905982018
leaf_count=53 2936 1599 284 477 327 1374 449 680 127 50 2534 334 837 264 206 888 130 404 1168 252 285 104 2318 40 2547 29 195 1242 419 2177
internal_value=0.00010865 0.00183538 0.00511339 0.00962999 -0.000345818 -0.00421775 0.0115174 0.0096371 0.0311591 0.00242594 -0.00585855 -0.00382761 -0.00153758 0.00903355 0.00340259 -0.00167807 -0.00384597 -0.00746389 0.00840689 0.00583945 0.00967264 -0.00417583 0.0147122 0.0394087 -0.00138349 0.0481534 0.0219118 -0.00354015 0.0228159 0.00172585
internal_weight=8890.02 7846.06 5089.76 2785.34 2304.42 2756.31 2615.2 2386.72 228.48 63.9951 1451.37 1334.32 1214.38 853.045 605.613 531.313 512.167 465.42 2282.68 1858.53 1319.35 352.02 967.329 127.879 2269.2 113.368 108.374 539.181 247.432 1699.26
internal_count=24729 21793 14096 7700 6396 7697 7223 6597 626 177 4032 3705 3371 2364 1681 1475 1422 1292 6313 5145 3651 979 2672 354 6323 314 299 1494 683 4724
is_linear=0
shrinkage=0.05


Tree=12
num_leaves=31
num_cat=0
split_feature=24 11 14 20 22 22 37 37 37 18 14 11 2 37 11 37 4 14 37 21 28 25 19 28 14 2 21 22 10 2
split_gain=56.3993 45.3551 34.8438 32.1176 41.9604 31.06 28.7602 28.3896 29.7536 30.4465 27.3578 69.9181 42.0288 31.307 32.9567 46.5284 27.9013 26.8906 24.8933 24.8523 24.8112 29.7285 24.7963 23.5805 26.7757 23.3063 22.0209 21.509 20.9975 40.4681
threshold=147.96658636227932 146.98987932761332 148.02879000000004 65.911487062237143 -0.10905933673089339 0.0014560205785705295 0.0026075076560340697 -0.0067274352238607662 -0.0018412811900420654 -0.00048559230173950135 143.73122000000004 146.24853798822846 0.00076321524152345892 0.00075069940690880587 114.19873248652122 -0.00043893779293369123 110.94550000000001 147.59754000000004 -0.0027083798522992693 -0.3189418850308669 28.30603369798639 142.51758247995903 4.7244212871865896 45.224702794686685 144.24323000000001 0.0012905505545615511 -0.070439712626104253 -0.45388074697953179 115.80108000000001 0.00066681475930159485
decision_type=2 2 2 2 2 2 2 2 2 2 2 2 2 2 2 2 2 2 2 2 2 2 2 2 2 2 2 2 2 2
left_child=2 -2 3 4 7 10 -3 23 -9 19 12 -12 13 14 15 18 -17 -13 -6 27 21 -21 -20 -1 -25 -5 -16 -10 -7 -30
right_child=1 6 -4 25 5 28 -8 8 9 -11 11 17 -14 -15 26 16 -18 -19 22 20 -22 -23 -24 24 -26 -27 -28 -29 29 -31
leaf_value=-0.017222077785100483 0.057434552391652322 0.002487799780007246 -0.029319304987850781 -0.012953954834044266 0.02584355968276807 0.0060192401077744468 0.015058686417199822 -0.024367827486672402 -0.03857896419175439 0.024051885971393027 0.047962523630941493 -0.024089341684561002 -0.0052844021505862046 -0.015510308755787926 0.013735356371943536 0.04422575122726663 -0.046097855715610418 0.052348401172075801 -0.020627066555329338 -0.021834371247983729 -0.031366342085724398 0.044028045751968392 0.019650406461457187 0.028890939802713123 -0.01924109461027039 0.0035958237923790146 0.060149468416576625 0.03848369187258302 -0.028968066494188295 -0.001845440811327374
leaf_weight=75.168247997760773 41.618581175804138 2398.3612007796764 122.2131020128727 976.30178156495094 69.01598984003067 627.43414062261581 561.5122027695179 366.1859238743782 11.913998395204542 76.049695044755936 129.02270877361298 67.902830183506012 497.34243401885033 74.757784605026245 40.158311307430267 114.34012043476105 9.2409261763095838 13.853471428155897 135.31424367427826 42.347490668296814 142.00805792212486 28.775233030319214 53.249643504619598 116.1549556851387 38.462077498435974 271.99658674001694 70.274122178554535 37.728282183408737 156.4682554602623 1136.1031731069088
leaf_count=221 116 6929 366 2888 199 1826 1593 1077 35 222 374 199 1453 216 116 323 27 40 390 124 418 84 153 339 112 794 201 110 461 3323
internal_value=8.8662e-05 0.00560142 -0.00291991 -0.00231995 -0.000195377 0.00253116 0.0048726 -0.00951278 -0.0144874 -0.00380894 0.00858257 0.0250392 0.00532157 0.0146352 0.0192195 0.0122511 0.0374717 -0.0111371 0.000150866 -0.0118722 -0.0192933 0.00481262 -0.00925288 0.0057498 0.0169178 -0.00934786 0.0432712 0.0199889 -0.00148568 -0.00512869
internal_weight=8501.28 3001.49 5499.78 5377.57 4129.27 3194.48 2959.87 934.794 705.009 338.823 1274.47 210.779 1063.69 566.351 491.593 381.161 123.581 81.7563 257.58 262.773 213.131 71.1227 188.564 229.785 154.617 1248.3 110.432 49.6423 1920.01 1292.57
internal_count=24729 8638 16091 15725 12043 9301 8522 2742 2070 993 3691 613 3078 1625 1409 1092 350 239 742 771 626 208 543 672 451 3682 317 145 5610 3784
is_linear=0
shrinkage=0.05


Tree=13
num_leaves=31
num_cat=0
split_feature=3 3 37 2 9 28 8 18 30 21 26 34 2 10 18 26 18 8 5 16 28 19 16 28 2 22 19 10 2 11
split_gain=119.688 31.1816 20.3939 22.1783 21.7865 20.7834 20.1081 19.833 30.7966 16.8804 16.4821 17.0036 16.0964 14.9075 18.9865 14.2677 13.7302 13.2583 22.6773 12.6044 12.5571 12.2723 12.1159 11.8272 16.7243 14.1894 13.3423 11.7908 27.7437 14.6087
threshold=0.34782142857142878 0.10792857142857266 0.0053709974149581683 0.00046603105530290559 150.17880224909089 13.989174011265382 149.34365000000003 0.00063670642836011215 32.986828330519067 0.53322498768517346 0.0025490159733250668 1.0000000180025095e-35 0.0020939251401595597 127.37072000000001 0.013432738444882799 0.005974399509069272 -0.0003920433040240367 149.44047500000002 149.43698894156452 -0.0042832831489434389 16.054601341508093 9.8620394948957095 -0.0020706969360763656 40.096956050817973 0.0011795362462548797 -0.21948255654586907 6.8753058740807651 115.01138000000002 0.0010037815974931331 150.76292082820171
decision_type=2 2 2 2 2 2 2 2 2 2 2 2 2 2 2 2 2 2 2 2 2 2 2 2 2 2 2 2 2 2
left_child=1 -1 3 4 6 -6 -3 12 9 15 -5 -12 21 14 -4 -9 17 18 23 -18 -17 -2 -15 -13 25 -25 -27 28 -21 -29
right_child=7 2 13 10 5 -7 -8 8 -10 -11 11 16 -14 22 -16 20 19 -19 -20 27 -22 -23 -24 24 -26 26 -28 29 -30 -31
leaf_value=-0.011075420695719842 0.0078720856993603275 0.018137620290786041 0.05724915450157745 -0.017629271252953962 0.084497905159601525 -0.0078955728341959987 0.072725648139193397 -0.044108202972926218 0.077231292226375883 -0.0076198997871987986 -0.0043743659487237843 -0.0063182065103483372 0.023810365513981996 -0.02872479534188508 -0.020096032663458562 0.085153255637692327 0.038503387258312649 -0.016382122241216029 0.092405087974618383 0.0099820760009809995 0.029872358175189635 -0.044056842353294462 0.0088833143899338038 0.058314251483210566 -0.010894881608234498 0.021023460574619107 -0.039473952206558596 -0.0014382621487990775 0.079591185188323921 0.013210388390420847
leaf_weight=906.66520407795906 274.01348304748535 54.449427425861359 31.68553227186203 175.04624152183533 6.5731291174888602 82.22851687669754 24.443350225687027 6.0867155492305747 31.522022068500519 34.774772346019745 2792.8278586268425 327.98457363247871 215.59781321883202 22.870595276355743 10.585109293460844 11.099818140268324 28.333675175905228 156.08766704797745 6.5993214249610892 115.75855141878128 137.84206968545914 11.870350301265715 336.65667062997818 21.950765132904053 58.347978949546814 66.741190910339355 10.555047899484633 625.9533084332943 16.334241509437561 233.75891736149788
leaf_count=3368 959 195 103 648 23 302 82 22 104 121 10161 1194 729 83 39 38 101 569 24 421 476 43 1184 79 209 241 38 2273 55 845
internal_value=-0.000243022 -0.00251823 -0.00102787 -0.00193294 0.0159303 -0.00105658 0.0350506 0.0189974 0.0314645 0.0238636 -0.00257905 -0.00198852 0.0134951 0.00979329 0.0378809 0.0309258 0.00200527 -0.00368472 0.000342083 0.00562107 0.0339921 0.00571591 0.00649095 -0.000909109 0.0103482 0.0228372 0.0127623 0.0046817 0.0185898 0.00254476
internal_weight=6835.24 6112.44 5205.77 4803.97 167.694 88.8016 78.8928 722.807 221.325 189.803 4636.28 4461.23 501.482 401.798 42.2706 155.029 1668.41 648.267 492.179 1020.14 148.942 285.884 359.527 485.58 157.595 99.247 77.2962 991.805 132.093 859.712
internal_count=24729 22237 18869 17460 602 325 277 2492 761 657 16858 16210 1731 1409 142 536 6049 2354 1785 3695 514 1002 1267 1761 567 358 279 3594 476 3118
is_linear=0
shrinkage=0.05


Tree=14
num_leaves=31
num_cat=0
split_feature=26 24 36 37 36 37 25 24 20 10 14 12 37 17 35 18 18 36 36 25 17 37 18 9 15 14 24 36 18 35
split_gain=72.1836 56.335 46.449 56.2349 44.0751 38.1368 35.5005 29.523 27.3572 27.0322 26.9944 25.7472 26.6914 34.7827 24.4394 24.2128 27.7187 27.4755 25.1618 23.3122 22.4885 21.9428 22.4141 21.8035 21.6496 23.689 21.5373 28.7979 21.2773 21.2032
threshold=0.012839016662837186 147.91661323459513 -1.5033992086466162e-05 0.0059304141594019319 -0.0025149285887477442 0.0025917811212952118 145.73152115030823 105.46640415817704 71.449953263987766 147.36582000000001 146.03419000000005 109.27435000000001 0.0036982467351691643 0.001110518068988209 -0.0011476575242276852 -0.0018918746836493747 0.013221875113381356 -0.0031525546219874352 -0.0027157957951737806 147.33952832066458 -0.0030374716023101596 -0.014350906476185586 -0.034281917460621307 134.34354150278114 146.72652549098561 147.59754000000004 110.34627302819067 -0.0020849872959567968 -0.007024958313291251 0.0010060707534538806
decision_type=2 2 2 2 2 2 2 2 2 2 2 2 2 2 2 2 2 2 2 2 2 2 2 2 2 2 2 2 2 2
left_child=1 2 4 6 15 14 7 -4 -9 -8 -7 -6 13 24 -3 17 18 -1 -17 20 -11 -2 -23 -18 26 -26 27 -13 -27 -16
right_child=21 5 3 -5 11 10 9 8 -10 19 -12 12 -14 -15 29 16 23 -19 -20 -21 -22 22 -24 -25 25 28 -28 -29 -30 -31
leaf_value=0.0098332473945675833 -0.03929332503487469 -0.01027707852457586 0.06061623618565809 -0.01873619047189996 -0.028265533802090216 0.037777394973752432 0.040446315066994448 0.0059988799347751596 0.019740689995261421 0.048406852915268667 -0.019311148998684174 0.060450274636801249 -0.026307510267846463 0.013111780342119558 0.0068534527369215857 -0.0089195967860191093 0.061779979758629026 0.039337444059090371 0.028159023844349786 0.044194816564381421 -0.039060329018749472 0.041952580922978849 -0.011433894625408919 -0.031573913300231099 0.042877936113464125 0.055931625607667568 -0.011932800793230142 -0.0013956261679104252 -0.03886631785835086 -0.0043527049641978064
leaf_weight=327.24152821302414 70.114641815423965 568.36386534571648 27.591504603624344 169.27956321835518 116.3424306511879 21.676869958639145 165.58561533689499 1917.2351267933846 446.53202566504478 9.4707376360893232 462.75772696733475 23.726572126150131 119.29049149155617 304.29632127285004 917.89203843474388 333.5844184756279 28.864273935556412 103.97990527749062 53.028010189533234 21.800124257802963 32.797659248113632 20.076660513877869 948.82074958086014 7.9848801791667929 44.028978884220123 7.9918818473815945 720.02620413899422 91.06679356098175 22.822287410497665 781.50461307168007
leaf_count=903 203 1599 75 477 327 61 449 5299 1223 26 1313 66 334 837 2547 928 79 286 146 60 91 56 2677 22 122 22 2007 254 63 2177
internal_value=0.000102116 0.00174197 0.00485584 0.00919441 -0.000397824 -0.00402208 0.0109983 0.00919503 0.0085948 0.0297758 -0.0167566 -0.00570764 -0.00373918 -0.00152149 -0.00130175 0.00860793 0.000115474 0.0169476 -0.00383387 0.00219786 -0.0194623 -0.0122823 -0.0103277 0.041551 -0.00641655 0.0193452 -0.00872613 0.0113873 -0.0142798 0.00170006
internal_weight=8885.77 7846.76 5094.57 2790.29 2304.27 2752.2 2621.01 2391.36 2363.77 229.654 484.435 1449.59 1333.25 1213.96 2267.76 854.683 423.462 431.221 386.612 64.0685 42.2684 1039.01 968.897 36.8492 909.663 74.8431 834.82 114.793 30.8142 1699.4
internal_count=24729 21793 14096 7700 6396 7697 7223 6597 6522 626 1374 4032 3705 3371 6323 2364 1175 1189 1074 177 117 2936 2733 101 2534 207 2327 320 85 4724
is_linear=0
shrinkage=0.05


Tree=15
num_leaves=31
num_cat=0
split_feature=5 13 36 14 19 36 26 22 14 14 14 11 26 36 2 19 23 25 14 2 15 12 19 36 10 25 12 36 28 8
split_gain=49.9797 44.3008 56.9317 36.1585 62.3766 40.1845 37.2261 32.5994 30.4557 30.2806 29.7828 45.1714 29.0817 27.3948 52.4354 57.2479 42.2588 26.898 27.8122 26.885 28.9798 26.3418 25.5844 27.3475 24.9825 66.8106 41.8316 30.9402 28.6687 24.7795
threshold=147.44122641552565 146.63790314385429 -0.0010532390211206997 145.08881250000005 3.5822418064610613 0.0045703243643707711 0.0029708456715333534 0.0014560205785705295 145.08881250000005 146.03419000000005 110.5553225 108.84537064115551 0.0038205808192156997 -0.0051628902201272244 0.0014171469745887643 2.8629350922829033 -0.011740111659492682 147.14811332092981 147.09378750000005 0.0038894845082017792 144.84367457028648 144.84299500000003 9.6318897433836508 0.006733985989362202 115.80108000000001 115.07376432205307 127.35827500000001 0.0022471043803597439 32.625400896457776 114.89117500000002
decision_type=2 2 2 2 2 2 2 2 2 2 2 2 2 2 2 2 2 2 2 2 2 2 2 2 2 2 2 2 2 2
left_child=1 3 12 6 21 19 7 29 -2 -10 11 -9 -3 -8 24 -16 -17 18 -11 20 -6 -5 -19 -24 25 -15 -26 28 -27 -1
right_child=8 2 -4 4 5 -7 13 10 9 17 -12 -13 -14 14 15 16 -18 22 -20 -21 -22 -23 23 -25 26 27 -28 -29 -30 -31
leaf_value=0.015352107714040431 0.066086322667458217 0.053724945385301863 -0.038428376418860426 -0.03303128164026356 0.051113770566487152 0.074112075425963347 -0.019472397064023442 -0.042605423781115308 -0.040044245513247735 0.085348202343987697 -0.012173822980425398 0.028630481139061571 -0.0069625524887662188 -0.0032582644412618073 -0.010374829139573332 0.039414252055671943 0.0077271755041351938 0.0027026807317984346 0.018443921332907582 0.084038874278135792 -0.021651328933560483 0.04806115181823134 0.014356177361721376 0.081978035562505769 -0.033545082987535585 -0.031673838727670246 -0.0072286585442899011 0.080705723713723407 0.056356339713394057 0.05656359456972259
leaf_weight=216.95271992683411 20.507534056901932 22.281731396913528 191.02736881375313 10.924758434295653 15.080286681652067 15.202246874570845 276.84677115082741 26.934288531541824 36.936473578214645 17.953788846731186 227.24978819489479 128.06465765833855 173.09727290272713 1208.945631891489 238.03189408779144 171.97824585437775 271.05257371068001 2442.7520753443241 115.2232554256916 7.1670109033584586 147.70196083188057 120.17714422941208 310.35834828019142 15.708208471536635 165.35552248358727 17.499338269233704 1739.9614530801773 34.337177038192749 19.616617441177368 43.846741229295731
leaf_count=618 56 65 573 32 44 45 821 81 107 51 666 367 508 3541 698 498 790 7032 330 20 438 350 887 44 492 51 5104 100 56 124
internal_value=0.000128006 -0.00269567 -0.0190188 -0.00145964 0.0149147 -0.00377073 -0.00254149 0.00865148 0.00536552 0.00494182 -0.000647465 0.0162518 -4.15298e-05 -0.00427853 -0.0031907 0.00940196 0.0200276 0.0055144 0.0274634 -0.0107375 -0.0149103 0.0413037 0.00445868 0.0176139 -0.00588284 -0.000481575 -0.00951257 0.0464984 0.0148521 0.0222808
internal_weight=8448.77 5489.33 386.406 5102.93 316.253 185.152 4786.67 643.048 2959.44 2938.93 382.249 154.999 195.379 4143.63 3866.78 681.063 443.031 2902 133.177 169.949 162.782 131.102 2768.82 326.067 3185.72 1280.4 1905.32 71.4531 37.116 260.799
internal_count=24589 16082 1146 14936 929 547 14007 1856 8507 8451 1114 448 573 12151 11330 1986 1288 8344 381 502 482 382 7963 931 9344 3748 5596 207 107 742
is_linear=0
shrinkage=0.05


Tree=16
num_leaves=31
num_cat=0
split_feature=3 3 8 19 40 34 40 37 21 37 43 14 40 40 36 19 37 30 12 14 12 16 37 41 13 19 39 13 10 7
split_gain=111.223 25.8301 17.4666 17.6097 17.0311 16.3044 16.6296 15.7348 15.1824 14.4445 14.1185 12.6989 33.5183 17.4054 13.7734 16.4003 12.4377 15.9318 15.6774 19.3562 15.2435 13.7177 12.7969 14.5343 13.8497 29.6364 22.431 20.749 13.5743 16.3838
threshold=0.34782142857142878 0.10792857142857266 157.25105000000005 6.3213176136884224 0.001520270378205146 1.0000000180025095e-35 0.00054130635691616966 -0.0081770071677640926 -0.13282439421271872 -0.0061660447351445926 0.86714833742612163 131.92197750000003 0.00081414766865103123 0.00089590787340844316 0.000410912754798265 6.3213176136884224 0.0049170824746906381 27.655153843772137 109.94201000000002 108.39855750000002 155.72085500000003 -0.00063627778085273412 -0.0054060040876467421 0.0010529383357637426 156.33386224587193 3.6858705447327691 0.086875961291193585 156.50854946644577 155.14464000000004 155.4970206445067
decision_type=2 2 2 2 2 2 2 2 2 2 2 2 2 2 2 2 2 2 2 2 2 2 2 2 2 2 2 2 2 2
left_child=1 8 3 4 9 6 -3 -4 -1 -2 11 12 -7 -14 15 -15 17 22 19 -19 -18 -21 23 -8 28 26 -26 -27 29 -24
right_child=2 5 7 -5 -6 10 16 -9 -10 -11 -12 -13 13 14 -16 -17 20 18 -20 21 -22 -23 24 -25 25 27 -28 -29 -30 -31
leaf_value=0.044671734926328671 0.040683775267908513 0.014052074654718364 -0.0014146797236212754 0.0026445390329809023 0.027915855812920193 -0.0031561806414216855 0.038949406884486421 0.082991317906579154 -0.011044074747817432 0.002726720745798539 0.010672385694689897 -0.0024199417299865349 0.061993040360009605 0.046169797394721296 -0.00048292591667073301 -0.015227033834957316 0.0035390087427093864 -0.037499920008262654 -0.00039521057118262898 0.072256720690012377 0.070929930259147331 -0.012272551165761489 -0.0087174113365130652 -0.0030948469622630623 0.069636016119093647 0.05401499386159539 0.0075289630449414035 -0.024652505365996669 -0.029210050932792355 0.063311233788188703
leaf_weight=12.398894995450972 30.016008675098419 133.28097394108772 7.8226076662540462 165.47273764014244 342.70512348413467 251.77144786715508 30.702490597963333 18.769926786422729 882.41217818856239 151.93470788002014 419.59884309768677 1119.9553456306458 28.404975116252899 53.115848362445831 53.30781751871109 13.677623778581617 311.08797687292099 7.4699785709381095 706.78288102149963 21.344265043735504 8.6237738728523237 6.191994875669482 1731.7273577153683 62.19369187951088 24.983567506074905 9.6795572936534864 34.77205753326416 62.527044057846069 81.969084501266479 7.9310152232646933
leaf_count=45 101 484 26 581 1148 914 111 60 3306 529 1510 4066 98 184 189 49 1092 27 2563 75 30 22 6347 225 89 35 125 229 300 29
internal_value=-0.000229978 -0.00242742 0.0183985 0.0168664 0.0213518 -0.0010726 -0.00324248 0.058162 -0.0102721 0.00898841 0.00255306 0.000312046 0.007956 0.0267951 0.0184705 0.0335973 -0.00398413 -0.00505518 0.00122248 0.033884 0.00535678 0.0532489 -0.00733065 0.0108009 -0.00819283 0.0074487 0.0334957 -0.0141068 -0.00932593 -0.00838904
internal_weight=6792.63 6075.91 716.721 690.129 524.656 5181.1 3241.27 26.5925 894.811 181.951 1939.83 1520.23 400.278 148.506 120.101 66.7935 3107.99 2788.27 741.789 35.0062 319.712 27.5363 2046.49 92.8962 1953.59 131.962 59.7556 72.2066 1821.63 1739.66
internal_count=24589 22144 2445 2359 1778 18793 11783 86 3351 630 7010 5500 1434 520 422 233 11299 10177 2687 124 1122 97 7490 336 7154 478 214 264 6676 6376
is_linear=0
shrinkage=0.05


Tree=17
num_leaves=31
num_cat=0
split_feature=3 24 13 19 13 2 11 17 2 10 37 2 6 13 10 4 12 19 25 14 15 14 12 35 13 14 19 15 19 13
split_gain=69.9348 43.1469 34.1722 32.9163 40.362 31.6192 26.6044 45.8984 35.0068 56.773 30.2535 27.8123 26.8866 33.2682 26.3465 26.1742 25.7111 31.79 30.6209 31.833 35.9888 24.5046 27.2316 24.3812 22.0337 27.9557 21.6536 21.4897 32.7343 30.6664
threshold=0.23303571428571249 147.82676128045611 146.63790314385429 4.0813236489852285 147.09712458777528 0.0018097906741526926 147.51283053678932 0.00035945544673754442 0.00075555368043692974 115.80108000000001 0.0047483000952068264 0.0007073262518839952 108.63350000000001 115.62310087075635 134.82150000000001 121.94740000000002 147.24413000000001 1.7167376431882764 156.07043910260572 155.23210000000003 155.54547234158125 108.89316250000002 108.86117 0.0057324157205565504 155.11746548606524 154.40366500000002 3.2869607646372612 145.402308062027 4.1517808163288441 145.60645661632569
decision_type=2 2 2 2 2 2 2 2 2 2 2 2 2 2 2 2 2 2 2 2 2 2 2 2 2 2 2 2 2 2
left_child=6 2 5 4 -4 27 7 11 12 -10 23 26 -9 21 -15 -11 -3 -18 19 24 -21 -14 -23 -8 25 -19 -1 -2 -29 -30
right_child=1 16 3 -5 -6 -7 10 8 9 15 -12 -13 13 14 -16 -17 17 18 -20 20 -22 22 -24 -25 -26 -27 -28 28 29 -31
leaf_value=0.00064546360020310703 0.001730495296054132 -0.039528960350740432 0.044295607187428747 0.046702579988798509 -0.028996521303636627 -0.014891453029335448 -0.00031389950041026625 0.044645411429783836 -0.018816241456727119 0.052685409740928529 -0.028673088424456879 0.0058236614744642951 -0.030731926957344603 0.048529253676108407 0.018689291286205511 0.0083146601326540611 -0.02531224941595623 -0.0067047147613034513 -0.039389905535085291 0.06315929167940755 0.0041591371307769234 0.067431848201799996 0.0082894053111484158 0.06637023570789384 0.054954272324627289 -0.049436766385505156 -0.016642634311161114 -0.041570813449131161 -0.033340225014165475 0.06124147253915696
leaf_weight=378.58025351166725 1432.9730349779129 88.286903023719788 30.745086312294006 69.425051689147949 48.285655498504639 453.15898314118385 1843.4470326602459 80.41804102063179 215.26598554849625 34.962843239307404 95.510414570569992 817.12207099795341 38.84582194685936 98.566450476646423 296.45449098944664 673.25966081023216 295.99929311871529 489.93981269001961 62.804823845624924 33.751117020845413 110.35923445224762 20.113127738237381 602.31807786226273 13.809904605150221 13.366763651371 41.517194747924805 347.26700735092163 69.511803805828094 15.792387545108793 18.739788115024567
leaf_count=1056 3985 255 84 191 134 1281 5140 217 599 95 276 2265 109 269 808 1854 842 1383 180 94 311 54 1656 38 38 117 969 194 44 51
internal_value=5.44313e-05 -0.00574142 -0.00155842 0.0215828 -0.00048391 -0.00328462 0.00347049 0.00601762 0.0109013 0.00367028 -0.00122937 -0.000503209 0.016776 0.0146542 0.026135 0.0105051 -0.0136162 -0.0114326 -0.0059675 -0.00292064 0.0179772 0.007796 0.0102005 0.00018194 -0.00844828 -0.0100429 -0.00762568 0.000137423 -0.0218036 0.017987
internal_weight=8830.6 3274.66 2138.63 148.456 79.0307 1990.18 5555.94 3603.17 2060.2 923.488 1952.77 1542.97 1136.72 1056.3 395.021 708.223 1136.03 1047.74 751.739 688.934 144.11 661.277 622.431 1857.26 544.824 531.457 725.847 1537.02 104.044 34.5322
internal_count=24589 9184 5964 409 218 5555 15405 9951 5661 2548 5454 4290 3113 2896 1077 1949 3220 2965 2123 1943 405 1819 1710 5178 1538 1500 2025 4274 289 95
is_linear=0
shrinkage=0.05


Tree=18
num_leaves=31
num_cat=0
split_feature=18 5 13 36 14 19 36 26 22 37 24 18 14 11 18 15 18 24 28 15 14 28 35 37 35 2 36 35 37 19
split_gain=45.682 42.5176 39.1505 54.124 34.8562 56.0902 37.5158 37.2138 29.4889 29.2971 28.5885 28.3376 27.8536 41.5632 29.0932 27.5398 26.5834 24.6926 24.062 23.9524 29.0763 41.9539 25.8694 25.8074 24.5542 24.001 23.9331 45.0849 30.3684 23.8539
threshold=0.020612559922738919 147.44122641552565 146.63790314385429 -0.0010532390211206997 145.08881250000005 3.5822418064610613 0.0041715336068359208 0.0029708456715333534 0.0014560205785705295 0.0039658610294177063 147.91661323459513 0.0028488532818294891 110.5553225 108.84537064115551 0.0029220477289364504 144.84367457028648 -0.0080413365387716467 148.61563073177095 49.314549717541034 147.42037479835633 147.92264500000002 49.890874342576609 -0.0033174688549206239 0.0010043298250996815 0.0027459640432559444 0.0012342733290618341 -0.0051628902201272244 -0.0079079330418449483 -0.0067274352238607662 9.6318897433836508
decision_type=2 2 2 2 2 2 2 2 2 2 2 2 2 2 2 2 2 2 2 2 2 2 2 2 2 2 2 2 2 2
left_child=1 2 4 16 7 -6 10 8 11 19 15 -1 13 -10 -15 -7 17 -4 -16 22 21 -21 -3 29 -24 -25 -9 -28 -29 -22
right_child=-2 9 3 -5 5 6 -8 26 12 -11 -12 -13 -14 14 18 -17 -18 -19 -20 20 23 -23 24 25 -26 -27 27 28 -30 -31
leaf_value=0.012997309825429168 0.028804995312882338 0.054388214658363701 -0.03114048612585495 -0.037520630593810424 0.038990128952102396 0.047637254662144177 0.057818416916691519 -0.018901514825601689 -0.041510737947959134 0.019143349951056002 0.076673996527850743 0.054165793305363523 -0.011817202295172993 0.0041749390770473077 0.062434644857934735 -0.0237645394871768 0.016452870131674326 0.04822709910127803 -0.036976471357510858 0.033258013589930163 0.0041808904669983857 -0.022308426737920481 -0.03312176554490117 -0.0092175097735268437 0.031353828801794249 0.018209352994350208 0.052769973523028306 0.017504440468328067 -0.005089631242639673 0.028507910058974406
leaf_weight=210.34563201665878 136.56916332244873 11.417739093303679 74.679828703403473 188.08924239873886 132.96883338689804 14.956416606903074 21.910982400178909 274.97850096225739 26.36914798617363 306.37917432188988 8.6319677233695966 52.166043400764465 225.67878377437592 65.996287196874619 56.215001463890076 139.12396687269211 109.11011502146721 11.280127078294752 6.8261224329471579 165.04229816794395 1449.7472501695156 42.773025304079056 107.31836161017418 613.93817690014839 17.122359067201614 91.677186489105225 35.112828284502029 155.15867158770561 3584.6202745735645 108.29526728391647
leaf_count=596 389 32 223 573 382 43 64 821 81 861 24 146 665 188 159 416 318 32 20 474 4168 123 313 1775 49 262 101 450 10534 307
internal_value=0.000121936 -0.000349568 -0.00297842 -0.018383 -0.00180055 0.0142303 -0.00360208 -0.00288531 0.00828303 0.00451729 -0.011873 0.0211783 -0.000599882 0.0156897 0.0273788 -0.0168336 6.98015e-05 -0.0207254 0.0516704 0.00279863 0.00392223 0.0218212 -0.0176414 0.00227901 -0.0242503 -0.00565407 -0.00466016 -0.00362276 -0.00415223 0.00587179
internal_weight=8444.5 8307.93 5394.22 383.159 5011.06 317.592 184.623 4693.47 643.597 2913.71 162.712 262.512 381.085 155.407 129.037 154.08 195.07 85.96 63.0411 2607.33 2471.47 207.815 135.858 2263.66 124.441 705.615 4049.87 3774.89 3739.78 1558.04
internal_count=24589 24200 15836 1146 14690 929 547 13761 1855 8364 483 742 1113 448 367 459 573 255 179 7503 7109 597 394 6512 362 2037 11906 11085 10984 4475
is_linear=0
shrinkage=0.05


Tree=19
num_leaves=31
num_cat=0
split_feature=2 26 25 14 40 19 11 9 36 36 39 18 4 33 15 13 25 13 14 14 20 40 30 4 4 16 30 17 18 9
split_gain=72.51 30.4121 27.4733 21.2756 27.3855 19.7342 23.1052 19.4014 21.1849 21.2814 18.8895 21.6888 22.9284 16.7216 17.1654 22.1023 35.6295 16.6057 48.3359 16.8777 16.183 16.0718 15.3919 14.6871 14.5719 14.337 25.4017 20.2225 16.0001 18.4787
threshold=0.0020939251401595597 0.005974399509069272 157.12045083335826 130.00127750000004 0.00072874509607037642 1.7167376431882764 156.40470890799784 131.31330421136974 0.011032870728292734 0.0075151631495478663 0.82346255346252872 0.0053824476317427825 133.18160000000003 1.0000000180025095e-35 139.42086120127954 133.76132295824792 134.51675069628865 143.32423140830457 146.75112750000002 136.31304500000002 46.287252301451169 0.00087876339598006923 11.192577175359169 110.26730000000002 108.83390000000001 0.00018941398514649158 33.196645975822271 -0.00046171818298323947 0.0077107771603441852 114.73791461469715
decision_type=2 2 2 2 2 2 2 2 2 2 2 2 2 2 2 2 2 2 2 2 2 2 2 2 2 2 2 2 2 2
left_child=1 25 3 4 23 6 13 -2 9 10 11 12 -9 14 15 -5 -17 19 -19 -14 -4 -7 -20 -3 -6 27 28 -1 29 -27
right_child=7 2 20 5 24 21 -8 8 -10 -11 -12 -13 17 -15 -16 16 -18 18 22 -21 -22 -23 -24 -25 -26 26 -28 -29 -30 -31
leaf_value=-0.0026209611679334989 -0.0044602336058054432 0.0088073890732608927 0.089423490111693468 -0.0038738750015903573 0.061919307670750795 -0.01206278074822293 0.054927914903056874 0.062497314384866567 -0.022970086681604142 0.068910152496259244 -0.02126810616833346 0.074927113533673165 0.034937272923118733 -0.0076855249491757614 0.0053952439360095633 0.11343116107450049 0.025381712687288279 0.077254470080519791 0.079617102715237503 -0.02202422664343049 0.020407174814146042 -0.00050181715583832423 0.0034786036369519723 -0.018716514158246985 0.016325275179626505 -0.0081464531392423985 0.081598330571631364 -0.013587150892785472 -0.010422770878723642 0.0048084871531346735
leaf_weight=856.75947731733322 63.155973881483078 99.171420454978943 13.188054651021956 30.934039771556854 18.474603354930878 377.21986290812492 24.940344959497452 32.862157464027405 20.780494958162308 30.375580847263336 20.584012717008591 22.910976529121399 18.862715601921082 162.27608817815781 276.78611335158348 15.50201779603958 44.386796146631241 35.418078720569611 7.1634433269500724 41.871831148862839 23.861526221036911 1480.3933852016926 90.454556673765182 94.798901230096817 340.67289656400681 398.23176777362823 9.1454550325870496 825.4231268465519 420.54981249570847 891.39030107855797
leaf_count=3145 215 360 43 111 62 1380 86 107 74 101 70 74 61 581 987 55 158 115 24 141 85 5303 301 345 1197 1492 33 3059 1552 3272
internal_value=-0.000216813 -0.00148291 0.00218443 0.00164984 0.0104944 -0.000378018 0.00789665 0.0208741 0.0258542 0.0292305 0.0247686 0.028566 0.0238792 0.00568301 0.0115844 0.030446 0.048173 0.0173298 0.0272196 -0.00433333 0.044974 -0.00284947 0.00906583 -0.00464434 0.0186706 -0.00472017 -0.00150931 -0.00800191 -0.00195374 0.000808037
internal_weight=6788.55 6404.11 3002.61 2965.56 553.118 2412.44 554.825 384.44 321.284 300.503 270.128 249.544 226.633 529.885 367.609 90.8229 59.8888 193.771 133.036 60.7345 37.0496 1857.61 97.618 193.97 359.147 3401.5 1719.32 1682.18 1710.17 1289.62
internal_count=24589 23306 10753 10625 1964 8661 1978 1283 1068 994 893 823 749 1892 1311 324 213 642 440 202 128 6683 325 705 1259 12553 6349 6204 6316 4764
is_linear=0
shrinkage=0.05


Tree=20
num_leaves=31
num_cat=0
split_feature=3 18 37 25 37 37 12 14 37 15 12 19 30 12 21 18 36 18 23 37 8 35 40 5 25 15 25 14 36 17
split_gain=63.9726 37.2798 38.1101 30.2423 23.8543 29.726 32.3891 44.5543 36.7379 26.2485 49.939 25.1327 23.9225 35.5358 23.1403 34.6682 44.0899 22.3823 21.6093 22.4152 51.5332 28.3642 25.7679 20.4323 23.7123 22.3425 33.9029 22.5406 20.3734 26.3029
threshold=0.23303571428571249 0.018909571867566258 -0.012169043255894905 156.3952835259131 0.0059304141594019319 0.00033604426800498693 108.86117 110.02384000000002 1.0000000180025095e-35 155.64447524857317 154.54557000000003 3.6509058536655394 14.351840720027946 110.12186500000001 -0.059724896463634984 -0.0057502741282404171 -0.0031525546219874352 0.020612559922738919 -0.066489068044085164 0.0055580094483603246 133.18672500000002 0.0033640317675334157 0.00093782387596498529 147.33066447083252 145.73152115030823 154.76785987744901 154.09353390605392 154.40366500000002 -0.0031525546219874352 1.0000000180025095e-35
decision_type=2 2 2 2 2 2 2 2 2 2 2 2 2 2 2 2 2 2 2 2 2 2 2 2 2 2 2 2 2 2
left_child=4 2 -2 18 5 6 11 14 9 10 12 -1 -9 -14 15 -8 -17 -7 -4 21 -21 23 -23 24 -20 27 -27 -25 -13 -30
right_child=1 -3 3 -5 -6 17 7 8 -10 -11 -12 28 13 -15 -16 16 -18 -19 19 20 -22 22 -24 25 -26 26 -28 -29 29 -31
leaf_value=0.050948083606310084 -0.033815097702711509 -0.031235227248162009 -0.012081592100091179 -0.034009480511007155 -0.0154213526117683 0.0078841694505828799 -0.048919354359118317 0.018040596941235502 -0.017444861407979084 -0.013249316331594166 0.060184589197263508 0.065552586999375162 0.067892622660673904 0.00073397124697211033 -0.024452767428987332 -0.055432631115944035 0.044592466165361631 -0.044061628906742478 0.00540167160974106 0.031493471565234472 -0.022658374032703956 0.039780894237227388 -0.014310031177166248 -0.0065496498243362957 0.030867801736469941 0.056518829000137882 -0.0012578875460418067 -0.050439411287469565 -0.027929560101923975 0.023181428409046162
leaf_weight=50.259474396705627 106.33051356673241 134.93423306941986 494.34222599864006 78.397843867540359 164.85581859946251 2753.6038186848164 22.293611496686935 270.23777577280998 229.02648860216141 201.65947335958481 41.246411114931107 13.847998619079588 19.995073914527893 1321.8141067028046 279.96969211101532 14.005533695220945 51.62885844707489 20.89427837729454 1115.4737989604473 53.14848455786705 253.40799513459206 23.431446760892868 364.89378184080124 378.88009366393089 99.568020164966583 34.242216855287552 98.220650285482407 31.70125687122345 44.572161465883255 57.832416534423828
leaf_count=137 311 387 1397 226 472 7609 62 744 637 564 114 38 55 3664 786 39 143 58 3097 150 724 65 1024 1069 272 95 277 90 125 158
internal_value=5.01045e-05 -0.00550245 -0.00439384 -0.0033599 0.00331403 0.00388675 6.55289e-05 -0.00138366 0.00144827 0.00378095 0.00585821 0.0214048 0.0044682 0.00173474 -0.0174253 0.0049507 0.0232484 0.00749297 -0.00254463 -0.000622665 -0.0132699 0.00118365 -0.0110462 0.00388498 0.00748852 -0.00417783 0.0136776 -0.00993841 0.00863232 0.000935087
internal_weight=8824.72 3266.97 3132.04 3025.71 5557.74 5392.89 2618.39 2451.88 2083.98 1854.95 1653.29 166.512 1612.05 1341.81 367.898 87.928 65.6344 2774.5 2947.31 2452.97 306.556 2146.41 388.325 1758.09 1215.04 543.044 132.463 410.581 116.253 102.405
internal_count=24589 9184 8797 8486 15405 14933 7266 6808 5778 5141 4577 458 4463 3719 1030 244 182 7667 8260 6863 874 5989 1089 4900 3369 1531 372 1159 321 283
is_linear=0
shrinkage=0.05


Tree=21
num_leaves=31
num_cat=0
split_feature=5 25 36 11 18 36 17 18 22 40 14 35 15 16 14 14 6 25 14 28 35 27 19 36 9 20 12 14 7 14
split_gain=41.1363 36.7832 38.9486 30.9846 40.8384 39.3052 31.7494 32.7371 28.8981 28.3281 28.3245 36.5266 28.3915 27.1277 25.7525 28.2487 25.1456 24.0952 25.1582 23.9954 23.0673 24.2321 22.5513 24.192 22.1281 21.7254 20.9321 28.5881 23.8211 21.3786
threshold=147.44122641552565 145.8552047021341 -0.0010532390211206997 145.60939464870506 -0.007790293770754019 -0.0041952874865631698 0.00052125426894633631 0.018290751037763679 -0.059831395280462787 0.0014202331988291865 144.04508000000001 0.0024871925460603355 130.8248047455414 -0.0042832831489434389 145.08881250000005 146.03419000000005 134.07645000000005 147.14811332092981 147.09378750000005 29.385074369270182 0.0010580674103757295 0.7047700471174817 9.6318897433836508 0.006733985989362202 140.71181117909583 24.269675711657097 143.93054000000004 145.1762975 108.82833283076994 108.89316250000002
decision_type=2 2 2 2 2 2 2 2 2 2 2 2 2 2 2 2 2 2 2 2 2 2 2 2 2 2 2 2 2 2
left_child=1 3 -3 5 25 -1 8 26 13 16 11 12 -10 -7 -2 -16 -9 18 -17 -12 -6 -22 -19 -24 -18 -5 28 -28 -8 -30
right_child=14 2 -4 4 20 6 7 9 10 -11 19 -13 -14 -15 15 17 24 22 -20 -21 21 -23 23 -25 -26 -27 27 -29 29 -31
leaf_value=-0.016528921648408211 0.060246092861693738 0.0018136510450666263 -0.031156520345426361 0.027533507330905274 0.043233516663980093 0.019647777999737617 -0.027758259149346889 -0.017312137562988064 0.015536491665987315 0.055607374253765676 0.062022168072267736 -0.022476882071684013 -0.004059077076923736 -0.0060301897586493118 -0.039241561952111786 0.080078779311447801 0.046969963674243498 0.0023604294926252069 0.017084004145370625 0.0010922765719985122 0.049716839327823253 -0.039618821291587232 0.013234635892300851 0.076150107765655145 -0.033565314026489414 -0.032138411611623306 -0.029071958065238636 0.024755773966411831 0.033144654889837234 -0.0040942813378955171
leaf_weight=434.10474535822868 20.836793333292007 151.61431577801704 218.90977412462234 22.075265049934387 112.01830312609673 118.1807259619236 105.32048341631889 57.897078961133957 682.38757362961769 37.69753959774971 44.880653560161591 93.940829426050186 253.52154859900475 793.22427287697792 36.513253450393677 18.352697610855103 41.686850100755692 2448.4212711453438 116.1935031414032 25.249423503875732 12.409939229488375 19.546704888343811 312.51503160595894 16.064478278160095 10.723266988992689 49.359782576560974 173.66378498077393 28.750449329614639 39.320588409900665 1944.1437201797962
leaf_count=1298 56 444 675 63 321 342 323 171 1953 106 129 276 738 2321 107 51 120 7032 330 73 35 59 887 44 31 151 518 84 113 5738
internal_value=0.000117092 -0.0024545 -0.0176655 -0.00134942 0.0172089 -0.00216782 -0.000767059 -0.00460195 0.0038835 0.0181889 0.00933883 0.00724508 0.0102284 -0.00270056 0.00485563 0.00446413 0.00540108 0.00501224 0.0256768 0.0400852 0.0325439 -0.0049265 0.00401104 0.0163106 0.0304922 -0.0136983 -0.00607417 -0.0214264 -0.00458645 -0.00335605
internal_weight=8439.52 5470.63 370.524 5100.1 215.41 4884.69 4450.59 2439.2 2011.39 148.005 1099.98 1029.85 935.909 911.405 2968.9 2948.06 110.307 2911.55 134.546 70.1301 143.975 31.9566 2777 328.58 52.4101 71.435 2291.2 202.414 2088.78 1983.46
internal_count=24589 16082 1119 14963 629 14334 13036 7204 5832 428 3169 2967 2691 2663 8507 8451 322 8344 381 202 415 94 7963 931 151 214 6776 602 6174 5851
is_linear=0
shrinkage=0.05


Tree=22
num_leaves=31
num_cat=0
split_feature=3 3 2 31 11 28 8 17 25 40 26 22 22 8 5 26 10 14 11 38 36 2 36 14 3 36 23 2 28 23
split_gain=95.0742 22.6939 18.3161 17.5199 17.2167 20.3066 19.1119 16.7639 24.6629 27.3216 15.6277 14.913 12.4264 11.9636 12.9664 11.8814 12.008 23.4352 11.9708 11.8048 11.2054 11.0042 11.7079 18.4935 26.5732 25.5921 14.757 16.9474 13.8642 16.3527
threshold=0.34782142857142878 0.10792857142857266 0.00046603105530290559 13.500000000000002 149.99903163626692 14.706982381704691 149.34365000000003 0.003967706021203444 114.74119114327392 0.00071939696421330736 0.0062518598331502322 -0.13753400896496729 -0.025980578519366953 157.25105000000005 158.44471119542425 0.032122622189759871 149.47030000000004 145.91919250000004 155.95383560383462 0.447207793642938 0.00054250580083803357 0.00059236472506397366 -0.00053201694431953539 131.92197750000003 0.13889285714285751 -0.001287294030758279 0.072705040412630956 0.0012560367883956436 46.15899622313259 0.010898222122256794
decision_type=2 2 2 2 2 2 2 2 2 2 2 2 2 2 2 2 2 2 2 2 2 2 2 2 2 2 2 2 2 2
left_child=1 11 4 -4 6 -6 -3 21 9 -9 -2 -1 -7 15 -15 18 17 20 -12 -13 -17 -5 23 24 -23 -26 27 28 29 -25
right_child=10 2 3 7 5 12 -8 8 -10 -11 13 19 -14 14 -16 16 -18 -19 -20 -21 -22 22 -24 26 25 -27 -28 -29 -30 -31
leaf_value=0.056876114056555717 -0.021242289496413644 0.016892523775531285 -0.0040222362363814294 -0.012694050678591568 0.075533196053940682 0.066052273274203641 0.072799229927259762 0.012944065537976597 0.0061244780767167667 0.084335335372252296 0.016127553793891348 -0.010957514105967047 -0.012046163075559143 0.070741251272485581 -0.0093754967901369668 0.070317046444099418 0.099565422535216302 -0.015560303767646336 -0.025709638561139083 0.040471253950693203 -0.0014300197368563165 -0.0081090481720046664 -0.0033330086047827037 -0.0072144076507862564 0.022461805618047198 0.086103956106815357 0.057064263683342456 -0.016732781211334816 0.020227855491757544 0.023636125757988753
leaf_weight=8.3420865535736066 25.941304564476013 51.44377601146698 2926.5778019279242 163.0781275331974 8.2519018650054914 5.4606515765190116 21.749909579753876 33.304909765720367 392.18817196786404 22.42525589466095 599.27136667072773 864.45687185227871 75.712960481643677 20.357675969600681 6.7164163291454306 25.971672475337982 7.0892401635646811 18.1069196164608 17.59992727637291 11.30393275618553 6.8846025168895713 63.78533735871315 758.05474051833153 223.14276480674744 117.50474366545677 18.249647915363312 11.308483511209486 124.05711388587952 102.85672861337662 53.193536251783371
leaf_count=29 93 184 10682 603 28 20 71 121 1405 73 2021 3280 279 62 22 80 22 61 60 42 24 231 2764 813 408 63 40 448 367 193
internal_value=-0.000204874 -0.00225691 -0.000991522 -0.00152759 0.0155229 0.00080436 0.0335055 0.00197709 0.0105472 0.0416712 0.016868 -0.0096599 -0.00679238 0.0182763 0.0508663 0.016969 0.0385944 0.030113 0.0149339 -0.0102937 0.0552834 -0.000370419 0.000994734 0.00558887 0.0185101 0.0310173 0.000578179 -0.000691114 0.00455709 -0.00127581
internal_weight=6784.39 6056.45 5172.35 5009.73 162.619 89.4255 73.1937 2083.15 447.918 55.7302 727.939 884.103 81.1736 701.998 27.0741 674.924 58.0524 50.9632 616.871 875.761 32.8563 1635.23 1472.15 714.098 199.54 135.754 514.559 503.25 379.193 276.336
internal_count=24589 22144 18793 18211 582 327 255 7529 1599 194 2445 3351 299 2352 84 2268 187 165 2081 3322 104 5930 5327 2563 702 471 1861 1821 1373 1006
is_linear=0
shrinkage=0.05


Tree=23
num_leaves=31
num_cat=0
split_feature=3 24 18 37 40 24 11 25 14 18 14 7 14 22 39 2 22 37 12 5 12 19 28 11 19 12 25 14 5 13
split_gain=58.1708 37.1414 35.6204 27.7542 27.6355 26.4897 22.9834 41.0223 48.9519 43.3872 38.3773 42.8038 36.6254 36.694 32.4053 29.5402 29.3432 27.0893 22.7769 25.6591 43.4765 29.0999 27.7207 22.7856 22.5841 28.6105 27.6709 29.8935 26.149 25.0426
threshold=0.23303571428571249 147.82676128045611 0.015512003543081356 -0.012169043255894905 0.0017343021479964051 123.952234714422 147.51283053678932 115.65236418388717 115.42250000000001 0.0022975420202548951 128.26691500000004 130.63567290576023 115.32209250000001 0.21742292368781257 0.5775422818887509 0.00072913358007074738 0.012103471104087745 0.0047483000952068264 105.19515500000001 109.20422835873511 108.92632500000001 5.6344607402186018 24.372518803668843 113.88988298914948 1.6786536826237366 147.17754000000005 156.07043910260572 155.23210000000003 155.71141171957146 155.11746548606524
decision_type=2 2 2 2 2 2 2 2 2 2 2 2 2 2 2 2 2 2 2 2 2 2 2 2 2 2 2 2 2 2
left_child=6 2 3 -2 24 -4 7 8 9 14 12 -12 -9 -14 18 16 -11 -8 -1 20 -20 22 23 -21 -3 -26 27 29 -29 -27
right_child=1 4 5 -5 -6 -7 17 10 -10 15 11 -13 13 -15 -16 -17 -18 -19 19 21 -22 -23 -24 -25 25 26 -28 28 -30 -31
leaf_value=0.062252823482414427 -0.031554896088273339 -0.022545178943234517 0.068824711378446132 0.0015035233409638779 -0.040710696948443537 -0.029339844515346998 0.00010928793642496575 -0.05221297525281543 -0.043541332523343829 -0.023719053470342713 -0.029042183507087177 0.010198712663268676 0.04530269826429275 -0.0084637956630894563 0.029491043096253517 -0.022405737868060358 0.0046673552136537316 -0.027389805849676693 0.011974157778312809 0.025812298821460952 -0.033817603503299876 0.036810916431515267 -0.0032510620754542864 -0.023293541341820514 -0.040438820669879832 -0.0074421214871710538 -0.036560320892599391 0.036648800260787519 -0.010336015295026882 0.065354767678400635
leaf_weight=17.001489043235779 65.666106313467026 280.90353974699974 7.2142074406146994 1915.7925765514374 81.180426359176636 145.03822618722916 1857.6948470473289 12.639262497425078 61.076174080371857 113.23251482844353 73.129754185676575 1397.6060262620449 172.45106747746468 38.889131784439087 157.99637591838837 220.5695438683033 464.47775894403458 94.093394905328751 100.920972853899 181.21417206525803 106.57145488262177 80.315195649862289 382.90642714500427 27.163977831602097 55.775035232305527 505.04088547825813 57.271023720502853 88.128588497638702 44.59886422753334 12.096905410289763
leaf_count=46 193 807 20 5338 242 413 5178 35 171 322 202 3837 469 107 431 617 1275 276 279 501 300 221 1063 75 165 1433 168 245 126 34
internal_value=4.55557e-05 -0.00525882 -0.00138282 0.000407958 -0.0126102 -0.0246885 0.00315447 0.00551884 0.000501455 0.00195363 0.0111838 0.00824753 0.0304645 0.035409 0.00861288 -0.00683959 -0.000896445 -0.00121641 0.00493171 0.00382313 -0.0115452 0.00857122 0.00473538 0.0194109 -0.0104247 -0.005962 -0.00324266 -0.000306452 0.020861 -0.00573925
internal_weight=8818.66 3258.71 2133.71 1981.46 1125 152.252 5559.95 3608.16 1913.45 1852.37 1694.72 1470.74 223.979 211.34 1054.09 798.28 577.71 1951.79 896.094 879.092 207.492 671.6 591.285 208.378 1043.81 762.911 707.136 649.865 132.727 517.138
internal_count=24589 9184 5964 5531 3220 433 15405 9951 5301 5130 4650 4039 611 576 2916 2214 1597 5454 2485 2439 579 1860 1639 576 2978 2171 2006 1838 371 1467
is_linear=0
shrinkage=0.05


Tree=24
num_leaves=31
num_cat=0
split_feature=5 25 36 37 11 36 37 24 14 14 15 21 35 10 24 15 14 36 36 36 10 40 22 5 37 11 17 23 26 3
split_gain=36.842 34.7326 36.9437 32.5229 28.7114 36.6529 39.2318 33.1301 33.5988 49.2881 34.1026 41.8301 39.0806 38.8556 33.1326 29.8866 29.7622 34.5345 29.4061 34.2014 29.332 29.1904 31.2843 27.7728 27.7583 26.293 25.016 24.6649 24.5541 23.8588
threshold=147.44122641552565 145.8552047021341 -0.0010532390211206997 0.0026075076560340697 145.60939464870506 -0.0041952874865631698 0.0012731767912366745 105.46640415817704 105.32891500000001 108.39855750000002 110.88793538620985 -0.030998766286828069 0.001887552188840014 113.81550000000003 116.17421614101325 147.00196568480303 115.42250000000001 -0.0028684176276809188 0.0043805635949571995 0.0086312567732242957 110.87519000000002 0.00054130635691616966 -0.064986240961411826 144.81485308269762 0.00078057616728044465 127.99340625302621 -0.0057628702251119037 0.029614224826976888 0.003901721221320141 0.08800000000000148
decision_type=2 2 2 2 2 2 2 2 2 2 2 2 2 2 2 2 2 2 2 2 2 2 2 2 2 2 2 2 2 2
left_child=1 4 28 24 5 -1 7 -7 -9 -10 11 20 -13 29 16 -6 21 -18 23 27 -11 -15 -23 25 -2 -16 -26 -20 -3 -12
right_child=3 2 -4 -5 15 6 -8 8 9 10 13 12 -14 14 18 -17 17 -19 19 -21 -22 22 -24 -25 26 -27 -28 -29 -30 -31
leaf_value=-0.015964742748696543 0.0055581103878836798 0.046979790936534038 -0.030434682934384921 0.015088917618119327 0.030713675271530988 -0.048637496276662362 -0.0064073214729977838 0.058865305394135772 -0.037265133107425713 -0.0049053790724380942 0.045201094928177657 0.031814296117523705 -0.0099769831895933116 -0.013893504943021393 -0.026392787838182042 -0.0079024084260351079 -0.023722946822384568 0.068800141993236447 0.051189534639843597 -0.025796853282283677 0.077173735644115588 -0.0084093847815315571 0.033814781474644222 -0.036386125729524148 0.05760490308275279 0.00080728539831580583 -0.0075183880021390329 0.0068504752118909778 -0.0071947629161109921 -0.031071307577460707
leaf_weight=431.10960364341736 1656.6803678274155 25.054174393415451 216.20669883489609 591.03010445833206 136.94769582152367 30.50649031996727 1793.2104066610336 27.383096247911453 73.169783890247345 248.65437158942223 11.170806437730787 322.78723707795143 67.668273121118546 88.457121402025223 96.921782851219177 79.013325244188309 12.857978194952009 46.771222144365311 70.314377337694168 32.896318525075912 11.382983952760695 64.038938969373703 139.26897838711739 59.843712240457535 15.058767557144163 1066.371395021677 710.8438395857811 56.622744798660278 126.62597373127937 124.80010393261909
leaf_count=1298 4743 72 675 1658 392 95 5298 80 220 714 32 917 197 258 294 237 38 131 201 96 32 188 401 178 42 3130 2064 166 372 370
internal_value=0.000112009 -0.0023268 -0.0171634 0.00459006 -0.00125492 -0.00204504 -0.000695027 0.00316763 0.00377052 0.00318892 0.00436314 0.0142244 0.0245716 0.000933464 0.00295132 0.0165853 0.0166613 0.0488492 -0.000532202 0.0196369 -0.00131241 0.0100829 0.0205148 -0.0031678 0.00198569 -0.00145894 -0.00616741 0.0314112 0.00175366 -0.0248051
internal_weight=8433.67 5460.06 367.887 2973.61 5092.17 4876.21 4445.1 2651.89 2621.38 2594 2520.83 650.493 390.456 1870.34 1734.36 215.961 351.394 59.6292 1382.97 159.833 260.037 291.765 203.308 1223.14 2382.58 1163.29 725.903 126.937 151.68 135.971
internal_count=24589 16082 1119 8507 14963 14334 13036 7738 7643 7563 7343 1860 1114 5483 5081 629 1016 169 4065 463 746 847 589 3602 6849 3424 2106 367 444 402
is_linear=0
shrinkage=0.05


Tree=25
num_leaves=31
num_cat=0
split_feature=3 3 2 34 11 28 7 19 22 27 20 19 3 14 17 2 15 40 19 35 14 37 17 14 10 39 28 24 28 14
split_gain=86.7314 20.9422 17.0879 16.3814 15.6761 18.4045 17.1549 14.8361 13.7629 13.1463 12.9383 25.6117 18.4709 12.6149 14.9957 12.3877 12.3094 26.0227 14.5318 16.6132 13.7036 23.1157 12.0196 11.9429 11.9346 14.4989 11.8933 11.5325 12.5416 12.2453
threshold=0.34782142857142878 0.10792857142857266 0.00046603105530290559 1.0000000180025095e-35 149.99903163626692 14.706982381704691 149.66840308383965 9.8620394948957095 -0.13753400896496729 0.86714833742612163 43.260398920035946 2.0995846313523394 0.42753571428571241 156.24457500000003 -0.0017936179123213545 0.00058850559987782484 130.8248047455414 0.00081414766865103123 3.3320450554711356 0.002169201128440879 114.37429000000002 -0.0011458016217288922 -0.00010830546452983424 129.83962500000001 149.47030000000004 -0.88157024516866944 60.169364172632875 159.0267073991217 35.592310991930475 153.81688250000005
decision_type=2 2 2 2 2 2 2 2 2 2 2 2 2 2 2 2 2 2 2 2 2 2 2 2 2 2 2 2 2 2
left_child=1 8 4 -4 6 -6 -3 10 -1 15 11 12 24 -12 -15 -5 17 -17 19 -19 21 -20 -11 -13 25 -2 -7 29 -29 -18
right_child=7 2 3 9 5 26 -8 -9 -10 22 13 23 -14 14 -16 16 27 18 20 -21 -22 -23 -24 -25 -26 -27 -28 28 -30 -31
leaf_value=0.053842613152720965 0.068309925075161426 0.021982388584275436 -0.003674032801962298 -0.014845650662746346 0.070706624237972124 -0.011739222263501804 0.090000465190895163 -0.018084534438456448 -0.0099233799910468448 0.048798351068727847 0.0090585458500694778 0.067144927870941534 0.072682622096461577 -0.012159323862199471 0.08588459462908847 -0.0015750388306789197 0.00044524519354925294 0.062006418314107352 -0.01581347337082073 0.00079724755465773083 0.00037764833499317313 0.09222613753934919 0.00835333095580852 0.013588722861112812 0.059257895474054224 -0.0083295881168913306 0.064171978957274667 -0.018946990484515119 0.070611450068441883 -0.014617317556111091
leaf_weight=8.5451231896877271 8.0973074436187726 63.41656568646431 3139.8561887145042 127.27929803729057 8.525772809982298 75.256679445505142 10.857047349214552 30.531052812933922 869.33967916667461 19.310573518276215 353.82110989093781 10.906672656536101 39.852793574333191 5.8992534577846554 11.507867753505705 204.63944506645203 821.39655105769634 42.027840733528137 8.3910890519619006 15.057261645793913 58.313573122024536 12.07572892308235 376.97336119413376 228.37275856733322 19.130296468734741 25.943696856498718 5.5395795106887809 6.0121610462665585 11.175367861986159 161.45294532179832
leaf_count=29 25 221 11478 474 28 279 34 110 3322 69 1194 35 120 20 36 744 2989 140 29 51 203 38 1349 759 61 85 20 22 38 587
internal_value=-0.000192159 -0.00216282 -0.000949869 -0.00146975 0.0149518 0.000838086 0.031925 0.0160374 -0.0093027 0.00224311 0.0175182 0.0246849 0.0469475 0.0111029 0.0526576 6.13693e-05 0.00147673 0.00968771 0.0266516 0.0458614 0.0127319 0.0479315 0.0103242 0.0160299 0.0276587 0.00990059 -0.00653457 -0.00131904 0.0392841 -0.00202909
internal_weight=6779.5 6045.44 5167.56 5003.96 163.596 89.322 74.2736 734.063 877.885 1864.11 703.532 332.304 93.0241 371.228 17.4071 1467.82 1340.54 340.505 135.865 57.0851 78.7804 20.4668 396.284 239.279 53.1713 34.041 80.7963 1000.04 17.1875 982.849
internal_count=24589 22144 18793 18211 582 327 255 2445 3351 6733 2335 1085 291 1250 56 5315 4841 1205 461 191 270 67 1418 794 171 110 299 3636 60 3576
is_linear=0
shrinkage=0.05


Tree=26
num_leaves=31
num_cat=0
split_feature=3 24 18 37 24 36 26 37 39 10 36 25 14 10 13 15 18 35 24 14 35 16 12 14 35 15 36 3 18 11
split_gain=53.399 34.0911 32.6741 25.7366 24.4154 23.8217 22.3223 22.7718 28.9891 24.9349 22.4475 21.6183 29.6012 52.0415 21.3284 25.9262 26.438 23.152 40.6498 38.7271 24.7207 20.9738 20.1565 19.4353 33.0755 19.8634 19.1864 18.9433 18.7783 18.6317
threshold=0.23303571428571249 147.82676128045611 0.015512003543081356 -0.012169043255894905 123.952234714422 0.0063029753803219299 0.0016082430292472321 0.0059304141594019319 -0.21798471140381157 107.91013000000001 -0.0041952874865631698 156.3952835259131 155.37887500000002 155.00819000000004 146.63790314385429 147.36219269885683 -0.007024958313291251 -0.0033174688549206239 132.7326732032767 129.43477000000004 0.0029819224840118013 -0.0016293463516665605 147.24413000000001 129.16784500000003 0.0012037103764043768 129.70552524470045 -0.0037743574972602385 0.26132142857142687 0.0096106037693944896 153.14061569608199
decision_type=2 2 2 2 2 2 2 2 2 2 2 2 2 2 2 2 2 2 2 2 2 2 2 2 2 2 2 2 2 2
left_child=6 2 3 -2 -4 11 -1 8 10 -10 -8 12 28 -14 17 -16 -17 18 19 -5 23 -9 -18 24 -19 -25 -12 -22 29 -3
right_child=1 5 4 14 -6 -7 7 21 9 -11 26 -13 13 -15 15 16 22 20 -20 -21 27 -23 -24 25 -26 -27 -28 -29 -30 -31
leaf_value=-0.014394648404375727 -0.030614836470152063 -0.011289501460520332 0.065348313496343235 -0.021635994274990158 -0.028318173905428342 -0.036254198518573359 0.016058305542027893 0.055459862703217233 0.031084296781079698 0.0058569968000392238 -0.033205935156765287 -0.033916366062854655 0.066493041795725391 -0.0027615424938726859 0.062489078962094768 0.030185576855209201 0.034348460038748439 -0.037582042122487364 -0.018453068175788363 0.05778455830476549 0.014188275890141298 -0.019330852556663003 -0.035365037930834578 0.054382983245867024 0.035034733731786609 0.0076218557690387991 -0.0025770071385354302 -0.014282119928516754 0.004914112080473822 -0.033015798214152424
leaf_weight=178.17987349629402 64.836184471845627 512.77322241663933 7.3117511272430411 25.924071669578552 143.48414814472198 93.665867924690247 159.33436566591263 9.9827225804328901 100.67948889732361 3613.6828832924366 53.237066835165024 85.936185449361801 34.081231713294983 132.93027511239052 28.463663786649704 67.695134341716766 14.103444695472716 55.962497621774673 314.64055636525154 37.629037171602249 73.501141965389252 153.71025487780571 39.15409043431282 23.279253482818604 21.785267770290375 929.32074272632599 1291.4861461818218 284.87362068891525 137.42985272407532 122.19297203421593
leaf_count=498 193 1470 20 73 413 280 440 28 271 9974 148 255 93 377 77 185 38 156 887 104 203 444 109 65 60 2578 3602 803 393 352
internal_value=4.06409e-05 -0.00504985 -0.00134039 0.000367327 -0.0237765 -0.0121172 0.00301693 0.00359336 0.00416938 0.00654079 -0.00168698 -0.00991226 -0.00771639 0.0113709 0.00141556 0.019555 0.00945132 -0.000118367 -0.0110859 0.025388 0.00286843 -0.0147698 -0.0169038 0.00680275 -0.0172345 0.00876459 -0.00378959 -0.00844296 -0.0118435 -0.0154705
internal_weight=8811.27 3250.97 2131.96 1981.17 150.796 1119.01 5560.29 5382.11 5218.42 3714.36 1504.06 1025.34 939.408 167.012 1916.33 149.416 120.953 1766.92 378.194 63.5531 1388.72 163.693 53.2575 1030.35 77.7478 952.6 1344.72 358.375 772.396 634.966
internal_count=24589 9184 5964 5531 433 3220 15405 14907 14435 10245 4190 2940 2685 470 5338 409 332 4929 1064 177 3865 472 147 2859 216 2643 3750 1006 2215 1822
is_linear=0
shrinkage=0.05


Tree=27
num_leaves=31
num_cat=0
split_feature=18 24 15 24 15 25 13 37 35 37 24 22 37 24 21 15 13 37 13 35 15 21 15 35 7 37 9 28 19 18
split_gain=35.5342 31.528 31.2237 25.1736 27.7449 60.2535 54.9883 33.402 29.1882 24.9198 24.2596 23.601 27.6655 23.5997 21.4433 21.3652 37.8158 26.5792 23.8673 56.0805 35.2073 40.5123 24.0131 23.6824 24.2552 22.6569 20.1289 33.8504 19.8314 19.8241
